{
    "biases":[
        0.04758736491203308,
        0.11316532641649246,
        -0.10801517218351364,
        -0.19011279940605164,
        -0.27275025844573975,
        -0.05532030761241913,
        -0.375352144241333,
        -0.07091651111841202,
        -0.16347530484199524,
        -0.3355354368686676,
        0.008081750944256783,
        -0.27438682317733765,
        0.0065609547309577465,
        -0.17133952677249908,
        -0.2227572500705719,
        0.07776549458503723,
        -0.3110259175300598,
        -0.18464194238185883,
        -0.2893463671207428,
        -0.13687215745449066,
        -0.014298753812909126,
        -0.10413867980241776,
        -0.32324373722076416,
        -0.2888891100883484,
        -0.15629324316978455,
        -0.20690707862377167,
        -0.24263080954551697,
        -0.28265470266342163,
        -0.061702910810709,
        -0.29486703872680664,
        -0.14109399914741516,
        -0.2936275601387024,
        -0.09399064630270004,
        -0.18061266839504242,
        -0.1300581693649292,
        -0.24434448778629303,
        -0.23079659044742584,
        -0.037992242723703384,
        -0.3582092821598053,
        -0.12853096425533295,
        0.009531525894999504,
        -0.3246542811393738,
        0.06038927659392357,
        0.034881435334682465,
        -0.362925261259079,
        -0.13677550852298737,
        -0.12355311214923859,
        -0.4461263120174408,
        0.012368571944534779,
        -0.0578254796564579,
        -0.15379394590854645,
        -0.1195584312081337,
        -0.16403168439865112,
        -0.2510552704334259,
        -0.25413528084754944,
        -0.25460782647132874,
        0.16809143126010895,
        -0.2823813557624817,
        0.01332028117030859,
        -0.10469628125429153,
        -0.23232366144657135,
        -0.1158367171883583,
        -0.22051414847373962,
        0.1202138215303421,
        -0.43410882353782654,
        -0.0402524396777153,
        -0.17792226374149323,
        -0.22668136656284332,
        -0.050699688494205475,
        -0.25100111961364746,
        -0.27288752794265747,
        -0.3949277997016907,
        -0.286424845457077,
        -0.14651815593242645,
        0.20377956330776215,
        -0.3106529116630554,
        -0.04065603017807007,
        -0.38324105739593506,
        0.0836653858423233,
        -0.23287351429462433,
        -0.2510136365890503,
        -0.45506370067596436,
        -0.29108983278274536,
        -0.28115496039390564,
        -0.30526384711265564,
        -0.2219133824110031,
        -0.17943540215492249,
        -0.17959120869636536,
        -0.28901076316833496,
        -0.19239060580730438,
        -0.21935375034809113,
        -0.14659693837165833,
        -0.18681173026561737,
        0.02661786414682865,
        -0.23933939635753632,
        -0.183354914188385,
        -0.22204096615314484,
        -0.008376345969736576,
        -0.10929808020591736,
        -0.3348434567451477,
        -0.10565593093633652,
        -0.17943993210792542,
        -0.13668251037597656,
        -0.15303704142570496,
        -0.5028385519981384,
        -0.11658235639333725,
        -0.3362872898578644,
        -0.013378680683672428,
        -0.37841087579727173,
        -0.27211999893188477,
        -0.3072487413883209,
        0.08079608529806137,
        -0.215863898396492,
        -0.5514109134674072,
        -0.13176974654197693,
        -0.21968136727809906,
        -0.12433987110853195,
        -0.03801201656460762,
        -0.18287459015846252,
        -0.2501356303691864,
        -0.3461660146713257,
        -0.07385797798633575,
        0.03388635069131851,
        -0.10741220414638519,
        -0.4372042119503021,
        -0.2999061346054077,
        -0.2507639229297638,
        0.02646121010184288
    ],
    "weights":[
        [
            0.17638882994651794,
            -0.13950657844543457,
            -0.5426478981971741,
            0.13875949382781982,
            0.027341794222593307,
            -0.2077530324459076,
            -0.049513161182403564,
            0.04320485144853592,
            -0.11263535916805267,
            -0.1900222897529602,
            -0.18452410399913788,
            -0.28785115480422974,
            -0.3575595021247864,
            0.05933568999171257,
            -0.328281044960022,
            -0.3601542115211487,
            0.10852373391389847,
            0.01226075366139412,
            -0.017405377700924873,
            0.3328511118888855,
            0.2592204511165619,
            -0.23590824007987976,
            -0.20300203561782837,
            0.30789268016815186,
            -0.7110559344291687,
            -0.19668661057949066,
            0.05435241386294365,
            0.09616174548864365,
            0.031024834141135216,
            -0.21951228380203247,
            -0.23921987414360046,
            -0.3672812581062317,
            0.1597135066986084,
            -0.047297146171331406,
            -0.556166410446167,
            -0.4951000511646271,
            0.08561766147613525,
            -0.8744508028030396,
            -0.25705021619796753,
            0.004558134358376265,
            -0.6076276898384094,
            -0.10475584864616394,
            0.11934150755405426,
            0.011315162293612957,
            -0.2678292989730835,
            -0.0373079814016819,
            -0.25586044788360596,
            0.2774275243282318,
            0.15830114483833313,
            -0.04957424849271774,
            -0.1504453718662262,
            0.3065418303012848,
            -0.2566935122013092,
            0.2650417685508728,
            -0.03803781047463417,
            -0.33221790194511414,
            -0.025530794635415077,
            -0.28764551877975464,
            -0.4863658547401428,
            -0.048226501792669296,
            -0.02535821497440338,
            0.12266993522644043,
            -0.21372725069522858,
            0.05832170322537422,
            -0.025802131742239,
            0.06892536580562592,
            -0.22413767874240875,
            -0.04919297620654106,
            -0.4445333778858185,
            -0.004135578870773315,
            0.2346508502960205,
            0.3582460880279541,
            0.24015016853809357,
            0.20579278469085693,
            -0.3351357579231262,
            -0.44170552492141724,
            0.05623673275113106,
            0.022924989461898804,
            0.12081235647201538,
            0.0011087155435234308,
            -0.4426579177379608,
            -0.05299273133277893,
            -0.06963522732257843,
            0.05027488246560097,
            -0.21385735273361206,
            0.02242354489862919,
            -0.30209097266197205,
            -0.313266783952713,
            -0.09161089360713959,
            -0.11878427863121033,
            -0.07225324958562851,
            0.12200352549552917,
            0.19258907437324524,
            0.005590288899838924,
            -0.18536803126335144,
            0.03817324340343475,
            0.2677331566810608,
            -0.12406805157661438,
            -0.09513884037733078,
            0.041452087461948395,
            0.23953084647655487,
            -0.46298158168792725,
            0.20988883078098297,
            -0.2169860452413559,
            0.09322293847799301,
            0.10290347784757614,
            0.08030767738819122,
            -0.34931129217147827,
            -0.4613552987575531,
            0.20106779038906097,
            -0.24239914119243622,
            -0.3711887300014496,
            -0.3091593086719513,
            -0.07375872135162354,
            0.2063947170972824,
            -0.3018231689929962,
            0.012957233935594559,
            -0.26599714159965515,
            0.12545646727085114,
            -0.18291941285133362,
            -0.07422678917646408,
            -0.029935209080576897,
            0.2981131076812744,
            -0.17528536915779114,
            -0.04758210852742195,
            0.25300782918930054,
            -0.017137674614787102,
            0.02175423502922058
        ],
        [
            -0.23783256113529205,
            -0.584142804145813,
            -0.17388345301151276,
            0.1952417492866516,
            0.05915755033493042,
            0.11258585005998611,
            -0.07612236589193344,
            0.03064405545592308,
            0.05802560970187187,
            -0.1112043559551239,
            -0.21546678245067596,
            0.3114735782146454,
            -0.37897375226020813,
            0.024392951279878616,
            0.04965946078300476,
            0.06461099535226822,
            0.09116075932979584,
            -0.31701985001564026,
            0.32373908162117004,
            -0.26013827323913574,
            -0.2194499522447586,
            0.14317846298217773,
            -0.05730270594358444,
            0.022259635850787163,
            -0.12179841101169586,
            0.2732774019241333,
            -0.10078097879886627,
            -0.24327971041202545,
            -0.275960236787796,
            0.42670443654060364,
            -0.08161818236112595,
            -0.16515633463859558,
            0.0022768587805330753,
            -0.0416484996676445,
            -0.33670151233673096,
            -0.1805037558078766,
            0.15184105932712555,
            0.0010594998020678759,
            -0.041434355080127716,
            0.007011507637798786,
            -0.10546772927045822,
            -0.059218719601631165,
            -0.1333913952112198,
            -0.2790338397026062,
            -0.060442954301834106,
            -0.016291506588459015,
            0.17007878422737122,
            -0.5648899674415588,
            -0.12647035717964172,
            -0.08009056001901627,
            0.09001532942056656,
            -0.010699320584535599,
            -0.26960405707359314,
            0.1574842482805252,
            0.06953927129507065,
            -0.21166633069515228,
            -0.16680550575256348,
            -0.23231108486652374,
            -0.18628068268299103,
            0.2435554563999176,
            -0.08078247308731079,
            -0.023264892399311066,
            -0.022923745214939117,
            -0.0008510343031957746,
            -0.05681443214416504,
            -0.12602859735488892,
            0.30573955178260803,
            0.12385056912899017,
            0.15100730955600739,
            -0.18255817890167236,
            -0.5116857886314392,
            -0.13331077992916107,
            -0.06729735434055328,
            0.13190153241157532,
            -0.2627662718296051,
            -0.18553845584392548,
            -0.18792885541915894,
            0.21583929657936096,
            0.14437907934188843,
            -0.06872100383043289,
            0.12541307508945465,
            -0.24900105595588684,
            -0.11944612860679626,
            -0.017056025564670563,
            -0.20344287157058716,
            0.019470173865556717,
            0.2296162247657776,
            -0.0026544241700321436,
            0.04991346597671509,
            -0.06439631432294846,
            -0.12661129236221313,
            0.01716454140841961,
            0.2344626933336258,
            -0.15439996123313904,
            0.21880914270877838,
            0.11606743931770325,
            -0.12147516012191772,
            -0.09316755086183548,
            -0.5066336989402771,
            -0.5658997297286987,
            -0.21947479248046875,
            0.0801781415939331,
            -0.2329576015472412,
            -0.011028406210243702,
            0.07112118601799011,
            -0.024920009076595306,
            -0.3395152688026428,
            -0.12658657133579254,
            0.30034637451171875,
            -0.006828631740063429,
            0.08381578326225281,
            -0.3328181207180023,
            0.15639324486255646,
            0.05278551205992699,
            0.09384646266698837,
            -0.009594441391527653,
            -0.015578368678689003,
            -0.14401482045650482,
            0.26880308985710144,
            -0.32259777188301086,
            -0.01126741711050272,
            0.14524807035923004,
            -0.46973884105682373,
            -0.3737817406654358,
            0.060102660208940506,
            -0.7602630257606506,
            -0.038031794130802155,
            -0.3467158377170563
        ],
        [
            -0.11397551745176315,
            -0.043369751423597336,
            0.11674027144908905,
            -0.4472188949584961,
            0.4103948175907135,
            0.21906061470508575,
            -0.18231090903282166,
            -0.05825337767601013,
            0.46001431345939636,
            -0.4047892391681671,
            0.017044326290488243,
            0.3762407898902893,
            -0.3087623715400696,
            0.36836177110671997,
            0.2757468819618225,
            -0.002448432147502899,
            0.11396808177232742,
            -0.19191664457321167,
            0.181594580411911,
            -0.3446797728538513,
            0.06285504251718521,
            -0.08548779785633087,
            -0.056725095957517624,
            0.19062471389770508,
            0.06979084014892578,
            0.19656801223754883,
            -0.22803273797035217,
            -0.15660956501960754,
            0.182342067360878,
            0.2978072166442871,
            0.16058985888957977,
            -0.0928720235824585,
            -0.1166100949048996,
            0.038784291595220566,
            0.0021974833216518164,
            -0.4761282503604889,
            -0.04852171987295151,
            0.3961862027645111,
            -0.04181700572371483,
            -0.0016269462648779154,
            -0.17135454714298248,
            -0.22707509994506836,
            -0.32567426562309265,
            -0.19758065044879913,
            -0.3797289729118347,
            0.2857932150363922,
            0.0078023565001785755,
            -0.26649209856987,
            -0.06387240439653397,
            -0.1671520173549652,
            -0.21387600898742676,
            0.11242399364709854,
            0.1352456510066986,
            0.07126223295927048,
            0.03004075400531292,
            0.2767700254917145,
            0.3945464491844177,
            -0.06173096224665642,
            0.19770589470863342,
            0.35867828130722046,
            0.04605640843510628,
            0.13526596128940582,
            0.037870462983846664,
            -0.3242781162261963,
            0.0759868398308754,
            0.18240627646446228,
            0.14382639527320862,
            0.1524645984172821,
            0.35242047905921936,
            -0.3666147291660309,
            -0.5425905585289001,
            0.000273619603831321,
            0.14364667236804962,
            0.02150910347700119,
            0.38813063502311707,
            0.3761489987373352,
            0.22586064040660858,
            -0.16288712620735168,
            0.17996853590011597,
            0.2905392050743103,
            0.1420133262872696,
            0.14666026830673218,
            -0.24058270454406738,
            -0.3046182692050934,
            0.27488988637924194,
            0.10618729144334793,
            -0.051354534924030304,
            -0.3124467134475708,
            0.044342536479234695,
            0.06386185437440872,
            -0.4949743449687958,
            0.21029390394687653,
            0.28018081188201904,
            0.5092456936836243,
            0.5228659510612488,
            0.34814730286598206,
            0.06327372789382935,
            0.24325409531593323,
            -0.13758817315101624,
            -0.08485535532236099,
            -0.20817051827907562,
            -0.20851828157901764,
            -0.08177689462900162,
            0.27351245284080505,
            0.05187677592039108,
            0.30772700905799866,
            -0.008805393241345882,
            0.47555145621299744,
            0.12588411569595337,
            0.12634803354740143,
            0.1065421849489212,
            0.11848181486129761,
            0.3496899902820587,
            -0.3000824451446533,
            0.1368100643157959,
            0.08162429928779602,
            0.06737279891967773,
            -0.17908436059951782,
            0.2949534058570862,
            0.27588120102882385,
            0.13117282092571259,
            -0.05493869632482529,
            0.11383406072854996,
            -0.4671306908130646,
            0.06612424552440643,
            -0.47286027669906616,
            0.06787280738353729,
            0.1193811222910881
        ],
        [
            0.1065249964594841,
            0.22260650992393494,
            0.11334726214408875,
            0.004992721602320671,
            -0.0024385815486311913,
            -0.15300241112709045,
            0.2691296637058258,
            0.039747532457113266,
            -0.11091206967830658,
            0.40653321146965027,
            0.3203093409538269,
            0.39614173769950867,
            -0.3098990023136139,
            0.2484474927186966,
            -0.02531406469643116,
            0.07725174725055695,
            -0.18243364989757538,
            -0.03146658092737198,
            -0.08756721019744873,
            -0.15441793203353882,
            -0.13852857053279877,
            -0.021188609302043915,
            0.4810841381549835,
            -0.30778512358665466,
            0.6189616322517395,
            0.2204412817955017,
            0.0867120549082756,
            -0.3632788360118866,
            0.3044705092906952,
            -0.11875856667757034,
            0.11256907135248184,
            0.1154341995716095,
            -0.22638392448425293,
            -0.31865194439888,
            0.21988171339035034,
            0.6100833415985107,
            0.1884101927280426,
            0.28193363547325134,
            0.23393623530864716,
            0.05816611647605896,
            -0.08338534086942673,
            0.4184192419052124,
            -0.2804356515407562,
            -0.09838365018367767,
            0.0219795573502779,
            0.06351340562105179,
            -0.13842272758483887,
            0.0346950963139534,
            -0.2001570761203766,
            0.3938502073287964,
            0.49244943261146545,
            -0.3056444823741913,
            -0.07878921180963516,
            -0.04587987810373306,
            -0.264503538608551,
            0.36498233675956726,
            -0.04325154796242714,
            -0.15763388574123383,
            0.4079037308692932,
            0.41845619678497314,
            -0.2636602818965912,
            0.024729201570153236,
            0.3921370208263397,
            -0.2996596097946167,
            -0.050807103514671326,
            -0.2486860454082489,
            0.002028149552643299,
            0.44304174184799194,
            -0.39060065150260925,
            -0.11990723758935928,
            0.1314726322889328,
            -0.23508179187774658,
            0.1772456020116806,
            -0.5010380744934082,
            -0.04296945780515671,
            0.01148882694542408,
            0.3605290353298187,
            -0.22528290748596191,
            -0.08391892910003662,
            0.11730020493268967,
            0.25933897495269775,
            0.2786281704902649,
            0.36484527587890625,
            0.17629162967205048,
            0.38224664330482483,
            -0.17017285525798798,
            -0.22083480656147003,
            -0.2600456476211548,
            -0.11410286277532578,
            -0.059790026396512985,
            -0.05358076095581055,
            0.012282075360417366,
            -0.08095794916152954,
            -0.08816444128751755,
            -0.10185923427343369,
            -0.5697334408760071,
            0.10778290033340454,
            0.14231204986572266,
            0.24257917702198029,
            -0.0756705179810524,
            -0.4548775851726532,
            0.06850775331258774,
            -0.34269750118255615,
            0.14436586201190948,
            0.040776874870061874,
            -0.14104034006595612,
            0.25802019238471985,
            0.29143956303596497,
            0.2294301986694336,
            -0.11451460421085358,
            0.021364202722907066,
            -0.22907684743404388,
            0.07883648574352264,
            0.08368923515081406,
            -0.0070207975804805756,
            -0.6568256616592407,
            0.11244156956672668,
            0.21473506093025208,
            -0.14550982415676117,
            0.5529994964599609,
            0.20550929009914398,
            0.04471093416213989,
            0.2838693857192993,
            0.40796515345573425,
            -0.0255099069327116,
            0.05482228845357895,
            0.12593302130699158,
            0.1624450832605362
        ],
        [
            -0.009495708160102367,
            0.04017399623990059,
            -0.18476849794387817,
            0.11390221863985062,
            0.10817944258451462,
            0.07767990976572037,
            0.0856204479932785,
            0.47020915150642395,
            -0.07334107160568237,
            -0.4545601010322571,
            -0.015910858288407326,
            -0.2028748244047165,
            0.02676726132631302,
            -0.07756497710943222,
            0.16848310828208923,
            -0.5011865496635437,
            -0.13221758604049683,
            -0.01389937661588192,
            -0.21285739541053772,
            0.10114956647157669,
            0.07317376881837845,
            0.08487154543399811,
            -0.5020751357078552,
            0.34787634015083313,
            0.10599281638860703,
            -0.47007128596305847,
            0.05446106940507889,
            0.09186381101608276,
            -0.3575354814529419,
            -0.948236346244812,
            -0.034448154270648956,
            0.060641709715127945,
            0.25908321142196655,
            0.15149764716625214,
            -0.17827792465686798,
            -0.06863835453987122,
            -0.15156222879886627,
            -0.01684746891260147,
            -0.16194218397140503,
            0.10833660513162613,
            -0.09085675328969955,
            -0.17579859495162964,
            -0.27215221524238586,
            0.09496158361434937,
            0.3417982757091522,
            0.473493367433548,
            0.3166103661060333,
            0.10976359248161316,
            -0.08751293271780014,
            -0.1654367446899414,
            -0.06340201944112778,
            0.0716991052031517,
            0.23627866804599762,
            0.39302685856819153,
            0.04019589349627495,
            -0.5215267539024353,
            0.39197638630867004,
            -0.07873374968767166,
            0.35124269127845764,
            -0.5858981013298035,
            -0.19212110340595245,
            -0.1817377507686615,
            0.1927027702331543,
            -0.0050973910838365555,
            -0.372158408164978,
            0.08090797811746597,
            -0.22581902146339417,
            -0.20253793895244598,
            0.1006833016872406,
            0.26260748505592346,
            0.5218887329101562,
            -0.04393796622753143,
            0.2579419016838074,
            0.16608940064907074,
            -0.16119477152824402,
            0.05494082719087601,
            -0.066225565969944,
            0.12151893228292465,
            0.08681430667638779,
            0.058164987713098526,
            0.08900429308414459,
            -0.11386483162641525,
            0.27295249700546265,
            -0.18578173220157623,
            -0.2048966884613037,
            0.14772221446037292,
            -0.542116105556488,
            0.4712924361228943,
            -0.2509487271308899,
            0.35283470153808594,
            -0.2640349268913269,
            0.14100351929664612,
            -0.0655062198638916,
            0.06983372569084167,
            -0.05080314725637436,
            -0.17425505816936493,
            0.2762426435947418,
            -0.28859785199165344,
            0.46396854519844055,
            -0.0035618101246654987,
            0.05118231102824211,
            -0.4862723648548126,
            0.2677922248840332,
            -0.35316896438598633,
            -0.7028007507324219,
            0.33323490619659424,
            0.28603610396385193,
            0.04076629877090454,
            0.08749789744615555,
            0.23165684938430786,
            -0.09938205033540726,
            -0.4949358105659485,
            -0.14664985239505768,
            -0.13264836370944977,
            -0.3354867696762085,
            0.20883764326572418,
            0.14538756012916565,
            -0.5359353423118591,
            -0.2977064847946167,
            -0.4216306209564209,
            0.49790921807289124,
            -0.3960054814815521,
            0.1358168125152588,
            0.17659598588943481,
            0.14401182532310486,
            0.3703868091106415,
            0.17473454773426056,
            0.024684524163603783
        ],
        [
            0.4093760848045349,
            -0.04660620540380478,
            0.011894319206476212,
            0.1974867582321167,
            -0.024179399013519287,
            0.17477473616600037,
            0.14048604667186737,
            0.3788476288318634,
            -0.25689634680747986,
            -0.6372536420822144,
            0.4065571427345276,
            -0.7800709009170532,
            -0.310180127620697,
            -0.20720352232456207,
            0.30145689845085144,
            -0.7078232765197754,
            0.4354635179042816,
            0.03894083946943283,
            -0.4259289503097534,
            0.5366225838661194,
            -0.044326044619083405,
            -0.45696863532066345,
            -0.18528154492378235,
            0.6419944763183594,
            -0.13307081162929535,
            -0.6290762424468994,
            -0.05444411560893059,
            0.13578203320503235,
            -0.35757964849472046,
            -0.4488394558429718,
            -0.37058448791503906,
            -0.21533849835395813,
            -0.14967839419841766,
            0.2907670736312866,
            -0.12615756690502167,
            0.2453681081533432,
            0.21624386310577393,
            -0.11663251370191574,
            -0.5511343479156494,
            0.41119927167892456,
            -0.8001143932342529,
            -0.46667423844337463,
            0.07566237449645996,
            0.3424781262874603,
            0.03834494203329086,
            -0.2838955521583557,
            0.11652582138776779,
            0.7057660818099976,
            0.29139572381973267,
            0.2786172926425934,
            -0.2232464998960495,
            0.7704330086708069,
            0.015363240614533424,
            -0.3223084509372711,
            -0.33149582147598267,
            -0.5001277327537537,
            -0.3741890788078308,
            -0.02658826671540737,
            -0.2547115981578827,
            -0.4898724853992462,
            -0.4015659689903259,
            -0.17022894322872162,
            -0.36696678400039673,
            -0.24290834367275238,
            -0.045999910682439804,
            0.5017515420913696,
            -0.4554593861103058,
            0.036919910460710526,
            -0.13639762997627258,
            0.07632655650377274,
            0.47680652141571045,
            0.6452556252479553,
            0.3352227807044983,
            -0.3348553478717804,
            -0.23305471241474152,
            0.2221083790063858,
            -0.4449470341205597,
            -0.15360918641090393,
            -0.028603335842490196,
            0.8325788974761963,
            -0.29013803601264954,
            -0.21595293283462524,
            0.1702825129032135,
            0.30195173621177673,
            -0.5301238298416138,
            -0.6010079979896545,
            -0.8706387877464294,
            -0.21853750944137573,
            0.19525158405303955,
            -0.5451648235321045,
            -0.3849303126335144,
            -0.06284013390541077,
            -0.1708572655916214,
            -0.1364739090204239,
            -0.445918470621109,
            0.17856034636497498,
            0.4659328758716583,
            -0.18046633899211884,
            0.42573654651641846,
            0.23545292019844055,
            0.4769831895828247,
            -1.2392219305038452,
            0.7045210003852844,
            -0.6207906603813171,
            -0.08724523335695267,
            0.08528387546539307,
            0.815140962600708,
            -0.40879958868026733,
            -0.779349684715271,
            0.22940388321876526,
            -0.6463443040847778,
            -0.22320213913917542,
            -0.46728435158729553,
            0.43909120559692383,
            0.005467806477099657,
            0.2124394029378891,
            0.16668975353240967,
            -0.6990247964859009,
            -0.03705977648496628,
            -0.5414783358573914,
            0.18295103311538696,
            -0.09298541396856308,
            0.5420219898223877,
            0.10726342350244522,
            -0.23906998336315155,
            0.4645158052444458,
            0.04764516279101372,
            0.14688076078891754
        ],
        [
            0.33020225167274475,
            -0.3433568477630615,
            -0.14337259531021118,
            0.16221685707569122,
            0.8651023507118225,
            0.23646244406700134,
            0.16757503151893616,
            0.04787597432732582,
            0.23746928572654724,
            -0.7493863701820374,
            0.35247546434402466,
            -0.5831429362297058,
            -0.5029868483543396,
            0.16012495756149292,
            0.5962320566177368,
            -0.5825209021568298,
            -0.03840944916009903,
            0.5911897420883179,
            -0.38133978843688965,
            -0.09472039341926575,
            0.39366433024406433,
            -0.593570351600647,
            -0.26966550946235657,
            0.5916479825973511,
            0.1523360162973404,
            -0.46247416734695435,
            -0.1669798046350479,
            0.4317987859249115,
            0.13824927806854248,
            -0.5684537887573242,
            -0.518146276473999,
            -0.0040707956068217754,
            0.5696768164634705,
            -0.1157238706946373,
            0.2190510332584381,
            -0.3718276023864746,
            -0.5439619421958923,
            0.04165538400411606,
            -0.11244380474090576,
            -0.08428226411342621,
            -0.5078283548355103,
            -0.47618216276168823,
            0.11159157752990723,
            0.3904544413089752,
            0.19913627207279205,
            0.23765437304973602,
            0.6824658513069153,
            0.687430739402771,
            0.5977387428283691,
            0.7674649357795715,
            0.012439257465302944,
            0.3175197243690491,
            -0.2785664498806,
            0.17633011937141418,
            -0.12347450107336044,
            -0.07912509888410568,
            -0.299443781375885,
            -0.05679186061024666,
            -0.5574216246604919,
            -0.7067012786865234,
            -0.2281726896762848,
            0.20738203823566437,
            -0.02286395989358425,
            -0.21879491209983826,
            -0.3390246033668518,
            0.783653199672699,
            -0.1805552989244461,
            0.41077157855033875,
            -0.060331836342811584,
            0.41475725173950195,
            0.34176400303840637,
            0.3824334144592285,
            -0.02813553810119629,
            0.3658381998538971,
            -0.0015290259616449475,
            0.47504544258117676,
            -0.18943186104297638,
            0.23830053210258484,
            0.2923472821712494,
            0.5958982110023499,
            0.09862355142831802,
            -0.30771568417549133,
            -0.11106301099061966,
            0.5813513398170471,
            -0.5861388444900513,
            -0.4503768980503082,
            -1.1401227712631226,
            0.2007143199443817,
            0.11355707049369812,
            -0.18821406364440918,
            0.05820818990468979,
            0.5242675542831421,
            0.2932814657688141,
            0.4289177358150482,
            0.09035508334636688,
            0.38282713294029236,
            0.6991662383079529,
            -0.555014431476593,
            -0.5062890648841858,
            -0.12078475207090378,
            -0.21607795357704163,
            -1.0090423822402954,
            0.40227267146110535,
            -0.13901469111442566,
            -0.5380215644836426,
            0.35692358016967773,
            0.7539156675338745,
            0.0016677237581461668,
            -0.6814531683921814,
            0.37779322266578674,
            -0.2720186114311218,
            0.007661290932446718,
            0.2604431211948395,
            -0.320439875125885,
            0.4662618339061737,
            -0.16631962358951569,
            0.5913310050964355,
            -0.8746539950370789,
            0.6140312552452087,
            0.011471724137663841,
            0.5393412709236145,
            -0.4030865728855133,
            0.31250059604644775,
            -0.7958092093467712,
            -0.25854307413101196,
            0.5517383813858032,
            0.04310576990246773,
            0.07906857132911682
        ],
        [
            -0.2477910965681076,
            -0.01970045082271099,
            0.23233340680599213,
            -0.7415584921836853,
            0.03944076970219612,
            0.4581548571586609,
            -0.263872891664505,
            -0.31998783349990845,
            0.1314893662929535,
            -0.2147253453731537,
            0.09880802035331726,
            -0.20592118799686432,
            0.048189353197813034,
            -0.1179855689406395,
            0.13025780022144318,
            0.1286879926919937,
            -0.2511349022388458,
            -0.10766959935426712,
            -0.05120185390114784,
            -0.4336252808570862,
            -0.19117768108844757,
            -0.08938824385404587,
            -0.18303604423999786,
            -0.18361561000347137,
            0.08883320540189743,
            -0.2053016871213913,
            0.18770341575145721,
            -0.2759038209915161,
            -0.3789325952529907,
            -0.23057401180267334,
            0.3531814217567444,
            0.12823571264743805,
            -0.4293785095214844,
            -0.18621648848056793,
            -0.03534470126032829,
            -0.12246961891651154,
            -1.0870602130889893,
            0.2218046635389328,
            0.13867652416229248,
            -0.048011355102062225,
            0.2870350480079651,
            0.0653635561466217,
            -0.17874707281589508,
            -0.024543413892388344,
            -0.44371291995048523,
            -0.16486133635044098,
            -0.1393483579158783,
            0.12476662546396255,
            -0.02824641950428486,
            -0.061934247612953186,
            0.04339534044265747,
            0.061695314943790436,
            0.2135579138994217,
            0.1927901804447174,
            -0.03372310847043991,
            0.06711328774690628,
            0.2484683394432068,
            0.08601638674736023,
            0.06635484844446182,
            -0.13769254088401794,
            -0.030612753704190254,
            0.08266519010066986,
            0.046875618398189545,
            -0.10630030184984207,
            0.11201456934213638,
            0.10152024775743484,
            -0.0804881826043129,
            0.056078244000673294,
            0.243322491645813,
            -0.19144098460674286,
            -0.2924492657184601,
            -0.7690829634666443,
            -0.2709861397743225,
            -0.17201673984527588,
            -0.16999803483486176,
            -0.19261634349822998,
            -0.06932138651609421,
            -0.4997216761112213,
            0.003748565213754773,
            -0.08972317725419998,
            0.3097241520881653,
            -0.03331372141838074,
            0.25672879815101624,
            0.03417248651385307,
            -0.2617620825767517,
            0.04880910366773605,
            0.05074359476566315,
            0.23928231000900269,
            -0.2487352192401886,
            -0.10020261257886887,
            -0.1760103851556778,
            0.01781396009027958,
            -0.15232940018177032,
            -0.09430037438869476,
            -0.021396584808826447,
            0.22230561077594757,
            -0.14284758269786835,
            -0.33413732051849365,
            -0.020197296515107155,
            -0.6854044198989868,
            -0.21307675540447235,
            0.02701740339398384,
            -0.16291020810604095,
            -0.2145816832780838,
            -0.08070456236600876,
            0.06838234513998032,
            0.015313604846596718,
            -0.2237880975008011,
            -0.09926081448793411,
            -1.1253365278244019,
            0.02960582636296749,
            -0.10165906697511673,
            -0.3220427930355072,
            0.04246370866894722,
            -0.07805949449539185,
            -0.1984105110168457,
            -0.017189187929034233,
            -0.15512703359127045,
            -0.07993528246879578,
            -0.22694572806358337,
            0.055473316460847855,
            -0.32574960589408875,
            -0.0751681998372078,
            -0.05925426632165909,
            0.13429102301597595,
            -0.7913129925727844,
            -1.125380516052246,
            0.08472000807523727
        ],
        [
            -0.123194620013237,
            -0.03392995521426201,
            -0.4634206295013428,
            -0.0002708617248572409,
            -0.12389463186264038,
            -0.17334561049938202,
            0.36596742272377014,
            -0.04011395946145058,
            -0.20469118654727936,
            -0.046828582882881165,
            -0.36848321557044983,
            0.3160293400287628,
            0.005093383602797985,
            -0.22304242849349976,
            -0.1645766794681549,
            -0.29347556829452515,
            0.4949713945388794,
            -0.04202691838145256,
            0.3191278576850891,
            0.2635766267776489,
            0.3413172662258148,
            -0.028407812118530273,
            -0.2154894769191742,
            0.4442383050918579,
            -0.4968143403530121,
            0.04472716525197029,
            0.4865163266658783,
            -0.7268447875976562,
            -0.5157135128974915,
            0.3204312324523926,
            -0.4088575541973114,
            -0.0713537335395813,
            0.2475873827934265,
            0.12069503217935562,
            -0.5436162352561951,
            -0.4727748930454254,
            -0.17337630689144135,
            -0.24720966815948486,
            0.043172627687454224,
            0.6262387633323669,
            -0.23038651049137115,
            -0.131460040807724,
            0.3062334954738617,
            0.2382875680923462,
            0.18587404489517212,
            -0.042859189212322235,
            -0.04459323361515999,
            0.0010018430184572935,
            0.08535754680633545,
            -0.5338551998138428,
            0.015446551144123077,
            0.44980868697166443,
            -0.03876616805791855,
            0.3393627107143402,
            0.08920079469680786,
            -0.3097285330295563,
            -0.1845957189798355,
            0.0458686463534832,
            -0.38361504673957825,
            -0.48153841495513916,
            0.4492167830467224,
            0.04170553386211395,
            -0.26253214478492737,
            0.22760407626628876,
            -0.3515775501728058,
            0.05064127594232559,
            0.3559512495994568,
            0.27543744444847107,
            0.18293985724449158,
            0.1509307324886322,
            -0.22085465490818024,
            0.4808793365955353,
            0.30193832516670227,
            0.30546921491622925,
            -0.004856939893215895,
            0.06333582103252411,
            -0.23659908771514893,
            0.32602638006210327,
            -0.16152499616146088,
            -0.06482552736997604,
            -0.11091519147157669,
            0.31218573451042175,
            -0.021396154537796974,
            -0.16381683945655823,
            -0.12270251661539078,
            -0.19490857422351837,
            0.25944358110427856,
            0.1340440958738327,
            0.476854145526886,
            0.018023265525698662,
            0.030254147946834564,
            -0.21101292967796326,
            0.13082553446292877,
            -0.19643136858940125,
            -0.1245599240064621,
            0.2448241114616394,
            0.13172614574432373,
            -0.2622206509113312,
            0.04873756691813469,
            0.05854465067386627,
            0.3355565071105957,
            0.15199390053749084,
            0.3882356882095337,
            0.053070008754730225,
            0.10339828580617905,
            0.019103296101093292,
            0.15495386719703674,
            -0.16808483004570007,
            -0.0662723109126091,
            -0.44323140382766724,
            0.3357735276222229,
            -0.20263715088367462,
            -0.15321168303489685,
            0.1767195612192154,
            0.15425272285938263,
            0.4781056344509125,
            -0.06716422736644745,
            0.1977730393409729,
            0.2545319199562073,
            -0.3997320532798767,
            0.5779526233673096,
            0.017840785905718803,
            -0.3299500346183777,
            -0.16490985453128815,
            0.4526616632938385,
            0.02795313484966755,
            0.10250874608755112,
            -0.01770840398967266
        ],
        [
            0.1721569299697876,
            -0.32266053557395935,
            0.0023914186749607325,
            -0.046730875968933105,
            0.03429765626788139,
            0.201986163854599,
            -0.19722284376621246,
            -0.1706676185131073,
            -0.014682460576295853,
            0.18406549096107483,
            0.24210307002067566,
            -0.2662470042705536,
            -0.42019888758659363,
            -0.1846788376569748,
            0.08401516079902649,
            0.23723267018795013,
            -0.5848848223686218,
            0.14326578378677368,
            -0.018674146384000778,
            -0.6680948138237,
            0.5823166966438293,
            -0.20137974619865417,
            -0.3353176712989807,
            -0.5219548940658569,
            0.22272807359695435,
            -0.0866774320602417,
            -0.03553757071495056,
            -0.17296400666236877,
            0.13077865540981293,
            -0.32116296887397766,
            0.0967998281121254,
            0.056994687765836716,
            -0.040546465665102005,
            -0.6068196296691895,
            0.4655645787715912,
            0.16177314519882202,
            -0.6074321866035461,
            0.16951940953731537,
            0.25494158267974854,
            -0.1551169902086258,
            0.07323840260505676,
            -0.1823236346244812,
            0.24044452607631683,
            0.29321032762527466,
            -0.07743928581476212,
            0.23149196803569794,
            -0.07211343199014664,
            0.2804645895957947,
            0.24512125551700592,
            0.5891593098640442,
            0.5545656085014343,
            -0.4832986891269684,
            0.3488713800907135,
            -0.07881397008895874,
            -0.270807147026062,
            0.06379007548093796,
            0.09126389026641846,
            0.18659745156764984,
            0.1928594410419464,
            -0.08579202741384506,
            -0.020743977278470993,
            0.12365786731243134,
            0.2830102741718292,
            -0.09721380472183228,
            -0.06433605402708054,
            0.39220547676086426,
            -0.018713343888521194,
            -0.3264089524745941,
            0.03521666303277016,
            -0.025647399947047234,
            0.28806808590888977,
            -0.14936517179012299,
            -0.2259056717157364,
            -0.06146290525794029,
            0.13150160014629364,
            0.2545135021209717,
            -0.3416973650455475,
            -0.16365653276443481,
            0.39872631430625916,
            -0.036767542362213135,
            -0.11677539348602295,
            -0.1635856032371521,
            0.33521392941474915,
            0.25071147084236145,
            -0.6324960589408875,
            0.11385365575551987,
            -0.7362293601036072,
            -0.07488715648651123,
            -0.28095880150794983,
            -0.008052298799157143,
            -0.1953202188014984,
            -0.3399949371814728,
            0.2595113217830658,
            0.07528678327798843,
            -0.02740592695772648,
            0.08515384793281555,
            0.5852537155151367,
            -0.037710774689912796,
            -0.40416255593299866,
            -0.47049906849861145,
            -0.433948278427124,
            -0.7306661009788513,
            -0.10398581624031067,
            -0.18152184784412384,
            -0.399699330329895,
            0.22603707015514374,
            0.54644775390625,
            -0.21151567995548248,
            -0.2776084244251251,
            -0.2406863123178482,
            -0.2735763490200043,
            -0.2690781056880951,
            -0.015531782060861588,
            -0.4918421506881714,
            0.2494267076253891,
            -0.9340535998344421,
            0.5701766610145569,
            -0.9555802941322327,
            0.153455451130867,
            -0.07647829502820969,
            0.2192203253507614,
            -0.04971959441900253,
            0.2580193281173706,
            -0.28674453496932983,
            -0.323436439037323,
            0.20693136751651764,
            -0.004754654131829739,
            0.4171900153160095
        ],
        [
            -0.35432642698287964,
            -0.05070434510707855,
            -0.02545526623725891,
            -0.1493581384420395,
            -0.039909858256578445,
            0.03110315091907978,
            -0.09074433147907257,
            -0.04311234503984451,
            0.06010795012116432,
            0.1022295355796814,
            0.1185055524110794,
            0.030450986698269844,
            -0.3982890248298645,
            -0.14084091782569885,
            -0.26272812485694885,
            0.15024447441101074,
            0.07499111443758011,
            0.20854778587818146,
            -0.22467204928398132,
            -0.0444682277739048,
            -0.1354256421327591,
            0.09891007095575333,
            -0.04202308878302574,
            -0.20454448461532593,
            -0.05401583015918732,
            0.009712183848023415,
            -0.5143224596977234,
            0.25129005312919617,
            0.08896936476230621,
            0.01746012270450592,
            0.030669156461954117,
            -0.4677210748195648,
            0.12280505895614624,
            0.15216675400733948,
            -0.011496525257825851,
            -0.18148699402809143,
            0.019613681361079216,
            -0.05650579184293747,
            -0.22643867135047913,
            0.04485419765114784,
            0.01581314019858837,
            -0.3666427433490753,
            -0.26587560772895813,
            -0.3272736072540283,
            0.0033910523634403944,
            -0.3094031810760498,
            0.1351580023765564,
            0.006369596812874079,
            -0.15907660126686096,
            0.08269362896680832,
            0.02320680022239685,
            0.023228446021676064,
            0.2822105586528778,
            -0.5307601094245911,
            0.0790213793516159,
            -0.07756863534450531,
            -0.04325656592845917,
            -0.42316538095474243,
            0.03576893359422684,
            0.26256465911865234,
            -0.1503537893295288,
            -0.33360156416893005,
            -0.055988579988479614,
            -0.16784919798374176,
            -0.03403110429644585,
            -0.01951940357685089,
            -0.14937230944633484,
            -0.03200335055589676,
            -0.35513612627983093,
            -0.05866258963942528,
            -0.08695627003908157,
            -0.2707710862159729,
            0.08795761317014694,
            0.08369994908571243,
            -0.06294331699609756,
            -0.014446044340729713,
            0.028062526136636734,
            -0.21500016748905182,
            -0.06650401651859283,
            -0.07039617002010345,
            -0.11537826061248779,
            0.13163477182388306,
            -0.3632229268550873,
            -0.12136135250329971,
            -0.025526363402605057,
            0.012484781444072723,
            0.07928959280252457,
            -0.09093065559864044,
            0.01727743074297905,
            0.1376848667860031,
            -0.257978618144989,
            -0.14937996864318848,
            0.09804742783308029,
            0.14945943653583527,
            -0.14245039224624634,
            0.05512719973921776,
            -0.16540272533893585,
            0.19398462772369385,
            -0.18272793292999268,
            0.07463663071393967,
            -0.1770648956298828,
            -0.3496147394180298,
            -0.40333691239356995,
            0.21079930663108826,
            -0.051319047808647156,
            -0.004979816731065512,
            -0.4623374938964844,
            0.17755486071109772,
            -0.0817285105586052,
            0.06532951444387436,
            0.14705690741539001,
            -0.1316002607345581,
            0.30871841311454773,
            -0.24797388911247253,
            -0.05695847421884537,
            0.054342709481716156,
            0.22054830193519592,
            0.3018084764480591,
            0.18533337116241455,
            -0.027643302455544472,
            -0.054776959121227264,
            0.01564507745206356,
            -0.061881810426712036,
            -0.3666765093803406,
            -0.04071453586220741,
            -0.3797896206378937,
            0.13540194928646088,
            0.016021298244595528
        ],
        [
            -0.4776958227157593,
            -0.7322216629981995,
            -0.028784295544028282,
            -0.05889919400215149,
            0.5893701314926147,
            0.10050871968269348,
            -0.1042451336979866,
            -0.7793837785720825,
            0.247651606798172,
            0.2395971268415451,
            -0.023808453232049942,
            0.3257279694080353,
            0.2809603810310364,
            -0.23487785458564758,
            0.37551045417785645,
            -0.10073255747556686,
            0.051252443343400955,
            -0.26871800422668457,
            0.26016780734062195,
            -0.1349242478609085,
            -0.14640702307224274,
            -0.015937000513076782,
            0.3369678258895874,
            -0.08299466222524643,
            0.3602604269981384,
            0.5629936456680298,
            0.26721298694610596,
            -0.49833643436431885,
            0.2705162465572357,
            0.23420371115207672,
            0.12433173507452011,
            0.16665899753570557,
            -0.4224928617477417,
            -0.5365395545959473,
            0.15555119514465332,
            0.1022544726729393,
            -0.20174816250801086,
            0.20364950597286224,
            0.2535416781902313,
            -0.09626424312591553,
            -0.20063284039497375,
            0.3371703028678894,
            -0.24662300944328308,
            -0.39229506254196167,
            -0.21054573357105255,
            0.40284463763237,
            0.011778207495808601,
            -0.3310149312019348,
            -0.13445191085338593,
            -0.013363782316446304,
            0.1900787651538849,
            -0.27268993854522705,
            -0.190505713224411,
            -0.058968435972929,
            0.2731553316116333,
            -0.10382219403982162,
            -0.022105352953076363,
            0.34041738510131836,
            -0.2271929532289505,
            0.10816404223442078,
            0.21120110154151917,
            0.06727798283100128,
            0.2444581389427185,
            0.05795644596219063,
            -0.04261438548564911,
            -0.2595330476760864,
            0.1874638795852661,
            0.17650243639945984,
            0.07254216820001602,
            0.09808869659900665,
            -0.4570653438568115,
            -0.16317588090896606,
            -0.3242292106151581,
            -0.459298700094223,
            -0.27091366052627563,
            0.16403302550315857,
            0.053505416959524155,
            -0.19485028088092804,
            -0.1304139494895935,
            0.04175274074077606,
            0.2695176601409912,
            0.1385507434606552,
            0.12320812791585922,
            0.5980093479156494,
            0.31693270802497864,
            0.01890154927968979,
            0.11248430609703064,
            -0.19167299568653107,
            0.13690924644470215,
            -0.3470085859298706,
            -0.4201585352420807,
            0.012738321907818317,
            -0.0237874872982502,
            -0.01747925393283367,
            0.17778201401233673,
            0.02383003942668438,
            -0.4887464642524719,
            0.2905168831348419,
            -0.2531294822692871,
            -0.20516811311244965,
            0.021459203213453293,
            -0.04511994123458862,
            -0.09407609701156616,
            0.13696208596229553,
            0.23781512677669525,
            -0.13518734276294708,
            0.18587858974933624,
            0.24706192314624786,
            0.24647848308086395,
            -0.7986053824424744,
            0.3031333386898041,
            -0.14367429912090302,
            -0.0821799486875534,
            -0.24206489324569702,
            0.041391536593437195,
            -0.14938923716545105,
            0.10708615183830261,
            -0.07746436446905136,
            0.03222563862800598,
            -0.1567484587430954,
            -0.06711024045944214,
            0.037127040326595306,
            -0.4326980710029602,
            0.23293738067150116,
            -0.04414090886712074,
            -0.7619145512580872,
            -0.4067181944847107,
            -0.11320938169956207
        ],
        [
            0.190580815076828,
            0.22840313613414764,
            -0.10483107715845108,
            -0.268365740776062,
            0.16515623033046722,
            0.2370174676179886,
            0.058480314910411835,
            0.2524945139884949,
            -0.1645011007785797,
            -1.0120784044265747,
            -0.04765016958117485,
            0.31367960572242737,
            0.2774184048175812,
            -0.05225333198904991,
            0.30143874883651733,
            -0.19665507972240448,
            -0.1344544142484665,
            0.34122297167778015,
            -0.03674113750457764,
            -0.357970654964447,
            0.07061377912759781,
            -0.27720555663108826,
            -0.08187999576330185,
            0.2242487072944641,
            -0.23584628105163574,
            -0.2638382613658905,
            -0.04121590033173561,
            0.32230880856513977,
            -0.6375899314880371,
            0.018022140488028526,
            -0.294281929731369,
            0.43079710006713867,
            0.302598774433136,
            0.11523259431123734,
            -0.7958307266235352,
            -0.28868451714515686,
            -0.5211297273635864,
            -0.2110845446586609,
            -0.036491766571998596,
            0.0064630527049303055,
            -0.14724323153495789,
            -0.0031470120884478092,
            0.34352028369903564,
            0.1969178169965744,
            0.07112734764814377,
            0.2502429187297821,
            0.08167295902967453,
            0.256367027759552,
            0.772254467010498,
            0.19996024668216705,
            0.09169410914182663,
            0.1612800657749176,
            0.21002225577831268,
            0.5015982985496521,
            -0.21830186247825623,
            -0.4669095277786255,
            0.0035835050512105227,
            0.11080816388130188,
            0.1604558527469635,
            -0.1164877638220787,
            0.14311407506465912,
            0.22159075736999512,
            -0.4325603246688843,
            0.14221501350402832,
            -0.8581955432891846,
            0.486489862203598,
            -0.4133032560348511,
            -0.2933827340602875,
            0.5402987599372864,
            0.33539268374443054,
            0.504035472869873,
            -0.009905518963932991,
            0.294791042804718,
            0.49772873520851135,
            0.2751392126083374,
            0.09103511273860931,
            -0.012777579016983509,
            -0.18486765027046204,
            0.3488898277282715,
            -0.5863706469535828,
            0.0574883371591568,
            -0.2848970592021942,
            0.2615302503108978,
            0.32712462544441223,
            -0.20981310307979584,
            0.3629748225212097,
            -0.608090341091156,
            0.36502203345298767,
            -0.18737757205963135,
            0.11292538791894913,
            -0.0038499466609209776,
            -0.04143885523080826,
            -0.012616063468158245,
            0.24643923342227936,
            0.204805389046669,
            0.3468857705593109,
            0.366272509098053,
            -0.020254405215382576,
            -0.14617931842803955,
            -0.5754489898681641,
            0.14539818465709686,
            -0.42461922764778137,
            0.22693254053592682,
            -0.33054646849632263,
            -0.7991345524787903,
            -0.1708306074142456,
            0.2831312119960785,
            0.10769396275281906,
            -0.1281132847070694,
            -0.4416945278644562,
            -0.29034486413002014,
            0.04415713623166084,
            0.15283261239528656,
            -0.2795359492301941,
            0.01709827408194542,
            0.024973256513476372,
            0.21239958703517914,
            -0.6536204814910889,
            0.012759396806359291,
            -0.10769515484571457,
            0.4652267396450043,
            0.0339985191822052,
            0.0949319526553154,
            -0.13326285779476166,
            0.0918804183602333,
            0.32154831290245056,
            -0.06747491657733917,
            0.10390125960111618
        ],
        [
            -0.07064519077539444,
            -0.4258459508419037,
            0.3410874903202057,
            0.168599471449852,
            0.18438386917114258,
            0.22857454419136047,
            -0.8563151955604553,
            -0.22053495049476624,
            -0.0015999129973351955,
            -0.1322866827249527,
            0.28478118777275085,
            -0.07785782217979431,
            -0.2975963056087494,
            -0.3954922556877136,
            0.04695595055818558,
            0.03950507193803787,
            0.09552733600139618,
            -0.48937150835990906,
            0.045896414667367935,
            -0.3037961721420288,
            0.2077062875032425,
            0.1258230209350586,
            0.07293537259101868,
            -0.11051193624734879,
            0.043626897037029266,
            0.1594439148902893,
            -0.021383611485362053,
            -0.6812262535095215,
            -0.13028472661972046,
            -0.062450241297483444,
            0.29836520552635193,
            -0.05600108951330185,
            -0.25931623578071594,
            -0.26127129793167114,
            0.1871648132801056,
            -0.00011288489622529596,
            -0.28941360116004944,
            0.1627216637134552,
            -0.17377352714538574,
            -0.13036102056503296,
            0.08791887015104294,
            -0.3087327778339386,
            0.29211941361427307,
            -0.03661864250898361,
            -0.2956182658672333,
            0.14027690887451172,
            0.244602769613266,
            -0.18356896936893463,
            -0.024128064513206482,
            -0.11348906904459,
            0.183474600315094,
            -0.2071886658668518,
            0.38471516966819763,
            -0.38473567366600037,
            -0.32564130425453186,
            -0.3738783001899719,
            0.46034055948257446,
            0.07011792808771133,
            0.09296920895576477,
            0.3357025682926178,
            -0.15728676319122314,
            -0.09866484999656677,
            -0.16062788665294647,
            -0.18154972791671753,
            -0.17613838613033295,
            0.2286362498998642,
            -0.06693374365568161,
            0.2641908824443817,
            0.3307584226131439,
            -0.187100350856781,
            -0.534489631652832,
            -0.24758365750312805,
            -0.11421829462051392,
            -0.1496475338935852,
            -0.04070688411593437,
            0.09451805055141449,
            -0.09397124499082565,
            -0.7115394473075867,
            -0.16737990081310272,
            0.20013131201267242,
            0.03804750740528107,
            0.02284480445086956,
            -0.029215699061751366,
            0.28723233938217163,
            -0.22446605563163757,
            0.07486240565776825,
            0.06688407063484192,
            0.0835064947605133,
            -0.08260833472013474,
            -0.46425989270210266,
            -0.40611544251441956,
            -0.16908423602581024,
            -0.5329911708831787,
            -0.1128460019826889,
            0.030163446441292763,
            -0.0525430403649807,
            -0.033028099685907364,
            0.33858606219291687,
            -0.24463656544685364,
            -0.3317132294178009,
            -0.23102165758609772,
            -0.15106040239334106,
            0.038757845759391785,
            0.008469930849969387,
            -0.10676649212837219,
            0.3646426796913147,
            0.22081781923770905,
            -0.19485516846179962,
            0.1675039827823639,
            -0.89878249168396,
            -0.30170056223869324,
            -0.35958075523376465,
            -0.07056006789207458,
            -0.02634071372449398,
            0.12444833666086197,
            0.1699073165655136,
            -0.09762580692768097,
            -0.34194114804267883,
            0.03834092989563942,
            -0.4739156663417816,
            0.15066483616828918,
            -0.28067725896835327,
            -0.06095174700021744,
            0.16541554033756256,
            0.14037981629371643,
            -0.5933101177215576,
            -0.0722329169511795,
            0.11000057309865952
        ],
        [
            -0.3799987733364105,
            -0.6367568969726562,
            0.2555076777935028,
            0.015390094369649887,
            -0.009111709892749786,
            0.137823686003685,
            -0.15324193239212036,
            0.23700201511383057,
            -0.013720153830945492,
            -0.035893477499485016,
            0.1639193892478943,
            -0.09120944887399673,
            -0.25911396741867065,
            -0.18537555634975433,
            0.13571497797966003,
            0.06590114533901215,
            0.0401308536529541,
            -0.45419296622276306,
            -0.1736067682504654,
            0.0302963275462389,
            -0.03727060183882713,
            0.07490520924329758,
            -0.016407281160354614,
            -0.37881797552108765,
            0.38791733980178833,
            0.3918769657611847,
            -0.09779006987810135,
            -0.2611057162284851,
            0.21806879341602325,
            0.08646706491708755,
            0.25784143805503845,
            -0.09611894190311432,
            -0.36741605401039124,
            -0.0897410437464714,
            -0.04775625467300415,
            0.06325013935565948,
            0.32735881209373474,
            0.17530269920825958,
            0.12689653038978577,
            -0.049263421446084976,
            0.13773852586746216,
            -0.05434431880712509,
            -0.02026178129017353,
            -0.37034231424331665,
            -0.004296283703297377,
            -0.08022157102823257,
            0.028560150414705276,
            -0.5585847496986389,
            -0.40822115540504456,
            -0.32280492782592773,
            -0.21689610183238983,
            -0.3766241669654846,
            0.07471877336502075,
            -0.20669886469841003,
            -0.28650763630867004,
            0.2291281670331955,
            0.21026435494422913,
            0.04546559229493141,
            0.023579945787787437,
            0.24109706282615662,
            -0.2893061339855194,
            -0.2975921332836151,
            0.3032943308353424,
            -0.013890914618968964,
            0.09545063972473145,
            -0.03588986024260521,
            -0.18140554428100586,
            0.12293481081724167,
            0.060789287090301514,
            0.03363613411784172,
            -0.3641272187232971,
            -0.08544435352087021,
            0.00547361234202981,
            -0.39277803897857666,
            0.16397561132907867,
            0.04073527827858925,
            -0.030089979991316795,
            -0.19355787336826324,
            -0.14760702848434448,
            0.0782727524638176,
            0.23521173000335693,
            -0.08837661147117615,
            0.09940014034509659,
            -0.10894197970628738,
            0.11605793237686157,
            -0.11431265622377396,
            0.0966266468167305,
            -0.5027529001235962,
            0.0721830204129219,
            0.06227332353591919,
            -0.4279555082321167,
            0.02725451998412609,
            -0.13455645740032196,
            -0.09313172847032547,
            0.26323556900024414,
            0.2049500197172165,
            -0.42614302039146423,
            0.26988616585731506,
            -0.031024346128106117,
            0.062205299735069275,
            -0.007620981428772211,
            -0.5062421560287476,
            -0.05747546628117561,
            0.06215304508805275,
            0.24555520713329315,
            0.03901797533035278,
            -0.5200186967849731,
            -0.01580110378563404,
            -0.06769514083862305,
            0.08293168246746063,
            -0.11097357422113419,
            -0.006511966232210398,
            0.16383850574493408,
            -0.001635609776712954,
            0.038732778280973434,
            0.16222631931304932,
            -0.05141434073448181,
            0.15349233150482178,
            -0.04924590513110161,
            -0.04440780729055405,
            -0.06020310893654823,
            0.3110959529876709,
            -0.007512286305427551,
            0.3122868835926056,
            0.06146979331970215,
            -0.3885652422904968,
            -0.09499382972717285,
            -0.029324093833565712
        ],
        [
            -0.14454077184200287,
            -0.23051564395427704,
            0.010928655043244362,
            -0.29656991362571716,
            0.15791793167591095,
            -0.04068678990006447,
            -0.6015000939369202,
            -0.32830581068992615,
            -0.2078503519296646,
            0.03876963257789612,
            0.22279579937458038,
            -0.2474912703037262,
            -0.16529110074043274,
            -0.3780404329299927,
            -0.020408473908901215,
            -0.04457533359527588,
            -0.24899883568286896,
            -0.5760012865066528,
            -0.19754980504512787,
            -0.3390780985355377,
            0.32748886942863464,
            0.22562861442565918,
            -0.04399840533733368,
            -0.06856736540794373,
            0.23395083844661713,
            0.07525375485420227,
            0.23365284502506256,
            -0.708588182926178,
            -0.28864431381225586,
            -0.0926128551363945,
            0.22181445360183716,
            -0.519670307636261,
            0.15326330065727234,
            -0.24310144782066345,
            0.2835744023323059,
            0.1920934021472931,
            -0.5145668387413025,
            0.13062144815921783,
            -0.26852208375930786,
            -0.38516443967819214,
            0.20370948314666748,
            -0.170423224568367,
            0.28548866510391235,
            -0.13241498172283173,
            -0.07173273712396622,
            -0.27699539065361023,
            0.27668553590774536,
            -0.34356889128685,
            -0.05521860718727112,
            0.30823495984077454,
            0.3062824606895447,
            -0.28691670298576355,
            -0.02106085605919361,
            0.27988362312316895,
            -0.1575211137533188,
            -0.026634421199560165,
            0.11728455126285553,
            -0.14909112453460693,
            0.005022273864597082,
            -0.05743098258972168,
            -0.13592132925987244,
            0.39330267906188965,
            0.19242145121097565,
            -0.12793400883674622,
            -0.364591121673584,
            0.2878708243370056,
            0.2538124620914459,
            0.32831841707229614,
            0.2825379967689514,
            -0.07161013036966324,
            -0.334028959274292,
            -0.40145838260650635,
            -0.07601283490657806,
            0.1070983037352562,
            0.10876627266407013,
            0.1801108717918396,
            -0.2812901735305786,
            -0.3732643723487854,
            -0.5111852288246155,
            0.17789213359355927,
            0.017035767436027527,
            -0.24557499587535858,
            -0.019405744969844818,
            -0.006854640785604715,
            -0.02236434631049633,
            0.15768876671791077,
            0.042768076062202454,
            0.12116574496030807,
            -0.3332827687263489,
            0.10569939017295837,
            -0.003175277030095458,
            -0.4620722830295563,
            -0.162446066737175,
            0.21707068383693695,
            0.21862486004829407,
            -0.04500805214047432,
            0.0337291844189167,
            0.15814706683158875,
            -0.1794043481349945,
            -0.4312349557876587,
            -0.225814551115036,
            0.17102599143981934,
            0.1670149862766266,
            0.04151693731546402,
            -0.14775559306144714,
            0.3936694860458374,
            -0.36079201102256775,
            0.11850090324878693,
            -0.2008664906024933,
            -0.43535229563713074,
            -0.34272706508636475,
            -0.3146606981754303,
            -0.16285350918769836,
            0.08128681778907776,
            0.08288881182670593,
            0.16779875755310059,
            -0.05396472290158272,
            -0.42167696356773376,
            0.18027260899543762,
            -0.4487035274505615,
            0.23376302421092987,
            -0.21206560730934143,
            0.3109060227870941,
            -0.08619412779808044,
            0.015216649509966373,
            -0.202310711145401,
            -0.19148480892181396,
            0.22194671630859375
        ],
        [
            -0.04607779532670975,
            0.19123554229736328,
            -0.47869041562080383,
            -0.026089118793606758,
            0.0857686698436737,
            -0.21520046889781952,
            0.0580252967774868,
            0.02704009599983692,
            -0.3010658919811249,
            0.07043655961751938,
            -0.3831084668636322,
            0.15440066158771515,
            0.040936700999736786,
            -0.27321693301200867,
            0.129185289144516,
            -0.10295263677835464,
            -0.21766787767410278,
            -0.022427653893828392,
            -0.02830047719180584,
            0.2550946772098541,
            -0.22374853491783142,
            0.265568345785141,
            -0.07779094576835632,
            0.05894172936677933,
            -0.23274198174476624,
            -0.052169255912303925,
            0.1935325413942337,
            0.010050280950963497,
            -0.31079328060150146,
            -0.10229863971471786,
            -0.13666217029094696,
            0.018170977011322975,
            -0.0811825692653656,
            -0.006961673963814974,
            -0.30607232451438904,
            -0.1066620796918869,
            -0.16905874013900757,
            -0.3655851185321808,
            0.20372599363327026,
            0.17421647906303406,
            0.15880702435970306,
            -0.0989856943488121,
            0.2523305118083954,
            0.08210291713476181,
            0.17378124594688416,
            -0.17929311096668243,
            0.003213472431525588,
            -0.13559749722480774,
            0.10288209468126297,
            -0.5424066185951233,
            -0.14588722586631775,
            0.05526445806026459,
            -0.17592056095600128,
            0.2186451107263565,
            0.019683796912431717,
            -0.4445295035839081,
            0.24681740999221802,
            -0.004327694419771433,
            0.03425012156367302,
            -0.25603118538856506,
            0.06383024901151657,
            0.1640947312116623,
            -0.1873505413532257,
            0.10678142309188843,
            -0.049492910504341125,
            -0.10291952639818192,
            -0.013835616409778595,
            0.2647734582424164,
            -0.004565875045955181,
            0.07538760453462601,
            0.015581632032990456,
            -0.156281515955925,
            0.23995980620384216,
            0.3103378415107727,
            -0.2902500033378601,
            -0.02528863213956356,
            0.2044878900051117,
            0.005275509785860777,
            0.11554331332445145,
            -0.0634678453207016,
            -0.2533774971961975,
            0.2603745460510254,
            -0.0026691111270338297,
            0.032954469323158264,
            0.13876932859420776,
            0.016748659312725067,
            0.16783803701400757,
            0.14469526708126068,
            -0.032979752868413925,
            0.13998189568519592,
            0.06495558470487595,
            0.026509413495659828,
            -0.006715467665344477,
            -0.11871500313282013,
            -0.2843717336654663,
            0.012055927887558937,
            0.022920142859220505,
            -0.09577646106481552,
            0.13230176270008087,
            -0.19989874958992004,
            0.22254076600074768,
            0.12887044250965118,
            0.02471565268933773,
            -0.07839667797088623,
            -0.15959611535072327,
            0.1822035312652588,
            -0.09517420828342438,
            -0.05177927762269974,
            0.154850572347641,
            -0.06336405873298645,
            0.2824496924877167,
            -0.3675226867198944,
            -0.2257053256034851,
            -0.2216535061597824,
            0.1365492194890976,
            0.08352375030517578,
            0.049641065299510956,
            -0.3087361454963684,
            0.14812804758548737,
            -0.523561954498291,
            0.11952883750200272,
            -0.3359294533729553,
            0.19483667612075806,
            -0.1564413607120514,
            -0.269179105758667,
            0.025184080004692078,
            0.03162852302193642,
            0.012650350108742714
        ],
        [
            -0.17303217947483063,
            0.0057770004495978355,
            -0.2922017574310303,
            0.26943081617355347,
            0.006451963912695646,
            -0.18522164225578308,
            0.02184959314763546,
            0.2542176842689514,
            0.0015382737619802356,
            0.2571587860584259,
            -0.3655764162540436,
            -0.11600731313228607,
            -0.5148507952690125,
            0.09977607429027557,
            -0.03011041320860386,
            -0.008986140601336956,
            0.04165930300951004,
            -0.1847410500049591,
            -0.007999896071851254,
            0.09405695647001266,
            -0.19477255642414093,
            0.060823820531368256,
            -0.16564127802848816,
            0.02709098719060421,
            -0.13914035260677338,
            -0.06837918609380722,
            0.003987682983279228,
            -0.06192074716091156,
            0.1475251019001007,
            0.043013766407966614,
            0.178196519613266,
            -0.33052656054496765,
            -0.0448949821293354,
            0.2441624253988266,
            -0.23659764230251312,
            -0.23856565356254578,
            0.1510256975889206,
            -0.20244836807250977,
            0.01583520509302616,
            -0.060233552008867264,
            0.1007128357887268,
            -0.3394329845905304,
            0.011688711121678352,
            0.06270953267812729,
            0.2003871202468872,
            -0.13100114464759827,
            -0.16566210985183716,
            -0.17065547406673431,
            -0.13097739219665527,
            -0.3740893602371216,
            -0.09222463518381119,
            -0.09103824943304062,
            -0.14823876321315765,
            -0.11100778728723526,
            0.04218022897839546,
            -0.13926179707050323,
            0.001034410553984344,
            -0.09355276823043823,
            0.02153130993247032,
            0.2516929507255554,
            -0.3501661419868469,
            0.10210270434617996,
            -0.19770267605781555,
            0.20143793523311615,
            0.141483336687088,
            -0.13108843564987183,
            0.09777658432722092,
            0.1919977068901062,
            -0.5255940556526184,
            0.09981802850961685,
            -0.010466989129781723,
            0.31851932406425476,
            0.13444218039512634,
            0.17938195168972015,
            -0.035593193024396896,
            -0.5177940130233765,
            0.1397150158882141,
            -0.09608817100524902,
            0.09297611564397812,
            -0.04640680178999901,
            -0.2352994680404663,
            0.1351330578327179,
            -0.21911250054836273,
            -0.16332845389842987,
            -0.13332684338092804,
            0.038691215217113495,
            -0.0506579726934433,
            0.047324519604444504,
            0.13955894112586975,
            0.12803645431995392,
            -0.0008763964870013297,
            0.11445052921772003,
            0.05050771310925484,
            -0.0979628637433052,
            -0.2689022719860077,
            -0.27493348717689514,
            -0.01401960477232933,
            0.112611323595047,
            -0.2176007628440857,
            0.1395537406206131,
            0.09101874381303787,
            0.12042481452226639,
            0.07808327674865723,
            0.21772663295269012,
            0.0696258619427681,
            -0.09832954406738281,
            -0.12753254175186157,
            0.00023570201301481575,
            -0.14093634486198425,
            0.08188124746084213,
            0.01722201146185398,
            -0.0477973110973835,
            -0.08876503258943558,
            0.08518620580434799,
            -0.01818050816655159,
            0.11591510474681854,
            0.16601040959358215,
            -0.05370095372200012,
            0.05724389851093292,
            -0.030263302847743034,
            -0.007712561637163162,
            0.12759627401828766,
            -0.16405659914016724,
            0.06893572956323624,
            -0.0007087780395522714,
            -0.06429841369390488,
            0.06680336594581604,
            0.06072467565536499
        ],
        [
            0.3677613139152527,
            -0.36270174384117126,
            0.04421219229698181,
            -0.13321930170059204,
            0.3835113048553467,
            -0.2907963693141937,
            -0.13706187903881073,
            -0.011066162027418613,
            0.05960811302065849,
            0.20338205993175507,
            0.11951689422130585,
            -0.16311098635196686,
            -0.7175964117050171,
            0.114225834608078,
            0.2892136573791504,
            -0.10615077614784241,
            0.08056572079658508,
            0.11426800489425659,
            -0.1945282518863678,
            -0.1792387068271637,
            0.03898584097623825,
            -0.1681499183177948,
            0.24917000532150269,
            -0.08330562710762024,
            0.20296920835971832,
            -0.032687313854694366,
            -0.14819292724132538,
            -0.15129388868808746,
            0.12248778343200684,
            -0.32482507824897766,
            -0.14929383993148804,
            -0.1615780144929886,
            -0.07337071746587753,
            -0.4932010769844055,
            0.297974169254303,
            -0.002476039109751582,
            0.0493970550596714,
            0.00370910600759089,
            0.29430073499679565,
            -0.3264409601688385,
            -0.13307857513427734,
            -0.38526710867881775,
            -0.13087397813796997,
            0.08870501816272736,
            -0.27012714743614197,
            -0.19643999636173248,
            0.26434025168418884,
            0.22245736420154572,
            -0.007561786100268364,
            0.4562210440635681,
            -0.17415820062160492,
            -0.3298177719116211,
            -0.044450949877500534,
            -0.2882787585258484,
            -0.05074630677700043,
            0.012127907946705818,
            -0.1345045119524002,
            -0.2080870419740677,
            -0.03912178426980972,
            -0.29052549600601196,
            -0.22478802502155304,
            -0.28888872265815735,
            0.034384835511446,
            -0.26404380798339844,
            0.23527000844478607,
            0.03350496664643288,
            -0.170501708984375,
            0.3462876081466675,
            -0.22269690036773682,
            -0.011064606718719006,
            -0.06676647812128067,
            -0.18668361008167267,
            -0.12339085340499878,
            -0.2395639568567276,
            0.0055189551785588264,
            0.11639225482940674,
            -0.1335616558790207,
            -0.5269502401351929,
            -0.07003258168697357,
            0.26582595705986023,
            0.16342787444591522,
            0.26670169830322266,
            -0.3231257498264313,
            -0.10216826945543289,
            -0.07769935578107834,
            -0.3320556879043579,
            -0.11749275773763657,
            -0.39045289158821106,
            0.0046122120693326,
            0.07367326319217682,
            -0.2045910358428955,
            0.23002508282661438,
            0.14997069537639618,
            0.25958576798439026,
            0.27337878942489624,
            -0.12967568635940552,
            0.36808300018310547,
            -0.2644897401332855,
            -0.2499445676803589,
            0.04791034013032913,
            -0.2413017600774765,
            -0.6657999753952026,
            -0.14328345656394958,
            0.11596915870904922,
            0.041552718728780746,
            0.15076221525669098,
            0.03344697132706642,
            0.24769432842731476,
            -0.21374768018722534,
            0.13209059834480286,
            0.21623101830482483,
            -0.21445228159427643,
            0.1767437756061554,
            -0.13308100402355194,
            0.1319212168455124,
            0.10648668557405472,
            0.21907933056354523,
            -0.12641355395317078,
            0.02138422802090645,
            0.053894564509391785,
            -0.2704630494117737,
            0.1550109088420868,
            0.04249804466962814,
            0.05070331692695618,
            -0.06538205593824387,
            0.19290336966514587,
            -0.12221021205186844,
            0.01244581863284111
        ],
        [
            -0.35915249586105347,
            -0.22571243345737457,
            -0.46734946966171265,
            0.3494614362716675,
            0.2488175928592682,
            -0.0581904873251915,
            0.027690570801496506,
            0.1072767823934555,
            -0.11472589522600174,
            -0.03246661648154259,
            -0.9624770879745483,
            0.08857646584510803,
            -0.27720096707344055,
            0.03375311940908432,
            0.17514045536518097,
            0.04781969636678696,
            0.05379847437143326,
            -0.32942286133766174,
            0.010568592697381973,
            0.17382220923900604,
            -0.24447786808013916,
            0.41666609048843384,
            -0.1016136109828949,
            0.07889505475759506,
            -0.04361352324485779,
            0.20296035706996918,
            0.1914273351430893,
            -0.29275161027908325,
            -0.024782784283161163,
            0.11991355568170547,
            0.33252182602882385,
            -0.04562443494796753,
            -0.024271655827760696,
            -0.02962615340948105,
            -0.0941537469625473,
            -0.24606141448020935,
            0.20282401144504547,
            -0.06410055607557297,
            0.1077895313501358,
            0.25329604744911194,
            0.04924231767654419,
            0.2541128993034363,
            0.10359030216932297,
            -0.03187846019864082,
            0.26159214973449707,
            -0.24562278389930725,
            0.16737444698810577,
            -0.3776175379753113,
            -0.17877070605754852,
            -0.30500003695487976,
            -0.2846599519252777,
            0.0584191232919693,
            -0.07548283785581589,
            -0.030085522681474686,
            -0.16714391112327576,
            -0.0988377183675766,
            0.21740347146987915,
            -0.12630335986614227,
            0.042399872094392776,
            0.29192614555358887,
            0.051390618085861206,
            -0.03195498511195183,
            -0.10298248380422592,
            -0.0798916295170784,
            0.2421266883611679,
            -0.08252715319395065,
            0.3649616837501526,
            0.3375326097011566,
            0.07436679303646088,
            0.16545940935611725,
            -0.28294625878334045,
            0.14556966722011566,
            0.2005806267261505,
            0.19236381351947784,
            -0.027090543881058693,
            -0.17659403383731842,
            0.07140562683343887,
            -0.08882360905408859,
            0.10660763829946518,
            -0.13625624775886536,
            0.24059921503067017,
            0.12475468963384628,
            -0.27049097418785095,
            -0.07589813321828842,
            0.1159026175737381,
            -0.06709559261798859,
            -0.006588241551071405,
            -0.0982946828007698,
            0.07974916696548462,
            0.20932762324810028,
            -0.09757168591022491,
            0.10400862991809845,
            0.07240898907184601,
            0.18505257368087769,
            0.07042645663022995,
            -0.25824081897735596,
            -0.13507533073425293,
            0.21585142612457275,
            0.07112427800893784,
            0.30383700132369995,
            0.1859281361103058,
            0.129782572388649,
            0.023085063323378563,
            0.24029161036014557,
            0.28057771921157837,
            -0.11978526413440704,
            -0.2050812840461731,
            -0.05885707214474678,
            0.006130097433924675,
            -0.02795673906803131,
            0.027648640796542168,
            -0.3887426257133484,
            -0.09750518202781677,
            0.212589293718338,
            0.08586879819631577,
            0.04718039184808731,
            0.021285932511091232,
            0.061215318739414215,
            0.044775791466236115,
            -0.15023578703403473,
            0.050234194844961166,
            -0.10327970236539841,
            -0.26069769263267517,
            0.10063787549734116,
            0.2296767234802246,
            -0.13575546443462372,
            0.11538185924291611,
            -0.1119312196969986
        ],
        [
            -0.03465794771909714,
            -0.3389553725719452,
            -0.13017646968364716,
            -0.5712381601333618,
            0.18709388375282288,
            0.08753328025341034,
            -0.15648704767227173,
            -0.4992291331291199,
            -0.07758578658103943,
            -0.06263285875320435,
            0.18377140164375305,
            -0.13825038075447083,
            -0.22177767753601074,
            -0.22643963992595673,
            0.2876686155796051,
            0.18403460085391998,
            -0.26931267976760864,
            0.05893537774682045,
            -0.24162839353084564,
            -0.2593894898891449,
            0.11386828869581223,
            0.459557443857193,
            0.2795228958129883,
            0.19676339626312256,
            0.04402494803071022,
            0.15383780002593994,
            -0.050162121653556824,
            -0.2013940066099167,
            -0.43476659059524536,
            -0.3221043050289154,
            -0.021526096388697624,
            0.1979120671749115,
            -0.16956107318401337,
            -0.31897181272506714,
            0.0034751142375171185,
            -0.031203247606754303,
            -0.28236064314842224,
            0.11371398717164993,
            -0.004833300597965717,
            -0.1850365847349167,
            0.11129510402679443,
            0.038733743131160736,
            -0.0408298522233963,
            -0.16525623202323914,
            -0.2917712330818176,
            -0.16182327270507812,
            0.17841388285160065,
            0.30144742131233215,
            -0.08296675235033035,
            0.07858806848526001,
            -0.034244246780872345,
            -0.272508442401886,
            0.030412057414650917,
            -0.6994830965995789,
            -0.1323046237230301,
            -0.05332124978303909,
            -0.005883591715246439,
            0.10665252804756165,
            -0.046893805265426636,
            -0.16353340446949005,
            -0.08227666467428207,
            -0.01184277143329382,
            0.131139874458313,
            -0.24640841782093048,
            0.07226990163326263,
            0.07954869419336319,
            0.36107438802719116,
            0.575225293636322,
            -0.03232259303331375,
            -0.05207690969109535,
            -0.5446760654449463,
            0.11560165882110596,
            -0.19057700037956238,
            -0.27054551243782043,
            -0.2660203278064728,
            0.12707185745239258,
            0.407701313495636,
            -0.24332445859909058,
            -0.3928500711917877,
            0.15623505413532257,
            0.23827393352985382,
            -0.1285245567560196,
            -0.10298864543437958,
            0.2706073522567749,
            -0.00645689619705081,
            0.07790551334619522,
            0.17807871103286743,
            0.13454505801200867,
            -0.5027554631233215,
            0.09594560414552689,
            -0.3511144816875458,
            0.41103559732437134,
            -0.158304825425148,
            0.09870605915784836,
            0.08307240158319473,
            0.1846582591533661,
            -0.11653263121843338,
            -0.5282038450241089,
            -0.17313343286514282,
            -0.4140031039714813,
            -0.0382520891726017,
            0.0792844146490097,
            0.01881619356572628,
            0.1694604605436325,
            0.32373669743537903,
            0.33743172883987427,
            0.3232848644256592,
            0.006354410666972399,
            -0.6012221574783325,
            -0.6663034558296204,
            0.11880362033843994,
            -0.5736091136932373,
            -0.142569899559021,
            0.3396168649196625,
            0.24767576158046722,
            -0.03890638053417206,
            0.6933429837226868,
            -0.4822312295436859,
            0.1900462955236435,
            -0.24092935025691986,
            -0.30334803462028503,
            0.09003473818302155,
            0.06871823221445084,
            0.5564152598381042,
            0.1172633171081543,
            0.06467439234256744,
            -0.4864114224910736,
            0.082752525806427
        ],
        [
            -0.2566213607788086,
            -0.6825708150863647,
            -0.1398153454065323,
            -0.27892935276031494,
            0.35973578691482544,
            0.2940731346607208,
            -0.36715784668922424,
            -0.4304717779159546,
            0.28017657995224,
            0.027156798169016838,
            0.02331734634935856,
            0.06419694423675537,
            -0.4683452546596527,
            -0.30646732449531555,
            -0.018383150920271873,
            0.005547267384827137,
            -0.3536186218261719,
            -0.2832285165786743,
            0.0037409758660942316,
            -0.42483898997306824,
            -0.05953502655029297,
            0.15280736982822418,
            0.18049119412899017,
            -0.20604154467582703,
            0.10724570602178574,
            0.2563433349132538,
            0.10630714893341064,
            -0.3720986843109131,
            -0.20824918150901794,
            -0.13794367015361786,
            0.2394716590642929,
            -0.1483909636735916,
            -0.4795496165752411,
            -0.19175823032855988,
            0.32974398136138916,
            -0.11331640928983688,
            -0.6540281176567078,
            0.13002662360668182,
            0.019607940688729286,
            -0.5183387994766235,
            -0.219741553068161,
            -0.16979247331619263,
            -0.17412151396274567,
            -0.6097835302352905,
            -0.4830927848815918,
            0.024035949259996414,
            0.08927976340055466,
            0.09633595496416092,
            -0.5321074724197388,
            0.33704423904418945,
            -0.18026016652584076,
            -0.40400683879852295,
            -0.2047337293624878,
            -0.42074885964393616,
            -0.2294616997241974,
            -0.24729853868484497,
            0.19481144845485687,
            -0.06902393698692322,
            0.0420459546148777,
            -0.04317529499530792,
            0.11929734796285629,
            -0.15059085190296173,
            0.3854963779449463,
            -0.41884368658065796,
            0.12868176400661469,
            0.0948985293507576,
            0.10230817645788193,
            0.01819375902414322,
            0.13928170502185822,
            0.06279605627059937,
            -0.17283274233341217,
            -0.17478047311306,
            -0.4478349983692169,
            -0.6348209977149963,
            -0.37920182943344116,
            0.25666147470474243,
            0.03646432235836983,
            -0.3990783095359802,
            -0.2394399493932724,
            0.4423307180404663,
            0.36454325914382935,
            -0.042850933969020844,
            0.025239136070013046,
            0.19708450138568878,
            0.06668080389499664,
            -0.060118481516838074,
            0.03828670084476471,
            -0.16202561557292938,
            -0.4129243493080139,
            -0.45913466811180115,
            -0.18205778300762177,
            0.02291782759130001,
            -0.147764191031456,
            -0.16878506541252136,
            0.15759114921092987,
            0.18257193267345428,
            -0.22421753406524658,
            0.25011926889419556,
            0.07613927125930786,
            -0.2662346363067627,
            -0.29835689067840576,
            -0.09974882006645203,
            0.11617814749479294,
            -0.1334300935268402,
            -0.044569652527570724,
            0.17065255343914032,
            -0.39869385957717896,
            0.026397505775094032,
            -0.28981390595436096,
            -0.42017021775245667,
            -0.1045556515455246,
            -0.445520281791687,
            -0.1415196806192398,
            -0.010198288597166538,
            0.33369413018226624,
            0.162518709897995,
            0.2233673632144928,
            -0.8782269358634949,
            0.15318816900253296,
            -0.4580586850643158,
            0.016167985275387764,
            0.23857511579990387,
            -0.02711349166929722,
            0.5298177599906921,
            -0.1784707009792328,
            -0.4433661997318268,
            -0.4535624086856842,
            -0.10680492967367172
        ],
        [
            -0.43266746401786804,
            -0.2688877582550049,
            -0.2991974353790283,
            -0.057051219046115875,
            0.08244137465953827,
            0.11343143880367279,
            0.0335637703537941,
            -0.2669946551322937,
            -0.024113284423947334,
            0.09312722831964493,
            -0.34437787532806396,
            -0.04481928050518036,
            -0.006734609603881836,
            0.03897874802350998,
            0.1266515552997589,
            0.01673668809235096,
            0.016729634255170822,
            -0.08812279254198074,
            0.1108456552028656,
            -0.08071646094322205,
            -0.00665703509002924,
            -0.018542801961302757,
            -0.14305049180984497,
            0.12187350541353226,
            -0.1784805804491043,
            0.2449485957622528,
            0.25637203454971313,
            0.018735390156507492,
            -0.21112783253192902,
            0.23370352387428284,
            0.13695210218429565,
            -0.05832941457629204,
            0.09890018403530121,
            0.0712791308760643,
            -0.22272905707359314,
            -0.20052622258663177,
            0.05586486682295799,
            -0.24288958311080933,
            -0.03771913796663284,
            0.11173734813928604,
            0.08847794681787491,
            -0.12668780982494354,
            0.12935374677181244,
            -0.4307060241699219,
            0.0866234079003334,
            -0.04507569223642349,
            -0.005236708093434572,
            -0.4454805850982666,
            -0.2395130842924118,
            -0.49157267808914185,
            -0.01596071384847164,
            0.07957721501588821,
            -0.03377501294016838,
            0.04603245481848717,
            0.013349981047213078,
            -0.05135779827833176,
            0.09992166608572006,
            -0.11733847111463547,
            0.026710497215390205,
            0.16093242168426514,
