{
    "weights":[
        [
            [
                [
                    0.16374698281288147,
                    0.02850019372999668,
                    -0.15284527838230133,
                    -0.033962469547986984,
                    -0.048617396503686905,
                    -0.10448293387889862,
                    0.09540456533432007,
                    0.043021202087402344,
                    0.06634026765823364,
                    -0.013433308340609074,
                    -0.012017898261547089,
                    0.10596330463886261,
                    0.10335222631692886,
                    0.4055712819099426,
                    0.027105318382382393,
                    0.23253974318504333
                ]
            ],
            [
                [
                    0.12849077582359314,
                    0.05110099911689758,
                    -0.12567149102687836,
                    0.13144828379154205,
                    -0.15696540474891663,
                    -0.2043640911579132,
                    0.12844645977020264,
                    0.0012120665051043034,
                    0.0887092649936676,
                    0.18858104944229126,
                    -0.0165659599006176,
                    0.07278922200202942,
                    0.13955017924308777,
                    0.03209909424185753,
                    -0.06177596002817154,
                    -0.28246045112609863
                ]
            ],
            [
                [
                    0.11929614096879959,
                    -0.18368199467658997,
                    -0.03368237242102623,
                    0.20043008029460907,
                    -0.1274896264076233,
                    -0.1675320714712143,
                    0.2636243402957916,
                    0.2582615315914154,
                    -0.018806083127856255,
                    -0.0322636142373085,
                    0.35927799344062805,
                    -0.32030823826789856,
                    -0.08677320927381516,
                    -0.13362719118595123,
                    0.3327670991420746,
                    -0.5855258703231812
                ]
            ],
            [
                [
                    0.21057116985321045,
                    -0.17600995302200317,
                    0.11751717329025269,
                    0.13629278540611267,
                    -0.30805516242980957,
                    -0.052733391523361206,
                    0.12158695608377457,
                    0.1603313684463501,
                    -0.09605563431978226,
                    -0.15873372554779053,
                    0.3342989981174469,
                    0.20486988127231598,
                    -0.20432592928409576,
                    0.10214478522539139,
                    0.31012773513793945,
                    0.006473110988736153
                ]
            ],
            [
                [
                    -0.56147301197052,
                    -0.018075235188007355,
                    0.08014519512653351,
                    0.0630410760641098,
                    -0.7305269241333008,
                    -0.0009255187469534576,
                    0.3041008710861206,
                    0.06999971717596054,
                    -0.23948228359222412,
                    -0.25852441787719727,
                    -0.1311546266078949,
                    0.14890815317630768,
                    -0.4191814959049225,
                    0.10686997324228287,
                    0.06748034060001373,
                    -0.13429473340511322
                ]
            ]
        ],
        [
            [
                [
                    0.12762735784053802,
                    -0.2414531409740448,
                    -0.17405246198177338,
                    0.26903292536735535,
                    -0.3781736493110657,
                    -0.1508243829011917,
                    -0.28319573402404785,
                    -0.09823630005121231,
                    -0.024164771661162376,
                    0.03963775560259819,
                    -0.014979390427470207,
                    0.19707757234573364,
                    0.1005902960896492,
                    -0.06497529149055481,
                    0.06769102811813354,
                    0.10628286004066467
                ]
            ],
            [
                [
                    0.013597396202385426,
                    -0.31451696157455444,
                    0.15912552177906036,
                    0.027812350541353226,
                    0.1954648345708847,
                    -0.22316041588783264,
                    -0.1342475265264511,
                    -0.13187605142593384,
                    0.23463837802410126,
                    -0.1973256915807724,
                    0.03382677957415581,
                    -0.3460487127304077,
                    0.13541251420974731,
                    -0.20138315856456757,
                    -0.13306565582752228,
                    -0.2434587925672531
                ]
            ],
            [
                [
                    -0.18599039316177368,
                    -0.08899132907390594,
                    0.3513133227825165,
                    0.12263550609350204,
                    0.20242570340633392,
                    0.15596488118171692,
                    0.2150540053844452,
                    0.07782644033432007,
                    0.10647226870059967,
                    -0.41559621691703796,
                    -0.10826949030160904,
                    -0.6019003987312317,
                    -0.08711989223957062,
                    0.05126313120126724,
                    0.005191708914935589,
                    0.011272808536887169
                ]
            ],
            [
                [
                    -0.07437685877084732,
                    0.051695484668016434,
                    0.10042618215084076,
                    0.08022356033325195,
                    0.2177189439535141,
                    -0.08342736959457397,
                    0.008788242936134338,
                    -0.357960969209671,
                    0.09122822433710098,
                    -0.1560349017381668,
                    0.31951066851615906,
                    0.1722673773765564,
                    -0.22652484476566315,
                    0.14062154293060303,
                    0.07879602164030075,
                    0.4227410554885864
                ]
            ],
            [
                [
                    -0.1669832319021225,
                    0.18227043747901917,
                    -0.12204289436340332,
                    -0.3457304537296295,
                    -0.32245245575904846,
                    -0.04360417649149895,
                    -0.019825544208288193,
                    -0.226533904671669,
                    -0.010047762654721737,
                    0.04839407652616501,
                    0.07157468050718307,
                    0.3312799334526062,
                    -0.24776044487953186,
                    -0.1348554790019989,
                    0.16727802157402039,
                    0.0726219043135643
                ]
            ]
        ],
        [
            [
                [
                    0.11212644726037979,
                    -0.2753760814666748,
                    0.18512211740016937,
                    -0.0792953372001648,
                    0.4290076494216919,
                    -0.3335857093334198,
                    -0.20020246505737305,
                    0.036043014377355576,
                    -0.12130942940711975,
                    -0.08550059050321579,
                    -0.1883920431137085,
                    0.35210463404655457,
                    0.32131609320640564,
                    -0.048902157694101334,
                    -0.09291116893291473,
                    0.2292417585849762
                ]
            ],
            [
                [
                    -0.1759852170944214,
                    -0.07608020305633545,
                    0.27802953124046326,
                    -0.10991708189249039,
                    0.3623991906642914,
                    0.25641658902168274,
                    -0.6307642459869385,
                    -0.0676950067281723,
                    0.14558959007263184,
                    -0.3098588287830353,
                    -0.20130805671215057,
                    -0.21536192297935486,
                    0.027522960677742958,
                    0.2216947227716446,
                    -0.11645611375570297,
                    0.0093675022944808
                ]
            ],
            [
                [
                    -0.21317511796951294,
                    -0.022191328927874565,
                    0.03583931922912598,
                    0.13723325729370117,
                    0.09471173584461212,
                    0.4043439030647278,
                    -0.5222979187965393,
                    0.5608502626419067,
                    0.25121790170669556,
                    0.22447846829891205,
                    -0.4204272925853729,
                    -0.1862068623304367,
                    -0.11951112002134323,
                    0.1956363320350647,
                    0.04783255606889725,
                    0.3322090804576874
                ]
            ],
            [
                [
                    0.2583548128604889,
                    0.16632506251335144,
                    -0.2105044275522232,
                    -0.004070364870131016,
                    0.3090765178203583,
                    -0.34950584173202515,
                    -0.2582646906375885,
                    -0.09060145169496536,
                    0.3238109350204468,
                    0.3740955591201782,
                    0.18806636333465576,
                    -0.04365173727273941,
                    -0.3037768304347992,
                    0.20296576619148254,
                    0.1127670407295227,
                    -0.0646340548992157
                ]
            ],
            [
                [
                    0.004217254463583231,
                    0.06797084957361221,
                    -0.1672828644514084,
                    -0.47584864497184753,
                    0.12458555400371552,
                    -0.17381033301353455,
                    -0.11829717457294464,
                    -0.10935211181640625,
                    -0.02041231095790863,
                    0.3315969705581665,
                    -0.10036710649728775,
                    0.27758926153182983,
                    -0.07295549660921097,
                    -0.3449598550796509,
                    0.10866361856460571,
                    -0.24679699540138245
                ]
            ]
        ],
        [
            [
                [
                    0.14652493596076965,
                    -0.6730045676231384,
                    0.09698749333620071,
                    -0.09660004824399948,
                    -0.2480417788028717,
                    -0.31337273120880127,
                    0.27568215131759644,
                    -0.6738823056221008,
                    -0.2901705205440521,
                    0.13652931153774261,
                    -0.11859354376792908,
                    0.06192777678370476,
                    0.09419048577547073,
                    -0.12942922115325928,
                    -0.2609848082065582,
                    0.1760614663362503
                ]
            ],
            [
                [
                    0.08949828147888184,
                    0.10097316652536392,
                    -0.008917968720197678,
                    0.22958067059516907,
                    -0.3905584514141083,
                    0.373466432094574,
                    0.008230716921389103,
                    -0.43187421560287476,
                    -0.29274940490722656,
                    0.14733606576919556,
                    -0.18967889249324799,
                    0.38535264134407043,
                    0.0799715518951416,
                    0.07537513971328735,
                    -0.5314443111419678,
                    0.04119385406374931
                ]
            ],
            [
                [
                    -0.010376175865530968,
                    0.15142080187797546,
                    -0.4801069498062134,
                    0.2572345733642578,
                    -0.6554505228996277,
                    -0.04395579919219017,
                    -0.25922128558158875,
                    0.5587752461433411,
                    0.03294719383120537,
                    0.23576852679252625,
                    -0.0687432736158371,
                    -0.07611086964607239,
                    -0.05187419056892395,
                    0.03335436433553696,
                    -0.30071741342544556,
                    0.0035949633456766605
                ]
            ],
            [
                [
                    0.25724276900291443,
                    0.1415216475725174,
                    -0.5511981844902039,
                    -0.4301033318042755,
                    -0.40860387682914734,
                    -0.39416590332984924,
                    -0.404255211353302,
                    -0.06088009476661682,
                    -0.09043998271226883,
                    0.045025989413261414,
                    0.38375797867774963,
                    -0.3852972090244293,
                    0.00608341908082366,
                    -0.799277126789093,
                    -0.30390167236328125,
                    -0.011459494940936565
                ]
            ],
            [
                [
                    0.20070289075374603,
                    -0.03346558287739754,
                    0.1430974006652832,
                    -0.223448246717453,
                    0.09205382317304611,
                    0.0631052702665329,
                    -0.23757843673229218,
                    -0.04789433255791664,
                    0.061549730598926544,
                    -0.15726283192634583,
                    -0.07486985623836517,
                    -0.0655248686671257,
                    -0.07353773713111877,
                    -0.6838515996932983,
                    0.050589606165885925,
                    -0.10161086916923523
                ]
            ]
        ],
        [
            [
                [
                    0.04453931376338005,
                    -0.16310828924179077,
                    0.09749022871255875,
                    -0.3429918885231018,
                    -0.07989677786827087,
                    0.0018039299175143242,
                    0.10846728831529617,
                    -0.0889866054058075,
                    0.08443047851324081,
                    0.02129424177110195,
                    0.18663588166236877,
                    -0.13958626985549927,
                    -0.026365524157881737,
                    -0.6998792886734009,
                    -0.3224834203720093,
                    0.11267346888780594
                ]
            ],
            [
                [
                    0.2710209786891937,
                    0.0022481929045170546,
                    -0.1834598034620285,
                    -0.15868817269802094,
                    0.1448994129896164,
                    0.2920914888381958,
                    0.314698189496994,
                    -0.5691686868667603,
                    -0.3715468645095825,
                    0.17052151262760162,
                    0.09115232527256012,
                    0.16558779776096344,
                    0.028563067317008972,
                    -0.7427734732627869,
                    -0.10736478120088577,
                    -0.16716700792312622
                ]
            ],
            [
                [
                    0.030053135007619858,
                    0.030441809445619583,
                    -0.14840099215507507,
                    -0.479849249124527,
                    0.12529844045639038,
                    -0.009229718707501888,
                    0.21507711708545685,
                    0.0023119093384593725,
                    -0.44596707820892334,
                    -0.19961746037006378,
                    0.1873743087053299,
                    0.1403425931930542,
                    -0.12000390142202377,
                    -0.7114201188087463,
                    -0.23165474832057953,
                    0.05080945044755936
                ]
            ],
            [
                [
                    -0.09295932948589325,
                    0.058952029794454575,
                    0.24388320744037628,
                    -0.19706866145133972,
                    -0.1643206775188446,
                    -0.17759379744529724,
                    0.24696296453475952,
                    0.08361546695232391,
                    -0.15973585844039917,
                    -0.11449775099754333,
                    0.2146894633769989,
                    -0.17488552629947662,
                    -0.0006065079942345619,
                    -0.33729925751686096,
                    -0.027163131162524223,
                    0.13332930207252502
                ]
            ],
            [
                [
                    -0.2773459553718567,
                    0.09345458447933197,
                    0.2219287008047104,
                    0.11129072308540344,
                    -0.03242289274930954,
                    0.1675480455160141,
                    0.030931202694773674,
                    0.2928542494773865,
                    0.029223665595054626,
                    0.08119264990091324,
                    -0.21326754987239838,
                    -0.10060527175664902,
                    -0.05052360147237778,
                    -0.02049284242093563,
                    0.04582054167985916,
                    0.16362524032592773
                ]
            ]
        ]
    ],
    "biases":[
        -0.6354689002037048,
        -0.06636827439069748,
        -0.26684442162513733,
        -0.089717335999012,
        -0.007969843223690987,
        -0.1049124002456665,
        -0.05914006009697914,
        -0.35570576786994934,
        -0.1705998331308365,
        -0.16992223262786865,
        -0.5767411589622498,
        -0.28538715839385986,
        -0.03396252542734146,
        0.1692366749048233,
        -0.17160040140151978,
        -0.455180823802948
    ]
}