{
    "biases":[
        -0.6290103793144226,
        -0.03752879053354263,
        -0.2946065068244934,
        -0.15698859095573425,
        -0.2438560128211975,
        -0.10194575786590576,
        -0.11998730897903442,
        -0.13831210136413574,
        -0.07179450243711472,
        -0.14473792910575867,
        -0.45257019996643066,
        -0.21036876738071442,
        -0.040359191596508026,
        0.18188124895095825,
        -0.2626931369304657,
        -0.32092034816741943
    ],
    "weights":[
        [
            [
                [
                    0.18378262221813202,
                    -0.1809537708759308,
                    -0.1533334106206894,
                    0.02327173575758934,
                    0.05894852057099342,
                    -0.09210720658302307,
                    0.10724251717329025,
                    -0.12814868986606598,
                    -0.03665357455611229,
                    -0.0016796085983514786,
                    0.016505762934684753,
                    -0.030695917084813118,
                    0.06378141790628433,
                    0.3386293351650238,
                    0.020582187920808792,
                    0.27421632409095764
                ]
            ],
            [
                [
                    0.1915532797574997,
                    -0.04227424040436745,
                    -0.07556787133216858,
                    0.03851678967475891,
                    -0.1286829262971878,
                    -0.3177233934402466,
                    0.15001608431339264,
                    -0.20832636952400208,
                    0.05342739075422287,
                    0.24149352312088013,
                    0.06785257160663605,
                    -0.14032384753227234,
                    0.22037425637245178,
                    0.07897535711526871,
                    -0.007707586046308279,
                    -0.16798806190490723
                ]
            ],
            [
                [
                    0.1762969195842743,
                    -0.22380013763904572,
                    0.1144355908036232,
                    0.2602713704109192,
                    -0.19083960354328156,
                    -0.15421278774738312,
                    0.3001558482646942,
                    0.2887761890888214,
                    -0.05625462159514427,
                    -0.02651599422097206,
                    0.2761382758617401,
                    -0.1071356013417244,
                    -0.05557648465037346,
                    -0.16797728836536407,
                    0.334884375333786,
                    -0.580165445804596
                ]
            ],
            [
                [
                    0.16263161599636078,
                    -0.15671414136886597,
                    0.1712881326675415,
                    0.08102501928806305,
                    -0.20960581302642822,
                    -0.1706751585006714,
                    0.2382262647151947,
                    0.14689503610134125,
                    -0.1935180127620697,
                    -0.22128529846668243,
                    0.30102652311325073,
                    0.29138022661209106,
                    -0.13547293841838837,
                    0.08497630804777145,
                    0.2507766783237457,
                    -0.15406407415866852
                ]
            ],
            [
                [
                    -0.010264432057738304,
                    0.010023612529039383,
                    0.14400583505630493,
                    0.03936620056629181,
                    -0.5596722364425659,
                    -0.006681333761662245,
                    0.2883722484111786,
                    0.21184642612934113,
                    -0.2274242341518402,
                    -0.1789872795343399,
                    -0.14989975094795227,
                    0.06514613330364227,
                    -0.3615044355392456,
                    0.20734311640262604,
                    0.12429916113615036,
                    -0.09759055823087692
                ]
            ]
        ],
        [
            [
                [
                    0.1556740552186966,
                    -0.13913604617118835,
                    -0.20291554927825928,
                    0.2603015899658203,
                    -0.18426810204982758,
                    -0.22818207740783691,
                    -0.2880041003227234,
                    -0.3675694465637207,
                    -0.04928367957472801,
                    0.022227611392736435,
                    -0.02507420815527439,
                    0.20749211311340332,
                    0.12138005346059799,
                    -0.010498307645320892,
                    0.10628239065408707,
                    -0.027480272576212883
                ]
            ],
            [
                [
                    -0.0027497003320604563,
                    -0.4278999865055084,
                    0.10820925235748291,
                    0.051995761692523956,
                    0.12101240456104279,
                    -0.14493444561958313,
                    -0.17957988381385803,
                    -0.11643492430448532,
                    0.2249118685722351,
                    -0.11099664121866226,
                    0.004568359814584255,
                    -0.23631921410560608,
                    0.14817509055137634,
                    -0.09960230439901352,
                    -0.07907257229089737,
                    -0.20414678752422333
                ]
            ],
            [
                [
                    -0.3828682005405426,
                    -0.21571791172027588,
                    0.2666696608066559,
                    0.030456122010946274,
                    0.2680668234825134,
                    0.17157161235809326,
                    0.10877197235822678,
                    0.1253206431865692,
                    0.08181296288967133,
                    -0.44801226258277893,
                    -0.20265638828277588,
                    -0.5104308724403381,
                    -0.08753795921802521,
                    0.09852005541324615,
                    -0.028505664318799973,
                    0.20454195141792297
                ]
            ],
            [
                [
                    -0.08421923220157623,
                    -0.049003392457962036,
                    0.09351327270269394,
                    0.09867584705352783,
                    0.29791831970214844,
                    -0.033637307584285736,
                    -0.03274580463767052,
                    -0.3429940640926361,
                    0.05492517724633217,
                    -0.1880752295255661,
                    0.22893081605434418,
                    0.05247142165899277,
                    -0.1682201623916626,
                    0.1249682605266571,
                    0.055974531918764114,
                    0.46500933170318604
                ]
            ],
            [
                [
                    -0.2264031171798706,
                    0.18723393976688385,
                    -0.19285616278648376,
                    -0.1959206759929657,
                    -0.36677101254463196,
                    -0.01624428480863571,
                    -0.050433337688446045,
                    -0.17765432596206665,
                    -0.00498491944745183,
                    0.024697309359908104,
                    0.11097075790166855,
                    0.38130611181259155,
                    -0.19323359429836273,
                    -0.11088228225708008,
                    0.1612519919872284,
                    0.13469113409519196
                ]
            ]
        ],
        [
            [
                [
                    0.025760872289538383,
                    -0.40211156010627747,
                    0.16100485622882843,
                    0.011751851998269558,
                    0.2822928726673126,
                    -0.30051112174987793,
                    -0.18817181885242462,
                    -0.40597420930862427,
                    -0.14014402031898499,
                    -0.027484450489282608,
                    -0.2074284851551056,
                    0.33742985129356384,
                    0.25053828954696655,
                    -0.24608376622200012,
                    -0.13590167462825775,
                    0.16523601114749908
                ]
            ],
            [
                [
                    -0.27592453360557556,
                    -0.019177032634615898,
                    0.2393849790096283,
                    -0.09090760350227356,
                    0.10455286502838135,
                    0.2712574601173401,
                    -0.5190419554710388,
                    -0.031858570873737335,
                    0.13900801539421082,
                    -0.29796311259269714,
                    -0.091363824903965,
                    -0.12182511389255524,
                    0.08624748140573502,
                    0.18551413714885712,
                    -0.14150196313858032,
                    0.13796763122081757
                ]
            ],
            [
                [
                    -0.24134773015975952,
                    -0.07178742438554764,
                    0.06262598931789398,
                    0.2269243597984314,
                    0.06688056886196136,
                    0.26798492670059204,
                    -0.670150101184845,
                    0.5466344952583313,
                    0.24921894073486328,
                    0.13462898135185242,
                    -0.23633494973182678,
                    -0.6017516255378723,
                    -0.016550593078136444,
                    0.1557556390762329,
                    -0.023433402180671692,
                    0.39248618483543396
                ]
            ],
            [
                [
                    0.3334878087043762,
                    0.18587811291217804,
                    -0.21527208387851715,
                    0.11596173793077469,
                    0.3660588264465332,
                    -0.2025536149740219,
                    -0.4075045585632324,
                    0.030674932524561882,
                    0.37116822600364685,
                    0.4087407886981964,
                    0.21805903315544128,
                    -0.23985961079597473,
                    -0.29206353425979614,
                    0.010132077150046825,
                    0.08161234110593796,
                    -0.17740269005298615
                ]
            ],
            [
                [
                    -0.061409641057252884,
                    0.2108747661113739,
                    -0.16747704148292542,
                    -0.425433874130249,
                    0.07875652611255646,
                    -0.2584744095802307,
                    -0.11262385547161102,
                    -0.10268337279558182,
                    0.044265266507864,
                    0.3302637040615082,
                    -0.07118786126375198,
                    0.20387279987335205,
                    -0.31989586353302,
                    -0.3654784858226776,
                    0.1517248898744583,
                    -0.138779416680336
                ]
            ]
        ],
        [
            [
                [
                    0.20179951190948486,
                    -0.6191290616989136,
                    0.08825527131557465,
                    -0.11697930842638016,
                    -0.12068770080804825,
                    -0.22258156538009644,
                    0.20547369122505188,
                    -0.5581306219100952,
                    -0.2833012640476227,
                    0.08103431016206741,
                    -0.23324880003929138,
                    0.20181655883789062,
                    0.07267697155475616,
                    -0.23192694783210754,
                    -0.08164367824792862,
                    0.09779515862464905
                ]
            ],
            [
                [
                    0.18244265019893646,
                    0.0667499378323555,
                    0.008068548515439034,
                    0.17336125671863556,
                    -0.3322879374027252,
                    0.41136598587036133,
                    0.06485360115766525,
                    -0.3504273295402527,
                    -0.3845651149749756,
                    0.12581096589565277,
                    -0.13635273277759552,
                    0.4035092294216156,
                    0.10451807081699371,
                    -0.21997863054275513,
                    -0.3969349265098572,
                    -0.03941997513175011
                ]
            ],
            [
                [
                    0.15844404697418213,
                    0.0728193074464798,
                    -0.4350130259990692,
                    0.22707685828208923,
                    -0.49739617109298706,
                    -0.31085503101348877,
                    -0.11521836370229721,
                    0.3601687550544739,
                    0.023679353296756744,
                    0.26757001876831055,
                    -0.023366881534457207,
                    -0.322085976600647,
                    -0.12302400171756744,
                    -0.25707659125328064,
                    -0.25692251324653625,
                    -0.1237626001238823
                ]
            ],
            [
                [
                    0.3977835476398468,
                    0.1436036378145218,
                    -0.5266628265380859,
                    -0.4591805636882782,
                    -0.18441131711006165,
                    -0.39523640275001526,
                    -0.22484233975410461,
                    -0.018272781744599342,
                    -0.039094362407922745,
                    0.01445972453802824,
                    0.35286808013916016,
                    -0.26481202244758606,
                    -0.06712178885936737,
                    -0.9292079210281372,
                    -0.19413809478282928,
                    -0.29800254106521606
                ]
            ],
            [
                [
                    -0.03897736966609955,
                    0.033091701567173004,
                    0.20215685665607452,
                    -0.178294837474823,
                    0.1786525845527649,
                    -0.06381495296955109,
                    -0.17240555584430695,
                    -0.034387968480587006,
                    0.17279893159866333,
                    -0.141293466091156,
                    -0.10305485874414444,
                    0.042277514934539795,
                    -0.08916235715150833,
                    -0.697181761264801,
                    0.06292084604501724,
                    -0.12205694615840912
                ]
            ]
        ],
        [
            [
                [
                    -0.007234716322273016,
                    -0.2025790810585022,
                    0.11045034974813461,
                    -0.4488820731639862,
                    0.2181522101163864,
                    -0.06657762080430984,
                    0.1423490345478058,
                    -0.030182311311364174,
                    0.05469951033592224,
                    0.06161390244960785,
                    0.03846186771988869,
                    0.00968219619244337,
                    -0.04544470086693764,
                    -1.0226010084152222,
                    -0.16356715559959412,
                    0.07821074873209
                ]
            ],
            [
                [
                    0.23418909311294556,
                    0.06894027441740036,
                    -0.1071663498878479,
                    -0.12270977348089218,
                    -0.028921479359269142,
                    0.4401446282863617,
                    0.2054848074913025,
                    -0.6954814195632935,
                    -0.411044180393219,
                    0.1285657435655594,
                    -0.00695142662152648,
                    0.2623016834259033,
                    -0.06526937335729599,
                    -1.1184719800949097,
                    -0.0771232396364212,
                    -0.2673415541648865
                ]
            ],
            [
                [
                    -0.007617398165166378,
                    -0.0041023432277143,
                    -0.06264415383338928,
                    -0.40970849990844727,
                    0.2464563250541687,
                    0.025510571897029877,
                    0.2596544027328491,
                    -0.1909269392490387,
                    -0.36084243655204773,
                    -0.22664324939250946,
                    0.17729799449443817,
                    0.21552477777004242,
                    -0.18094584345817566,
                    -1.0571852922439575,
                    -0.27964290976524353,
                    0.002410930348560214
                ]
            ],
            [
                [
                    -0.23647862672805786,
                    0.10428108274936676,
                    0.19797413051128387,
                    -0.13874678313732147,
                    -0.11519747972488403,
                    -0.09757919609546661,
                    0.24085083603858948,
                    0.015968577936291695,
                    -0.25033679604530334,
                    -0.1270579695701599,
                    0.25577613711357117,
                    -0.033801715821027756,
                    0.05143771320581436,
                    0.009358101524412632,
                    -0.05249907076358795,
                    0.14982545375823975
                ]
            ],
            [
                [
                    -0.4244890809059143,
                    0.014403169974684715,
                    0.2529633343219757,
                    0.08752577751874924,
                    -0.015942277386784554,
                    0.15540046989917755,
                    0.1480032205581665,
                    0.08607970923185349,
                    -0.09098311513662338,
                    -0.02116679772734642,
                    -0.24563804268836975,
                    -0.11571542173624039,
                    -0.06416920572519302,
                    0.004569919779896736,
                    0.13190753757953644,
                    0.24916037917137146
                ]
            ]
        ]
    ]
}