{
    "biases":[
        -0.06688103824853897,
        -0.19830329716205597,
        -0.1411210596561432,
        -0.19895078241825104,
        -0.11946136504411697,
        -0.0013872692361474037,
        -0.10215919464826584,
        -0.18809501826763153,
        -0.16000935435295105,
        -0.13021451234817505,
        -0.2626667320728302,
        -0.24011953175067902,
        -0.015758296474814415,
        -0.07577139139175415,
        -0.02844524011015892,
        -0.15672482550144196,
        -0.08910632878541946,
        0.04451978579163551,
        -0.2776833176612854,
        -0.25149834156036377,
        -0.13130423426628113,
        -0.20369820296764374,
        -0.3770829439163208,
        -0.28505778312683105,
        -0.1576787382364273,
        -0.16174936294555664,
        -0.11188390851020813,
        -0.30844539403915405,
        -0.06414489448070526,
        -0.2929786443710327,
        -0.13430218398571014,
        -0.11170881241559982
    ],
    "weights":[
        [
            [
                [
                    0.04069223999977112,
                    -0.07617433369159698,
                    0.7692113518714905,
                    -0.03605206683278084,
                    -0.23268575966358185,
                    0.13581375777721405,
                    -0.06914451718330383,
                    -0.14660991728305817,
                    -0.06889313459396362,
                    0.3010036051273346,
                    0.07379758358001709,
                    0.13890448212623596,
                    -0.3084483742713928,
                    -0.24713349342346191,
                    -0.0697764903306961,
                    0.5357125997543335,
                    -0.20328830182552338,
                    0.04494456201791763,
                    -0.09759701788425446,
                    -0.11561515927314758,
                    -0.6961949467658997,
                    0.41318339109420776,
                    0.14072689414024353,
                    -0.28289276361465454,
                    0.025502871721982956,
                    0.12969864904880524,
                    -0.012084434740245342,
                    0.3078187108039856,
                    -0.6755058169364929,
                    -0.0981532633304596,
                    -0.38205817341804504,
                    -0.2290884405374527
                ],
                [
                    -0.027690984308719635,
                    0.4872579276561737,
                    0.19506795704364777,
                    -0.3073784410953522,
                    -0.42887216806411743,
                    -0.022486960515379906,
                    -0.15747733414173126,
                    -0.4049190580844879,
                    0.04524202272295952,
                    0.32300105690956116,
                    -0.14209653437137604,
                    -0.3539414405822754,
                    -0.127617746591568,
                    -0.053399477154016495,
                    -0.14698822796344757,
                    -0.254508376121521,
                    -0.2055545598268509,
                    0.01289539784193039,
                    0.04462701827287674,
                    0.13225102424621582,
                    -0.09894441068172455,
                    0.13676176965236664,
                    0.03160959482192993,
                    -0.474744975566864,
                    0.003919696435332298,
                    0.1937657743692398,
                    -0.0561336949467659,
                    -0.20084871351718903,
                    0.022598884999752045,
                    0.0036494776140898466,
                    0.21515145897865295,
                    0.07898152619600296
                ],
                [
                    0.28946056962013245,
                    0.03276999294757843,
                    -0.17736801505088806,
                    -0.023306241258978844,
                    -0.31648510694503784,
                    0.1771695613861084,
                    -0.0364183709025383,
                    0.15406657755374908,
                    0.3776128888130188,
                    -0.15680500864982605,
                    -0.009051250293850899,
                    0.25708359479904175,
                    0.1876755654811859,
                    0.16275888681411743,
                    -0.01733129844069481,
                    -0.2986610233783722,
                    0.006035701837390661,
                    -0.2666883170604706,
                    0.08820299059152603,
                    -0.003381171962246299,
                    -0.03463183343410492,
                    -0.0023606775794178247,
                    0.009420409798622131,
                    -0.839672863483429,
                    0.27012065052986145,
                    0.099088653922081,
                    0.003966137766838074,
                    -0.21194066107273102,
                    -0.2701782286167145,
                    0.20809020102024078,
                    -0.033427946269512177,
                    0.21622589230537415
                ],
                [
                    -0.6866884231567383,
                    0.44680139422416687,
                    0.0021107373759150505,
                    0.25980713963508606,
                    -0.07955968379974365,
                    -0.2701675593852997,
                    -0.3269716203212738,
                    0.3864496946334839,
                    -0.07097890973091125,
                    0.19691376388072968,
                    0.1604306697845459,
                    0.19195587933063507,
                    -0.34486711025238037,
                    0.0024816698860377073,
                    0.018316149711608887,
                    -0.4878406226634979,
                    0.3079400360584259,
                    -0.057588931173086166,
                    -0.11286508291959763,
                    0.20584386587142944,
                    0.4028535485267639,
                    0.04828503727912903,
                    0.0860816240310669,
                    0.02311278134584427,
                    -0.27343958616256714,
                    -0.25243017077445984,
                    0.08087555319070816,
                    -0.36942166090011597,
                    -0.3615342974662781,
                    0.26072463393211365,
                    -0.7371498346328735,
                    -0.11377543956041336
                ],
                [
                    -0.27082550525665283,
                    -0.4075753688812256,
                    -0.05313719063997269,
                    0.12432298809289932,
                    0.13490478694438934,
                    -0.6756097078323364,
                    0.30222392082214355,
                    0.5599923133850098,
                    0.011771425604820251,
                    0.16346819698810577,
                    0.17665758728981018,
                    0.41394340991973877,
                    0.1732766330242157,
                    0.004814503714442253,
                    0.2022400200366974,
                    0.08124393224716187,
                    -0.618269681930542,
                    0.14938576519489288,
                    -0.22433604300022125,
                    -0.27168092131614685,
                    0.1409240961074829,
                    -0.12057721614837646,
                    -0.2360786646604538,
                    -0.6008381247520447,
                    -0.04097588732838631,
                    0.049786511808633804,
                    -0.14555415511131287,
                    -0.05284788832068443,
                    -0.3340526223182678,
                    -0.4100901782512665,
                    0.3834938704967499,
                    -0.20334820449352264
                ],
                [
                    0.2540888488292694,
                    -0.018227122724056244,
                    -0.25467145442962646,
                    -0.07244037836790085,
                    0.5331023335456848,
                    -0.8712299466133118,
                    -0.030622519552707672,
                    -0.14892655611038208,
                    -0.2577177882194519,
                    -0.08710049837827682,
                    0.1467989832162857,
                    0.04622669517993927,
                    0.08702827990055084,
                    0.06945168972015381,
                    -0.03131997212767601,
                    -0.1428700089454651,
                    -0.5765346884727478,
                    -0.1977434903383255,
                    -0.2726892828941345,
                    0.015997866168618202,
                    -0.1630542129278183,
                    0.06702463328838348,
                    0.14678791165351868,
                    -0.03196554258465767,
                    0.01004550326615572,
                    -0.16078077256679535,
                    0.1220189556479454,
                    -0.41495847702026367,
                    0.031055903062224388,
                    0.17473271489143372,
                    0.21725702285766602,
                    0.2763559818267822
                ],
                [
                    -0.1944296956062317,
                    -0.08681890368461609,
                    0.035859011113643646,
                    0.03740228712558746,
                    -0.5476175546646118,
                    -0.040171753615140915,
                    -0.1257607638835907,
                    0.19921086728572845,
                    -0.2085793912410736,
                    -0.2652968764305115,
                    -0.26004642248153687,
                    -0.0649326965212822,
                    -0.5562108159065247,
                    0.12412058562040329,
                    -0.044172950088977814,
                    -0.020558783784508705,
                    -0.055186640471220016,
                    0.07763372361660004,
                    -0.021501444280147552,
                    0.2759537100791931,
                    -0.10641451179981232,
                    -0.11862928420305252,
                    0.2473144680261612,
                    0.1499468833208084,
                    0.04038602486252785,
                    -0.07203154265880585,
                    -0.09970729053020477,
                    -0.13483025133609772,
                    0.03425748273730278,
                    -0.11626029759645462,
                    -0.19587473571300507,
                    -0.0990716889500618
                ],
                [
                    -0.09897229820489883,
                    0.34436288475990295,
                    0.02691599726676941,
                    -0.2660190463066101,
                    -0.4671633541584015,
                    0.2463502734899521,
                    -0.08794460445642471,
                    -0.9459266662597656,
                    0.3056071996688843,
                    0.12022069096565247,
                    -0.11390630900859833,
                    0.4034871757030487,
                    -0.19723500311374664,
                    0.2722107172012329,
                    0.0006723544211126864,
                    -0.17184065282344818,
                    0.2619028091430664,
                    0.061723772436380386,
                    -0.0806867852807045,
                    0.10632693767547607,
                    0.14603252708911896,
                    -0.07295043021440506,
                    -0.1703047901391983,
                    -0.602796733379364,
                    0.05889131501317024,
                    -0.016495073214173317,
                    0.10282230377197266,
                    0.13322152197360992,
                    0.35312941670417786,
                    -0.12959980964660645,
                    -0.011042901314795017,
                    -0.06745941191911697
                ],
                [
                    0.24460774660110474,
                    0.13446339964866638,
                    -0.6175289154052734,
                    0.18750391900539398,
                    0.08636397123336792,
                    -0.3965592384338379,
                    0.2102324515581131,
                    -0.1267416626214981,
                    -0.6572048664093018,
                    0.22770193219184875,
                    0.17703409492969513,
                    -0.15108278393745422,
                    0.19244113564491272,
                    -0.10599886626005173,
                    -0.3797653317451477,
                    -0.22854702174663544,
                    -0.06529765576124191,
                    -0.34769362211227417,
                    0.189737468957901,
                    -0.011433917097747326,
                    0.23249512910842896,
                    -0.5450800061225891,
                    -0.14080992341041565,
                    0.23738044500350952,
                    0.007982754148542881,
                    -0.5162100791931152,
                    0.04694311320781708,
                    -0.19095508754253387,
                    -0.08436223119497299,
                    -0.11490252614021301,
                    -0.24981366097927094,
                    -0.020915787667036057
                ],
                [
                    -0.08477705717086792,
                    -0.2840003967285156,
                    0.16685296595096588,
                    -0.2577785849571228,
                    -0.25814589858055115,
                    0.01186627522110939,
                    -0.03743182122707367,
                    0.12095122039318085,
                    0.1484602391719818,
                    0.31039199233055115,
                    0.0014047675067558885,
                    0.09364049136638641,
                    -0.18929369747638702,
                    -0.04220500588417053,
                    -0.03867297247052193,
                    0.05590848624706268,
                    -0.5178444981575012,
                    -0.3417208790779114,
                    -0.427257776260376,
                    -0.3780345320701599,
                    -0.39393219351768494,
                    -0.02563488483428955,
                    0.11218775808811188,
                    -0.583752453327179,
                    -0.09371902793645859,
                    -0.042175933718681335,
                    -0.17240458726882935,
                    0.1233678013086319,
                    -0.23050417006015778,
                    0.0596470981836319,
                    -0.20335347950458527,
                    -0.19194477796554565
                ],
                [
                    0.15241169929504395,
                    0.22119413316249847,
                    0.40333372354507446,
                    0.1616852730512619,
                    -0.6223918199539185,
                    -0.2555491030216217,
                    0.24122603237628937,
                    -0.4717862010002136,
                    0.11345835030078888,
                    -0.6818887591362,
                    -0.17966842651367188,
                    0.00505437608808279,
                    -0.17225638031959534,
                    -0.028052762150764465,
                    0.03237880393862724,
                    -0.07180759310722351,
                    0.6555575728416443,
                    -0.26305097341537476,
                    -0.2642342746257782,
                    -0.35980916023254395,
                    0.13526251912117004,
                    -0.05548497661948204,
                    0.19485436379909515,
                    -0.47048622369766235,
                    -0.29622024297714233,
                    0.22840124368667603,
                    -0.1431608349084854,
                    -0.47265246510505676,
                    0.10198327153921127,
                    -0.1820818930864334,
                    0.03306209295988083,
                    0.05045101046562195
                ],
                [
                    0.06693937629461288,
                    -0.14745746552944183,
                    -0.08739166706800461,
                    -0.48038285970687866,
                    -0.014371015131473541,
                    -0.43160030245780945,
                    0.1583857536315918,
                    0.16893909871578217,
                    -0.21749542653560638,
                    -0.585590660572052,
                    0.40570127964019775,
                    0.0927736684679985,
                    -0.07029762119054794,
                    0.03833987936377525,
                    0.3481352925300598,
                    0.4409678280353546,
                    -0.35064807534217834,
                    0.10684415698051453,
                    -0.16209247708320618,
                    0.16566255688667297,
                    -0.21762186288833618,
                    0.04548799246549606,
                    0.5560353398323059,
                    0.1767895221710205,
                    -0.10637293756008148,
                    0.13241741061210632,
                    -0.1993533819913864,
                    -0.14864112436771393,
                    0.5162997841835022,
                    -0.22184768319129944,
                    0.11318036168813705,
                    -0.2604079842567444
                ],
                [
                    0.05732108652591705,
                    0.7644204497337341,
                    0.138162761926651,
                    -0.24004921317100525,
                    0.01723583973944187,
                    -0.05019743740558624,
                    0.20431025326251984,
                    -0.19093815982341766,
                    0.19989293813705444,
                    -0.516919732093811,
                    0.25139108300209045,
                    0.017040925100445747,
                    0.21096859872341156,
                    -0.08913713693618774,
                    0.09932955354452133,
                    -0.3528387248516083,
                    -0.21058213710784912,
                    0.41237109899520874,
                    0.16444151103496552,
                    0.33163323998451233,
                    0.3098324239253998,
                    0.042107075452804565,
                    0.4176512658596039,
                    0.01673046499490738,
                    0.08779549598693848,
                    0.09399204701185226,
                    0.03207514435052872,
                    0.006015333812683821,
                    -0.19226716458797455,
                    0.32008159160614014,
                    -0.24065643548965454,
                    0.2847391366958618
                ],
                [
                    -0.2657788097858429,
                    0.24102169275283813,
                    -0.6740239262580872,
                    -0.12891165912151337,
                    0.027482738718390465,
                    -0.1835184246301651,
                    -0.1378575563430786,
                    0.3388729691505432,
                    -0.2870454490184784,
                    -0.12085313349962234,
                    0.018740613013505936,
                    0.11813792586326599,
                    -0.19640514254570007,
                    -0.15222735702991486,
                    0.19358126819133759,
                    -0.2910482883453369,
                    0.01880444586277008,
                    0.26810991764068604,
                    -0.033312585204839706,
                    -0.03220849111676216,
                    0.2801520824432373,
                    -0.086131751537323,
                    0.3262202739715576,
                    0.19088438153266907,
                    -0.3411678671836853,
                    -0.46937742829322815,
                    0.031901050359010696,
                    -0.20681478083133698,
                    -0.006054705940186977,
                    -0.10923399031162262,
                    -0.3177300691604614,
                    -0.4004826843738556
                ],
                [
                    0.1620211899280548,
                    -0.000520997797138989,
                    0.3062659204006195,
                    -0.08869165182113647,
                    -0.2641339898109436,
                    -0.13521553575992584,
                    0.011792327277362347,
                    0.003799048252403736,
                    -0.11268483847379684,
                    -0.1342201828956604,
                    -0.25783249735832214,
                    0.24594877660274506,
                    -0.04820303991436958,
                    -0.027498366311192513,
                    0.06403426826000214,
                    -0.23687414824962616,
                    0.10477391630411148,
                    -0.09555201232433319,
                    -0.12734365463256836,
                    0.04416452720761299,
                    0.2808879315853119,
                    -0.3593405783176422,
                    -0.2285682111978531,
                    0.30678197741508484,
                    -0.01799919828772545,
                    -0.06003390997648239,
                    -0.06239834055304527,
                    -0.19650961458683014,
                    0.2010822594165802,
                    -0.07172947376966476,
                    -0.3714090883731842,
                    -0.19703218340873718
                ],
                [
                    -0.030890028923749924,
                    -0.3571070730686188,
                    0.2620885372161865,
                    -0.16784687340259552,
                    0.017787586897611618,
                    -0.6036694049835205,
                    0.32713693380355835,
                    -0.237686425447464,
                    0.014115522615611553,
                    0.3943183720111847,
                    0.23635122179985046,
                    0.2866835296154022,
                    0.08970130234956741,
                    -0.062300197780132294,
                    0.33882901072502136,
                    0.2082754522562027,
                    -0.2171785682439804,
                    -0.31542977690696716,
                    -0.1953887641429901,
                    -0.5948420763015747,
                    -0.07052890956401825,
                    0.07917188107967377,
                    0.7659649848937988,
                    -0.4225054979324341,
                    -0.38628247380256653,
                    0.1084030494093895,
                    0.04080728441476822,
                    0.11550083011388779,
                    -0.5465283989906311,
                    0.14772027730941772,
                    0.14874902367591858,
                    -0.16003066301345825
                ]
            ],
            [
                [
                    0.08375709503889084,
                    -0.4750845432281494,
                    0.13331052660942078,
                    -0.18448083102703094,
                    0.08871828019618988,
                    0.1780114620923996,
                    -0.45879173278808594,
                    0.07990088313817978,
                    -0.07130119949579239,
                    0.16383248567581177,
                    0.18978027999401093,
                    -0.008161446079611778,
                    0.3653845489025116,
                    -0.028376305475831032,
                    -0.38657739758491516,
                    -0.20256716012954712,
                    0.12274287641048431,
                    -0.1394807994365692,
                    0.06297927349805832,
                    -0.38925835490226746,
                    0.047803845256567,
                    -0.16296258568763733,
                    -0.0046768346801400185,
                    -0.9452166557312012,
                    -0.5675279498100281,
                    -0.4788616895675659,
                    0.22753596305847168,
                    0.05525021627545357,
                    0.2432233840227127,
                    0.45107221603393555,
                    0.34691518545150757,
                    0.3575453758239746
                ],
                [
                    -0.037209320813417435,
                    0.1324913203716278,
                    0.10307179391384125,
                    0.11630860716104507,
                    -0.14463123679161072,
                    0.0715373232960701,
                    -0.4265711009502411,
                    -0.2696259021759033,
                    0.21307770907878876,
                    0.23345310986042023,
                    0.21133245527744293,
                    -0.2173488289117813,
                    0.09681450575590134,
                    0.09975719451904297,
                    -0.5324242115020752,
                    0.13619200885295868,
                    0.15579482913017273,
                    0.1066366508603096,
                    -0.032018695026636124,
                    0.22341111302375793,
                    0.04425174370408058,
                    -0.05208461731672287,
                    -0.10621514916419983,
                    -0.11389973014593124,
                    0.23391397297382355,
                    0.05469996854662895,
                    0.40830689668655396,
                    -0.09568295627832413,
                    0.09761366248130798,
                    0.06427731364965439,
                    -0.153009295463562,
                    -0.2503195106983185
                ],
                [
                    -0.3026624321937561,
                    0.23832064867019653,
                    0.10714971274137497,
                    -0.09795469045639038,
                    -0.24780742824077606,
                    -0.08865108340978622,
                    0.31956738233566284,
                    0.07872728258371353,
                    0.2784988284111023,
                    -0.33739379048347473,
                    0.21835379302501678,
                    0.21608518064022064,
                    -0.26757049560546875,
                    -0.00025656528305262327,
                    -0.11190404742956161,
                    0.25119733810424805,
                    0.4509586989879608,
                    0.004451693966984749,
                    -0.07257126271724701,
                    0.07446740567684174,
                    0.1429782509803772,
                    -0.30610644817352295,
                    0.0408015251159668,
                    -0.5616232752799988,
                    0.14439040422439575,
                    -0.1181826964020729,
                    0.1363772302865982,
                    -0.1074705496430397,
                    0.11932796984910965,
                    0.06918533891439438,
                    0.10406748950481415,
                    -0.15493033826351166
                ],
                [
                    0.21209487318992615,
                    0.02718023955821991,
                    0.03101397305727005,
                    -0.0005853314651176333,
                    -0.4893680810928345,
                    0.10195475816726685,
                    -0.10309340059757233,
                    0.1978374421596527,
                    0.3721584975719452,
                    -0.36998358368873596,
                    -0.3623369038105011,
                    -0.04802713170647621,
                    -0.02220289036631584,
                    -0.06323792040348053,
                    -0.3742815852165222,
                    -0.15470775961875916,
                    -0.005152763333171606,
                    -0.18489830195903778,
                    0.041775982826948166,
                    0.1838461011648178,
                    0.4914274513721466,
                    0.34240052103996277,
                    -0.07329563796520233,
                    -0.34285610914230347,
                    0.20807164907455444,
                    -0.042455438524484634,
                    -0.15858052670955658,
                    -0.502966582775116,
                    -0.8483579158782959,
                    0.07112474739551544,
                    -0.11242012679576874,
                    -0.18726521730422974
                ],
                [
                    -0.21616941690444946,
                    -0.18991534411907196,
                    0.06071210652589798,
                    0.2433789223432541,
                    -0.3923463225364685,
                    -0.33090630173683167,
                    0.0649915263056755,
                    -0.06698595732450485,
                    -0.15982206165790558,
                    0.30376142263412476,
                    0.09358308464288712,
                    0.12642903625965118,
                    0.26570266485214233,
                    -0.19919630885124207,
                    0.3770182132720947,
                    0.037310872226953506,
                    0.034438833594322205,
                    -0.485588401556015,
                    -0.05421534180641174,
                    0.22017161548137665,
                    0.25523167848587036,
                    0.03821789473295212,
                    -0.648555338382721,
                    -0.0744364783167839,
                    0.06796131283044815,
                    0.3686397075653076,
                    0.07684051245450974,
                    -0.08451077342033386,
                    -0.07462161034345627,
                    0.016424808651208878,
                    0.2854185700416565,
                    0.08650732785463333
                ],
                [
                    0.05571551248431206,
                    0.06563974916934967,
                    0.10386671870946884,
                    0.3218595087528229,
                    0.0660632997751236,
                    -0.11496273428201675,
                    0.28902575373649597,
                    -0.02576260454952717,
                    0.25864923000335693,
                    0.31282755732536316,
                    0.3082776963710785,
                    -0.3158250153064728,
                    -0.033048056066036224,
                    -0.23362983763217926,
                    0.2292657196521759,
                    0.564173698425293,
                    -0.45351138710975647,
                    -0.06254594773054123,
                    -0.1277211457490921,
                    -0.3269275724887848,
                    -0.2445475161075592,
                    0.05644969269633293,
                    0.29503133893013,
                    -0.1262652724981308,
                    -0.06988096237182617,
                    -0.18143846094608307,
                    0.2337365448474884,
                    -0.412997305393219,
                    -0.032392069697380066,
                    -0.08746267110109329,
                    0.5588086247444153,
                    -0.03903254494071007
                ],
                [
                    0.1607314944267273,
                    -0.41060811281204224,
                    -0.5041733980178833,
                    0.14978908002376556,
                    -0.43728750944137573,
                    -0.10978906601667404,
                    0.00038211277569644153,
                    0.03746459260582924,
                    -0.20223751664161682,
                    -0.1628996580839157,
                    -0.5359100103378296,
                    -0.0352572463452816,
                    -0.5227177143096924,
                    -0.12155541777610779,
                    -0.5510196685791016,
                    -0.07351475954055786,
                    -0.25369420647621155,
                    -0.10197529196739197,
                    0.012612967751920223,
                    0.13140973448753357,
                    -0.17218615114688873,
                    0.026956774294376373,
                    0.2615945339202881,
                    0.020124608650803566,
                    0.13805490732192993,
                    -0.2664920687675476,
                    0.027021121233701706,
                    0.09576650708913803,
                    -0.4897788465023041,
                    -0.060203853994607925,
                    0.020093558356165886,
                    0.02894580364227295
                ],
                [
                    0.20023585855960846,
                    0.048675693571567535,
                    0.1144859567284584,
                    -0.43801581859588623,
                    0.2828221619129181,
                    0.20544496178627014,
                    -0.21586260199546814,
                    -0.016123495995998383,
                    0.15179717540740967,
                    0.25078609585762024,
                    0.533607006072998,
                    0.20035254955291748,
                    0.41859742999076843,
                    -0.2973499894142151,
                    0.41583165526390076,
                    -0.3781905770301819,
                    -0.3229547441005707,
                    0.33700647950172424,
                    0.07615780085325241,
                    0.3587190508842468,
                    -0.14919154345989227,
                    -0.27399125695228577,
                    -0.07923534512519836,
                    0.2093440294265747,
                    0.18858462572097778,
                    -0.092952199280262,
                    -0.06284376233816147,
                    0.14651432633399963,
                    0.21603913605213165,
                    -0.22823800146579742,
                    -0.03404094651341438,
                    -0.04469267651438713
                ],
                [
                    0.2582741677761078,
                    0.25441861152648926,
                    -0.22288505733013153,
                    0.03480365872383118,
                    -0.0909503847360611,
                    -0.07760751992464066,
                    -0.180286705493927,
                    0.07975740730762482,
                    -0.29807963967323303,
                    -0.03734322264790535,
                    -0.151228666305542,
                    0.12592412531375885,
                    0.14652542769908905,
                    -0.30942004919052124,
                    -0.5176346302032471,
                    -0.14870230853557587,
                    -0.36176490783691406,
                    -0.48373928666114807,
                    0.015258208848536015,
                    -0.0981559231877327,
                    0.12185158580541611,
                    -0.03317136690020561,
                    -0.14717048406600952,
                    0.15656405687332153,
                    0.09691347181797028,
                    0.05399571359157562,
                    0.020399410277605057,
                    -0.1479027271270752,
                    -0.22000469267368317,
                    0.030515875667333603,
                    0.25265422463417053,
                    0.02980104833841324
                ],
                [
                    -0.09441327303647995,
                    -0.28285330533981323,
                    -0.019078193232417107,
                    0.1569533348083496,
                    -0.5525907874107361,
                    0.4381633698940277,
                    -0.08939167857170105,
                    -0.19241219758987427,
                    0.07757554948329926,
                    -0.11652849614620209,
                    -0.008184253238141537,
                    -0.1937883347272873,
                    0.14525268971920013,
                    -0.08572100102901459,
                    -0.3901483416557312,
                    0.2807167172431946,
                    -0.09911343455314636,
                    -0.9205546379089355,
                    0.055295053869485855,
                    -0.039008546620607376,
                    -0.12174148112535477,
                    0.13378800451755524,
                    -0.3059767782688141,
                    -0.1584191471338272,
                    0.04791359603404999,
                    -0.481318861246109,
                    -0.22820942103862762,
                    0.06446529179811478,
                    -0.3359895348548889,
                    0.20448113977909088,
                    -0.1979927122592926,
                    0.04317482188344002
                ],
                [
                    0.2071530967950821,
                    -0.3724653720855713,
                    0.2519460916519165,
                    -0.1713547259569168,
                    -0.34029000997543335,
                    -0.12490587681531906,
                    0.17212581634521484,
                    -0.03673626109957695,
                    0.294766902923584,
                    -0.15873757004737854,
                    0.2945297360420227,
                    -0.014315984211862087,
                    -0.5341774225234985,
                    0.018791021779179573,
                    0.13597145676612854,
                    -0.011553235352039337,
                    0.25636059045791626,
                    0.2085723876953125,
                    -0.018304603174328804,
                    -0.11749351769685745,
                    0.39983251690864563,
                    0.14984682202339172,
                    0.09056562185287476,
                    -0.027325350791215897,
                    0.02975168079137802,
                    -0.14520439505577087,
                    -0.2805878221988678,
                    -0.251630961894989,
                    -0.10533245652914047,
                    0.06008065119385719,
                    -0.0009721125243231654,
                    -0.17000895738601685
                ],
                [
                    0.16649864614009857,
                    0.0031527886167168617,
                    -0.4055924713611603,
                    0.04004701226949692,
                    0.3302532434463501,
                    -1.0546225309371948,
                    0.07754142582416534,
                    -0.06050175800919533,
                    -0.023247215896844864,
                    0.0014358946355059743,
                    0.07597744464874268,
                    -0.3675462007522583,
                    0.2679671049118042,
                    0.050546176731586456,
                    -0.004109306260943413,
                    -0.03085104376077652,
                    -0.5128411054611206,
                    -0.049599919468164444,
                    -0.16123563051223755,
                    0.068393774330616,
                    -0.7248810529708862,
                    0.0986543521285057,
                    -0.15070295333862305,
                    0.1596708446741104,
                    0.20806586742401123,
                    -0.06781108677387238,
                    -0.02098756656050682,
                    0.07609304040670395,
                    0.09042974561452866,
                    -0.3934280574321747,
                    0.09532683342695236,
                    0.2374640256166458
                ],
                [
                    -0.18578244745731354,
                    0.5098583698272705,
                    0.24541857838630676,
                    -0.39966753125190735,
                    -0.020836539566516876,
                    -0.5644020438194275,
                    -0.14569470286369324,
                    -0.4736519455909729,
                    0.05881640687584877,
                    0.13351303339004517,
                    0.13614846765995026,
                    -0.1742905229330063,
                    0.20548155903816223,
                    -0.0029700128361582756,
                    0.11570077389478683,
                    0.19769978523254395,
                    0.008754512295126915,
                    -0.05942504107952118,
                    0.32424429059028625,
                    0.1126355454325676,
                    0.11649838089942932,
                    -0.203648641705513,
                    0.1260814666748047,
                    -0.387134313583374,
                    -0.034717921167612076,
                    0.136033833026886,
                    0.23551645874977112,
                    -0.611534833908081,
                    -0.03033127263188362,
                    0.2074434459209442,
                    0.012778641656041145,
                    -0.07281886041164398
                ],
                [
                    -0.273298978805542,
                    0.03474407643079758,
                    -0.24973765015602112,
                    -0.2438386231660843,
                    -0.04235775023698807,
                    0.001233770977705717,
                    0.19181343913078308,
                    0.12402860820293427,
                    -0.2867918312549591,
                    -0.6224414110183716,
                    -0.2176274061203003,
                    -0.12473580241203308,
                    -0.1767871230840683,
                    -0.11800680309534073,
                    0.045684877783060074,
                    -0.08404264599084854,
                    -0.053549375385046005,
                    -0.261717826128006,
                    0.09397801756858826,
                    0.02579321525990963,
                    0.14229106903076172,
                    0.05566509813070297,
                    -0.06620322167873383,
                    -0.08671116083860397,
                    -0.15010295808315277,
                    -0.1923350989818573,
                    -0.18826507031917572,
                    -0.003430679440498352,
                    -0.11616626381874084,
                    -0.2322797179222107,
                    -0.23424525558948517,
                    -0.48394471406936646
                ],
                [
                    -0.016531744971871376,
                    -0.1440766602754593,
                    -1.0414097309112549,
                    -0.14498527348041534,
                    0.21003423631191254,
                    -0.20255671441555023,
                    -0.04563680663704872,
                    0.30405566096305847,
                    -0.04809464141726494,
                    -0.22281242907047272,
                    -0.2404986023902893,
                    0.12018337100744247,
                    0.26231899857521057,
                    -0.211244136095047,
                    -0.32599714398384094,
                    -0.2011476308107376,
                    -0.18193326890468597,
                    -0.14617174863815308,
                    -0.029658997431397438,
                    -0.08424769341945648,
                    -0.1616370677947998,
                    -0.33532628417015076,
                    -0.3700423836708069,
                    0.01666414923965931,
                    0.11263067275285721,
                    -0.0865626409649849,
                    -0.07292105257511139,
                    0.0889681875705719,
                    0.2301182895898819,
                    -0.09990599751472473,
                    0.11734291166067123,
                    -0.37481775879859924
                ],
                [
                    -0.3143130838871002,
                    -0.6246297955513,
                    -0.0824097990989685,
                    0.09694770723581314,
                    -0.07734192162752151,
                    0.0059874593280255795,
                    0.07529550045728683,
                    -0.304220587015152,
                    0.034472718834877014,
                    0.1920173466205597,
                    0.011181751266121864,
                    0.1510932892560959,
                    0.1231229230761528,
                    -0.09777875989675522,
                    -0.4953899383544922,
                    0.3179120421409607,
                    -0.5982666015625,
                    -0.14429934322834015,
                    -0.1972159892320633,
                    -0.053191084414720535,
                    -0.3273729383945465,
                    0.21035124361515045,
                    -0.2880370020866394,
                    -0.31787869334220886,
                    -0.24381358921527863,
                    -0.7807068228721619,
                    0.12083373963832855,
                    -0.1675766259431839,
                    -0.2513692080974579,
                    -0.17589080333709717,
                    -0.22822506725788116,
                    0.06399296224117279
                ]
            ],
            [
                [
                    -0.15223900973796844,
                    -0.34719839692115784,
                    0.2951139211654663,
                    -0.4602791368961334,
                    -0.18735674023628235,
                    -0.05595726892352104,
                    0.04900967329740524,
                    -0.4333789050579071,
                    -0.3095947504043579,
                    0.2503676116466522,
                    -0.2269698679447174,
                    0.17733685672283173,
                    0.0948391780257225,
                    0.242598295211792,
                    0.0934671014547348,
                    0.14167636632919312,
                    0.1508459448814392,
                    -0.3048471212387085,
                    -0.05320148169994354,
                    0.32344529032707214,
                    -0.05881008878350258,
                    -0.2804245054721832,
                    -0.16486389935016632,
                    -0.4058341085910797,
                    -0.22630873322486877,
                    -0.09417513757944107,
                    0.3704248070716858,
                    0.026335828006267548,
                    0.036715298891067505,
                    0.31678691506385803,
                    0.20680807530879974,
                    0.10415507853031158
                ],
                [
                    0.06609539687633514,
                    -0.028022553771734238,
                    0.1513444036245346,
                    0.013511952944099903,
                    0.01273985393345356,
                    0.1303488165140152,
                    -0.21848338842391968,
                    -0.3316119909286499,
                    0.009007592685520649,
                    0.13237819075584412,
                    0.029373781755566597,
                    0.1480916142463684,
                    -0.2174859493970871,
                    0.3673737049102783,
                    0.10049394518136978,
                    0.3576354384422302,
                    0.013369381427764893,
                    0.38932090997695923,
                    -0.01920267380774021,
                    0.01633729599416256,
                    0.28623953461647034,
                    -0.1304754912853241,
                    -0.26774272322654724,
                    0.3080809712409973,
                    -0.05491980165243149,
                    -0.0457729697227478,
                    0.1960572600364685,
                    -0.32593032717704773,
                    0.2803661823272705,
                    -0.04790298640727997,
                    -0.1094343513250351,
                    0.33202189207077026
                ],
                [
                    0.06798849999904633,
                    0.22443746030330658,
                    0.10281392186880112,
                    0.03080775775015354,
                    -0.45150211453437805,
                    -0.7329403758049011,
                    0.44849562644958496,
                    -0.10090452432632446,
                    0.33808034658432007,
                    0.19986747205257416,
                    0.04953565075993538,
                    -0.12506192922592163,
                    0.04129742085933685,
                    -0.03012307547032833,
                    -0.4904603660106659,
                    0.3569417893886566,
                    -0.007496336940675974,
                    0.13187740743160248,
                    0.13020294904708862,
                    -0.1537020057439804,
                    -0.060872964560985565,
                    -0.18368373811244965,
                    0.0936993956565857,
                    0.4147416353225708,
                    -0.15551824867725372,
                    0.12126664817333221,
                    0.03608773648738861,
                    0.05098526179790497,
                    -0.8991820812225342,
                    -0.33834028244018555,
                    -0.1280299723148346,
                    -0.26692575216293335
                ],
                [
                    -0.08745203167200089,
                    -0.03929845243692398,
                    0.09670693427324295,
                    -0.10899684578180313,
                    -0.6911293268203735,
                    -0.21397264301776886,
                    -0.12966614961624146,
                    0.1617136299610138,
                    0.004685782827436924,
                    -0.2046547532081604,
                    -0.06885592639446259,
                    -0.06939961016178131,
                    -0.18643781542778015,
                    0.10280699282884598,
                    -0.9581306576728821,
                    0.177715003490448,
                    0.5235593914985657,
                    -0.2896398901939392,
                    0.12706105411052704,
                    -0.3619183599948883,
                    0.2488250583410263,
                    -0.048069823533296585,
                    0.023676350712776184,
                    -0.13625100255012512,
                    -0.12957480549812317,
                    -0.3464558720588684,
                    0.013597026467323303,
                    -0.09398975968360901,
                    -0.0979611799120903,
                    -0.11866042762994766,
                    -0.053595494478940964,
                    -0.0032080577220767736
                ],
                [
                    -0.1339554488658905,
                    0.18663640320301056,
                    -0.08804856985807419,
                    0.20364607870578766,
                    0.10202835500240326,
                    0.14778897166252136,
                    0.2690681517124176,
                    0.0583144910633564,
                    0.026830099523067474,
                    0.24588608741760254,
                    0.17346124351024628,
                    0.24795402586460114,
                    -0.26718127727508545,
                    -0.2342875599861145,
                    -0.6677826642990112,
                    0.05087974667549133,
                    -0.17003247141838074,
                    -0.43390363454818726,
                    -0.519700288772583,
                    0.22645284235477448,
                    0.09199138730764389,
                    0.04708816856145859,
                    -0.1941392868757248,
                    -0.4073895514011383,
                    0.22219052910804749,
                    -0.16717314720153809,
                    0.1481408178806305,
                    0.19610479474067688,
                    -0.3993535041809082,
                    0.05411243438720703,
                    0.17594045400619507,
                    -0.2822282910346985
                ],
                [
                    0.22970370948314667,
                    -0.4519899785518646,
                    -0.4293941557407379,
                    -0.30817797780036926,
                    -0.3300172984600067,
                    0.21727149188518524,
                    -0.047394320368766785,
                    0.007487238850444555,
                    0.14170418679714203,
                    0.12927767634391785,
                    0.1754877120256424,
                    -0.15036159753799438,
                    -0.01856803521513939,
                    0.22800998389720917,
                    -0.43110978603363037,
                    0.24115914106369019,
                    -0.05007342994213104,
                    -0.5383199453353882,
                    0.0858038067817688,
                    0.39061710238456726,
                    -0.34987789392471313,
                    0.1785624623298645,
                    0.10163849592208862,
                    -0.5444581508636475,
                    0.24134904146194458,
                    -0.70066899061203,
                    -0.12353664636611938,
                    0.27743178606033325,
                    0.06749411672353745,
                    -0.11094248294830322,
                    0.05820532888174057,
                    -0.06444032490253448
                ],
                [
                    0.13477686047554016,
                    -0.14538638293743134,
                    -0.2522454857826233,
                    0.19129694998264313,
                    -0.25468483567237854,
                    -0.21707738935947418,
                    -0.022709114477038383,
                    0.03922676295042038,
                    0.07021769881248474,
                    -0.005364628508687019,
                    -0.6225298643112183,
                    0.00436668936163187,
                    -0.3703078627586365,
                    -0.38137465715408325,
                    -1.1694165468215942,
                    -0.1885925829410553,
                    -0.22273695468902588,
                    -0.18813148140907288,
                    -0.057560328394174576,
                    -0.005907826591283083,
                    -0.5120432376861572,
                    -0.06690473854541779,
                    -0.037275493144989014,
                    -0.29750460386276245,
                    0.3460019826889038,
                    -0.02300507202744484,
                    0.23235125839710236,
                    0.046286411583423615,
                    -0.6698477864265442,
                    0.10923409461975098,
                    0.19305741786956787,
                    0.1439235359430313
                ],
                [
                    -0.46662572026252747,
                    0.4030905067920685,
                    -0.6615781784057617,
                    0.10682535171508789,
                    0.04337754473090172,
                    -0.1329396814107895,
                    -0.6092999577522278,
                    0.22846367955207825,
                    -0.38800930976867676,
                    0.16223843395709991,
                    0.19276964664459229,
                    0.25520142912864685,
                    0.20657283067703247,
                    -0.011701570823788643,
                    0.032565873116254807,
                    0.21448999643325806,
                    0.060345228761434555,
                    -0.15629252791404724,
                    0.18097123503684998,
                    0.0357607826590538,
                    -0.2080310732126236,
                    -0.21280616521835327,
                    -0.12524789571762085,
                    0.16207604110240936,
                    0.11805277317762375,
                    0.31908926367759705,
                    0.2094593495130539,
                    -0.17265623807907104,
                    0.16498801112174988,
                    -0.5628308057785034,
                    0.2634560763835907,
                    0.2081267088651657
                ],
                [
                    0.05598757788538933,
                    -0.03627621382474899,
                    0.03420024365186691,
                    0.191578671336174,
                    -0.021444901823997498,
                    -0.3149729073047638,
                    -0.1059948280453682,
                    0.05721953138709068,
                    0.007752305828034878,
                    -0.15822234749794006,
                    -0.2719326913356781,
                    0.5543503761291504,
                    -0.06046691909432411,
                    -0.9291948676109314,
                    -0.8867186903953552,
                    -0.11823858320713043,
                    0.0351819284260273,
                    -0.5164953470230103,
                    0.03621171787381172,
                    0.1821766495704651,
                    0.09274934977293015,
                    -0.14980468153953552,
                    -0.45204782485961914,
                    -0.12523019313812256,
                    0.4233264625072479,
                    0.19369947910308838,
                    -0.02084239013493061,
                    0.29960373044013977,
                    -0.051397595554590225,
                    0.05579144507646561,
                    0.4733082354068756,
                    -0.039478983730077744
                ],
                [
                    0.0641622468829155,
                    -0.4884207844734192,
                    -0.14934222400188446,
                    0.30411985516548157,
                    0.1937018483877182,
                    -0.02603013813495636,
                    0.3142950236797333,
                    0.14836910367012024,
                    0.20473738014698029,
                    -0.22586818039417267,
                    -0.09891888499259949,
                    -0.015352841466665268,
                    0.18336273729801178,
                    -0.14676566421985626,
                    -0.7195230722427368,
                    -0.08745653182268143,
                    0.22318090498447418,
                    -0.19004954397678375,
                    -0.04406367242336273,
                    0.0845695361495018,
                    -0.048811666667461395,
                    -0.2404603660106659,
                    -0.7546437978744507,
                    -0.06737979501485825,
                    -0.15995369851589203,
                    -0.08117735385894775,
                    -0.19369228184223175,
                    0.3105244040489197,
                    -0.05083050951361656,
                    0.1049041748046875,
                    -0.0003021845477633178,
                    0.16396969556808472
                ],
                [
                    -0.022670751437544823,
                    -0.09433118999004364,
                    -0.5230715274810791,
                    -0.014145285822451115,
                    0.15501274168491364,
                    -0.12853814661502838,
                    -0.33543065190315247,
                    -0.08354491740465164,
                    0.17087151110172272,
                    0.057599026709795,
                    0.31212344765663147,
                    0.20963610708713531,
                    -0.3522355854511261,
                    0.32666224241256714,
                    0.0666302815079689,
                    0.25212517380714417,
                    0.11382266879081726,
                    0.13246291875839233,
                    -0.03983254358172417,
                    0.15406690537929535,
                    -0.028757577762007713,
                    0.03450950235128403,
                    -0.08254121243953705,
                    0.20332936942577362,
                    0.08948388695716858,
                    -0.09478586912155151,
                    -0.13354401290416718,
                    -0.14293886721134186,
                    0.163224458694458,
                    -0.6268500685691833,
                    -0.21424667537212372,
                    0.26919689774513245
                ],
                [
                    0.21661274135112762,
                    0.15540534257888794,
                    -0.16075360774993896,
                    -0.03792347013950348,
                    -0.036184895783662796,
                    -0.06523789465427399,
                    -0.1931217610836029,
                    0.01750391349196434,
                    -0.23318180441856384,
                    0.05715348944067955,
                    0.10930901765823364,
                    -0.5132991075515747,
                    0.14562620222568512,
                    0.15036168694496155,
                    -0.1638956367969513,
                    -0.17149963974952698,
                    -0.42396456003189087,
                    -0.11668042093515396,
                    0.42097774147987366,
                    0.1463233381509781,
                    -0.36250755190849304,
                    0.21558760106563568,
                    -0.4897506833076477,
                    -0.2223082184791565,
                    0.31437212228775024,
                    0.25045180320739746,
                    0.08569376170635223,
                    -0.00855780579149723,
                    -0.03643684834241867,
                    -0.4051896631717682,
                    -0.022831805050373077,
                    0.23148111999034882
                ],
                [
                    0.12513665854930878,
                    0.372885137796402,
                    0.339817613363266,
                    -0.7778015732765198,
                    -0.5190820693969727,
                    0.10648353397846222,
                    0.03187429904937744,
                    -0.05432075262069702,
                    -0.09683550149202347,
                    0.27850374579429626,
                    0.3421929180622101,
                    -0.324871689081192,
                    0.020573532208800316,
                    0.23210041224956512,
                    -0.269184410572052,
                    0.06094367057085037,
                    -0.026900067925453186,
                    0.1739606410264969,
                    0.3072059154510498,
                    0.1738361120223999,
                    0.3411138355731964,
                    -0.09108834713697433,
                    0.5652344822883606,
                    0.20765259861946106,
                    0.1541796326637268,
                    -0.06866198033094406,
                    0.30126136541366577,
                    -0.36333364248275757,
                    0.4156500995159149,
                    -0.020917901769280434,
                    0.128074049949646,
                    -0.17743206024169922
                ],
                [
                    -0.5937370657920837,
                    0.11283161491155624,
                    0.300822377204895,
                    -0.030917473137378693,
                    -0.4779762625694275,
                    -0.26041707396507263,
                    -0.08012067526578903,
                    0.08179066330194473,
                    -0.2772584855556488,
                    -0.49846723675727844,
                    -0.15886631608009338,
                    0.07752221077680588,
                    -0.23702330887317657,
                    -0.2435610145330429,
                    -0.32694578170776367,
                    0.05375318229198456,
                    -0.2080674022436142,
                    -0.1097794622182846,
                    0.07070191949605942,
                    -0.4546577036380768,
                    -0.11742575466632843,
                    -0.2276535928249359,
                    0.1899551898241043,
                    0.03883003443479538,
                    -0.15824821591377258,
                    -0.05634986236691475,
                    -0.0778094008564949,
                    -0.1997281014919281,
                    -0.25688672065734863,
                    -0.18016667664051056,
                    -0.17831911146640778,
                    -0.41326192021369934
                ],
                [
                    -0.3294617831707001,
                    0.34105774760246277,
                    0.2628765404224396,
                    0.2403130680322647,
                    0.29321426153182983,
                    -0.15904249250888824,
                    -0.20199191570281982,
                    0.17821668088436127,
                    -0.0375383198261261,
                    -0.2561134099960327,
                    -0.7046461701393127,
                    -0.15393772721290588,
                    -0.0667772889137268,
                    -0.557325541973114,
                    -0.3033653795719147,
                    0.08383385092020035,
                    0.040608569979667664,
                    -0.48741328716278076,
                    0.02134833298623562,
                    0.2552183270454407,
                    -0.6241430640220642,
                    -0.5017845034599304,
                    -0.7928687930107117,
                    -0.22725185751914978,
                    0.2416408658027649,
                    0.14951680600643158,
                    0.07301974296569824,
                    0.264217734336853,
                    -0.02450288087129593,
                    -0.14553016424179077,
                    0.30877968668937683,
                    0.0019506298704072833
                ],
                [
                    -0.2550034821033478,
                    -0.12320392578840256,
                    0.19438518583774567,
                    -0.02222028188407421,
                    -0.30701231956481934,
                    -0.08832290768623352,
                    0.016508329659700394,
                    0.2453250139951706,
                    -0.06307903677225113,
                    0.0980495736002922,
                    0.09638732671737671,
                    0.13342836499214172,
                    0.06866802275180817,
                    0.07303760200738907,
                    -0.024732869118452072,
                    -0.0928674265742302,
                    -0.2134847640991211,
                    -0.2826439440250397,
                    0.0552130825817585,
                    -0.011941562406718731,
                    -0.10860594362020493,
                    0.001808362198062241,
                    -0.26192033290863037,
                    -0.06842632591724396,
                    -0.08402734994888306,
                    -0.4622301459312439,
                    -0.15555839240550995,
                    -0.18248432874679565,
                    -0.22250257432460785,
                    0.2892751693725586,
                    -0.4360470175743103,
                    0.00308017386123538
                ]
            ],
            [
                [
                    -0.1879979372024536,
                    0.03273285925388336,
                    -0.004819149151444435,
                    -0.30209746956825256,
                    0.36519283056259155,
                    -0.1298251450061798,
                    -0.31582626700401306,
                    0.18782784044742584,
                    0.01668083481490612,
                    0.25012046098709106,
                    0.2510394752025604,
                    0.04044995456933975,
                    0.24328258633613586,
                    0.026953348889946938,
                    0.11396011710166931,
                    -0.23570182919502258,
                    0.3608737587928772,
                    0.09256306290626526,
                    0.008423563092947006,
                    0.26526758074760437,
                    0.2970614433288574,
                    -0.09958852827548981,
                    0.15685290098190308,
                    0.2954901158809662,
                    -0.14967937767505646,
                    -0.07934455573558807,
                    0.21732915937900543,
                    0.0775843933224678,
                    0.12257331609725952,
                    -0.058957163244485855,
                    0.49583885073661804,
                    -0.006507855840027332
                ],
                [
                    0.17631684243679047,
                    -0.188348188996315,
                    -0.27913105487823486,
                    -0.10755889862775803,
                    0.08910693973302841,
                    0.05364876985549927,
                    -0.24658551812171936,
                    -0.052329111844301224,
                    -0.13403569161891937,
                    0.09523121267557144,
                    -0.07734901458024979,
                    -0.031914714723825455,
                    -0.1337599903345108,
                    0.4509337544441223,
                    0.08610446751117706,
                    -0.17035025358200073,
                    0.08234279602766037,
                    0.1660669445991516,
                    0.06061824783682823,
                    -0.010561448521912098,
                    0.3930044174194336,
                    0.004926305264234543,
                    0.11589369177818298,
                    0.33117538690567017,
                    0.06757079064846039,
                    -0.21869707107543945,
                    0.1614990532398224,
                    -0.8272629976272583,
                    0.24653932452201843,
                    -0.32512301206588745,
                    0.0667802020907402,
                    0.2740868628025055
                ],
                [
                    0.2937493622303009,
                    0.47045955061912537,
                    0.09826183319091797,
                    -0.2396233081817627,
                    -0.4670253098011017,
                    -0.10942786186933517,
                    0.2720840871334076,
                    0.10093215107917786,
                    0.021803567185997963,
                    0.4780498743057251,
                    0.09959235787391663,
                    -0.028183745220303535,
                    0.0011821311200037599,
                    0.3373991847038269,
                    0.03193799406290054,
                    0.10021532326936722,
                    0.2023191601037979,
                    -0.3486574590206146,
                    0.3405337929725647,
                    0.34990936517715454,
                    0.42488938570022583,
                    -0.16348430514335632,
                    -0.1820027083158493,
                    -0.1847911775112152,
                    -0.09308194369077682,
                    -0.04633320868015289,
                    0.2672303020954132,
                    0.007247594650834799,
                    -0.07435701787471771,
                    -0.06199958920478821,
                    0.06836085021495819,
                    0.05261664092540741
                ],
                [
                    0.03670540452003479,
                    0.04393666237592697,
                    0.04165913909673691,
                    -0.019897861406207085,
                    0.16053242981433868,
                    -0.2646215856075287,
                    0.24356777966022491,
                    0.14540879428386688,
                    -0.08283925801515579,
                    -0.38140350580215454,
                    -0.26438963413238525,
                    -0.5075467228889465,
                    -0.018371963873505592,
                    -0.2866952121257782,
                    -0.6483966112136841,
                    0.21088825166225433,
                    0.2090427726507187,
                    0.13756026327610016,
                    -0.07186746597290039,
                    -0.11780393123626709,
                    0.18755030632019043,
                    -0.6632618308067322,
                    -0.47132229804992676,
                    -0.04764367267489433,
                    -0.45858222246170044,
                    0.0027859550900757313,
                    0.181368887424469,
                    0.00490183662623167,
                    -0.07982414960861206,
                    0.1470624804496765,
                    -0.37636369466781616,
                    0.011455263011157513
                ],
                [
                    -0.0368676595389843,
                    -0.3985932767391205,
                    0.289960116147995,
                    0.03140232712030411,
                    0.18119439482688904,
                    -0.1987072080373764,
                    -0.25777238607406616,
                    0.10109567642211914,
                    -0.023252397775650024,
                    0.19195657968521118,
                    -0.35195061564445496,
                    0.2849806547164917,
                    0.09456533938646317,
                    0.2949831783771515,
                    -0.03874427080154419,
                    0.09802486002445221,
                    -0.13590633869171143,
                    0.09477411955595016,
                    -0.12320425361394882,
                    0.1350303441286087,
                    -0.023269901052117348,
                    -0.24613721668720245,
                    -0.31215593218803406,
                    0.008756246417760849,
                    0.302823930978775,
                    -0.13729894161224365,
                    -0.1959543079137802,
                    -0.1397983431816101,
                    0.3484811782836914,
                    0.05901094526052475,
                    0.24170371890068054,
                    0.10289128124713898
                ],
                [
                    0.6235232353210449,
                    -0.38075825572013855,
                    -0.30486735701560974,
                    -0.03874772787094116,
                    -0.19080381095409393,
                    0.2265363335609436,
                    0.12973569333553314,
                    0.35824719071388245,
                    -0.060493990778923035,
                    0.17279052734375,
                    0.23138736188411713,
                    0.3150974214076996,
                    -0.0836196020245552,
                    0.08772265166044235,
                    0.2565114200115204,
                    0.19235476851463318,
                    -0.0787748396396637,
                    -0.16041460633277893,
                    -0.29964444041252136,
                    -0.2539578378200531,
                    -0.23290061950683594,
                    -0.3479353189468384,
                    -0.1484101265668869,
                    -0.1275399774312973,
                    -0.06672454625368118,
                    -0.0940723642706871,
                    0.26369020342826843,
                    0.34074997901916504,
                    0.24299369752407074,
                    -0.09062348306179047,
                    0.18483154475688934,
                    0.07658591866493225
                ],
                [
                    -0.3674883544445038,
                    -0.0002974815433844924,
                    -0.026996413245797157,
                    0.14914660155773163,
                    0.11991245299577713,
                    -0.1565389186143875,
                    -0.1363518238067627,
                    0.26954546570777893,
                    0.27380698919296265,
                    -0.1251949816942215,
                    -1.009623408317566,
                    0.15149880945682526,
                    -0.05920540541410446,
                    -0.37755531072616577,
                    -0.7354891896247864,
                    -0.009737890213727951,
                    0.006708536297082901,
                    -0.09440852701663971,
                    -0.2811683416366577,
                    -0.09430164098739624,
                    -0.019893690943717957,
                    -0.2958521246910095,
                    -0.11360140144824982,
                    -0.03420962765812874,
                    0.2476716786623001,
                    -0.22315894067287445,
                    0.19825458526611328,
                    0.27041125297546387,
                    -0.16236715018749237,
                    0.04938735067844391,
                    0.1559275984764099,
                    0.045422960072755814
                ],
                [
                    -0.49904823303222656,
                    0.4892832934856415,
                    -0.7261865139007568,
                    -0.11405140161514282,
                    0.0250400397926569,
                    0.09508573263883591,
                    0.28599661588668823,
                    -0.003479862120002508,
                    -0.5595192909240723,
                    0.09069614857435226,
                    0.043955087661743164,
                    -0.311397910118103,
                    -0.1328478455543518,
                    -0.3028482496738434,
                    -0.008542550727725029,
                    -0.4835844039916992,
                    -0.11874876171350479,
                    0.06416807323694229,
                    0.25728681683540344,
                    -0.5018746852874756,
                    0.03504432737827301,
                    -0.29605188965797424,
                    -0.2893999218940735,
                    -0.08656633645296097,
                    0.23047283291816711,
                    -0.15317367017269135,
                    0.1061660423874855,
                    -0.4648410677909851,
                    -0.17696934938430786,
                    -0.6533539891242981,
                    -0.09151189774274826,
                    -0.014705443754792213
                ],
                [
                    -0.6474922299385071,
                    -0.04029376804828644,
                    0.07348161190748215,
                    0.40879926085472107,
                    -0.049782007932662964,
                    0.13363134860992432,
                    -0.08129962533712387,
                    0.12316854298114777,
                    -0.04266553372144699,
                    -0.2870956361293793,
                    -0.6123767495155334,
                    -0.021820003166794777,
                    0.1027219220995903,
                    -0.2886088192462921,
                    -0.5403845310211182,
                    -0.10047471523284912,
                    0.04367413371801376,
                    -0.6286540627479553,
                    -0.1694173961877823,
                    0.25908416509628296,
                    -0.028315335512161255,
                    -0.28246280550956726,
                    -0.8781410455703735,
                    -0.05297737568616867,
                    0.4447467625141144,
                    0.2852916121482849,
                    0.004796429071575403,
                    0.26952147483825684,
                    -0.4590572118759155,
                    -0.0788070410490036,
                    0.2797265648841858,
                    -0.011930556036531925
                ],
                [
                    -0.06276153028011322,
                    -0.3719583749771118,
                    0.04368786886334419,
                    0.3939965069293976,
                    0.2575494050979614,
                    -0.3525393605232239,
                    0.027197953313589096,
                    0.226080983877182,
                    0.06434009224176407,
                    0.05738081783056259,
                    -0.3394821882247925,
                    0.026670146733522415,
                    0.33894580602645874,
                    0.06380072981119156,
                    -0.23576350510120392,
                    -0.1362210363149643,
                    0.23297573626041412,
                    0.10678551346063614,
                    -0.30192527174949646,
                    -0.06869726628065109,
                    0.13305315375328064,
                    0.027779195457696915,
                    -0.22014114260673523,
                    0.08852602541446686,
                    -0.028141384944319725,
                    0.03975144028663635,
                    0.10989593714475632,
                    0.1666591465473175,
                    0.07241245359182358,
                    0.28506943583488464,
                    0.24528329074382782,
                    -0.15172767639160156
                ],
                [
                    -0.0796455517411232,
                    0.05726535990834236,
                    -0.297613263130188,
                    0.09900881350040436,
                    -0.4165257513523102,
                    0.07376248389482498,
                    -0.6088002324104309,
                    -0.3252770006656647,
                    -0.0034685074351727962,
                    -0.16349798440933228,
                    0.14970706403255463,
                    -0.10757748782634735,
                    -0.3068791627883911,
                    0.27058959007263184,
                    0.1700054109096527,
                    -0.26775360107421875,
                    -0.10415435582399368,
                    0.004822480957955122,
                    0.17477641999721527,
                    0.28186196088790894,
                    -0.15986350178718567,
                    0.08569422364234924,
                    -0.16133934259414673,
                    0.1773219257593155,
                    0.08956772834062576,
                    0.22302007675170898,
                    -0.1907917708158493,
                    -0.40189656615257263,
                    0.11522606015205383,
                    -1.204294204711914,
                    -0.30857378244400024,
                    0.33631810545921326
                ],
                [
                    0.08154673874378204,
                    0.08970699459314346,
                    0.38214024901390076,
                    -0.11543624103069305,
                    -0.3828067183494568,
                    0.41829589009284973,
                    -0.37746354937553406,
                    -0.07315776497125626,
                    0.13099415600299835,
                    -0.09046697616577148,
                    -0.018142685294151306,
                    -0.3810938000679016,
                    -0.03601952642202377,
                    -0.15990802645683289,
                    -0.6577073931694031,
                    -0.0027032766956835985,
                    -0.2735382914543152,
                    -0.32034239172935486,
                    -0.15467780828475952,
                    -0.0786881297826767,
                    -0.2735327184200287,
                    -0.09623103588819504,
                    -0.055474165827035904,
                    0.07509472966194153,
                    0.14865458011627197,
                    -0.11902199685573578,
                    -0.3576022684574127,
                    -0.18823757767677307,
                    0.10429437458515167,
                    -0.09888138622045517,
                    0.05469955503940582,
                    -0.00031073123682290316
                ],
                [
                    0.06719367206096649,
                    0.5043339133262634,
                    0.13452373445034027,
                    -0.44423115253448486,
                    -0.170200377702713,
                    0.19071856141090393,
                    -0.010296573862433434,
                    0.033346518874168396,
                    -0.11102405935525894,
                    0.01671210303902626,
                    0.2928905785083771,
                    -0.2961210310459137,
                    -0.12090252339839935,
                    0.24612613022327423,
                    -0.4414665400981903,
                    0.011564215645194054,
                    -0.11026795953512192,
                    -0.05590980499982834,
                    0.342261403799057,
                    0.06729254126548767,
                    0.10170980542898178,
                    -0.2949178218841553,
                    0.26891666650772095,
                    0.00928051583468914,
                    -0.11209800839424133,
                    -0.30391809344291687,
                    -0.02519838698208332,
                    -0.39206463098526,
                    0.040158841758966446,
                    0.07128185033798218,
                    -0.28048455715179443,
                    0.0784246101975441
                ],
                [
                    -0.23775134980678558,
                    -0.18740685284137726,
                    -0.03490961715579033,
                    -0.2768174111843109,
                    -0.11398819833993912,
                    -0.19526344537734985,
                    0.2525154948234558,
                    0.061952657997608185,
                    -0.14131659269332886,
                    -0.15325991809368134,
                    0.052177730947732925,
                    0.052134398370981216,
                    0.018053872510790825,
                    -0.14965951442718506,
                    -0.21696242690086365,
                    0.10461033135652542,
                    -0.19416511058807373,
                    0.1964525282382965,
                    0.13939663767814636,
                    -0.3256537914276123,
                    0.06034586578607559,
                    -0.15510159730911255,
                    -0.06724602729082108,
                    0.09774282574653625,
                    -0.18485167622566223,
                    -0.17309093475341797,
                    0.01461048424243927,
                    0.09566769748926163,
                    -0.1201711893081665,
                    -0.1983841508626938,
                    -0.047070473432540894,
                    -0.1745842546224594
                ],
                [
                    -0.4577336311340332,
                    0.18810531497001648,
                    0.2613666355609894,
                    0.33880358934402466,
                    -0.7204737663269043,
                    -1.1512798070907593,
                    -0.3260393440723419,
                    -0.14269746840000153,
                    -0.17298784852027893,
                    -0.6715925931930542,
                    -0.947486937046051,
                    -0.4840027391910553,
                    -0.18955004215240479,
                    -0.5329408049583435,
                    -0.2697320580482483,
                    0.010198348201811314,
                    -0.21295331418514252,
                    -0.5759620070457458,
                    -0.25341206789016724,
                    -0.13400089740753174,
                    -0.2511786222457886,
                    -0.5676282048225403,
                    -1.0045316219329834,
                    -0.1035999283194542,
                    0.3695898652076721,
                    0.13730749487876892,
                    0.42342203855514526,
                    0.1294066607952118,
                    -0.06839869171380997,
                    -0.21342036128044128,
                    0.08922974765300751,
                    0.10964206606149673
                ],
                [
                    0.02763839066028595,
                    -0.1919625848531723,
                    0.04024519771337509,
                    0.2660271227359772,
                    0.22747516632080078,
                    -0.5518966317176819,
                    -0.45342540740966797,
                    0.24550381302833557,
                    0.14610159397125244,
                    -0.25264713168144226,
                    -0.3062136471271515,
                    0.058975789695978165,
                    0.004122624173760414,
                    0.0054819476790726185,
                    -0.4822554886341095,
                    -0.27104684710502625,
                    0.2148132026195526,
                    -0.3064858317375183,
                    -0.05334906652569771,
                    0.33230283856391907,
                    0.0917525589466095,
                    -0.1861666589975357,
                    -0.13357818126678467,
                    0.3494020998477936,
                    0.2734076678752899,
                    0.19376853108406067,
                    -0.35274502635002136,
                    0.22634093463420868,
                    0.019428405910730362,
                    0.005394225008785725,
                    -0.045622870326042175,
                    0.12639135122299194
                ]
            ],
            [
                [
                    0.5089455246925354,
                    0.0015091144014149904,
                    -0.40593037009239197,
                    0.0617118738591671,
                    0.28578320145606995,
                    0.14215125143527985,
                    -0.35988950729370117,
                    -0.12375537306070328,
                    -0.40332528948783875,
                    -0.5416610240936279,
                    -0.12106642127037048,
                    0.5313634872436523,
                    -0.17662547528743744,
                    -0.8190940618515015,
                    0.025466695427894592,
                    -0.060370758175849915,
                    -0.23946309089660645,
                    0.18501704931259155,
                    -0.20235462486743927,
                    0.3911473751068115,
                    0.03815673664212227,
                    0.18526124954223633,
                    -0.48146387934684753,
                    -0.044951360672712326,
                    0.2608867883682251,
                    0.17234347760677338,
                    -0.36430594325065613,
                    -0.14015501737594604,
                    -0.4333689510822296,
                    -0.16695818305015564,
                    -0.020658044144511223,
                    0.2501239478588104
                ],
                [
                    0.23950417339801788,
                    -0.5290979146957397,
                    -0.9843794107437134,
                    -0.3861088454723358,
                    -0.18485435843467712,
                    -0.1690130978822708,
                    0.44622802734375,
                    -0.29040154814720154,
                    0.006224311888217926,
                    0.15267536044120789,
                    0.3116403818130493,
                    -0.3121033012866974,
                    -0.41807177662849426,
                    -0.14362196624279022,
                    -0.031662795692682266,
                    0.30962038040161133,
                    0.13067598640918732,
                    0.26340189576148987,
                    0.6684610247612,
                    -0.005203436128795147,
                    0.48670342564582825,
                    -0.2630147933959961,
                    0.1420903205871582,
                    0.4622185528278351,
                    0.05208107829093933,
                    -0.13991354405879974,
                    0.012847883626818657,
                    -0.5120923519134521,
                    0.18979638814926147,
                    -0.4846787750720978,
                    0.11435741186141968,
                    -0.11521631479263306
                ],
                [
                    0.664361834526062,
                    -0.3712941110134125,
                    0.09600996971130371,
                    -0.3346883952617645,
                    -0.06653940677642822,
                    -0.1200748011469841,
                    0.18911537528038025,
                    0.6356064677238464,
                    -0.0423908457159996,
                    0.6697816252708435,
                    0.2398981750011444,
                    -0.18220795691013336,
                    0.16660822927951813,
                    0.20457608997821808,
                    -0.19480454921722412,
                    0.14385809004306793,
                    -0.060760337859392166,
                    0.1540324091911316,
                    0.26389172673225403,
                    -0.1093200296163559,
                    0.2619496285915375,
                    -0.1591879278421402,
                    -0.03990716487169266,
                    0.26371851563453674,
                    -0.05640948936343193,
                    -0.37221774458885193,
                    0.08191251754760742,
                    0.010365528054535389,
                    0.06909667700529099,
                    -0.03916364535689354,
                    0.22991032898426056,
                    0.024660471826791763
                ],
                [
                    0.0841231420636177,
                    -0.20975083112716675,
                    -0.009680325165390968,
                    -0.35255157947540283,
                    -0.19625528156757355,
                    -0.09081891924142838,
                    0.10731125622987747,
                    0.17216958105564117,
                    -0.05890773609280586,
                    0.17966662347316742,
                    -0.49689602851867676,
                    -0.06939280778169632,
                    0.01892063394188881,
                    -0.0849231481552124,
                    -0.10262792557477951,
                    0.26936113834381104,
                    -0.1527608036994934,
                    -0.5042691230773926,
                    0.08458966016769409,
                    -0.26905757188796997,
                    0.36146560311317444,
                    -0.4116760194301605,
                    0.11085349321365356,
                    0.38114842772483826,
                    -0.6260430812835693,
                    0.05402647331357002,
                    0.33971288800239563,
                    0.18740834295749664,
                    -0.1809508502483368,
                    0.26034384965896606,
                    -0.13397520780563354,
                    -0.19567261636257172
                ],
                [
                    -0.5675324201583862,
                    0.01909082569181919,
                    -0.3379829227924347,
                    0.28598299622535706,
                    0.32474449276924133,
                    -0.17303119599819183,
                    -0.7130587100982666,
                    0.18596471846103668,
                    -0.11078332364559174,
                    -0.21344861388206482,
                    -0.042190004140138626,
                    -0.08306167274713516,
                    -0.2253357470035553,
                    0.189619779586792,
                    0.1720648854970932,
                    0.26784592866897583,
                    0.2884030044078827,
                    0.061072446405887604,
                    0.20395131409168243,
                    0.0279478058218956,
                    0.2893068194389343,
                    0.15144489705562592,
                    -0.5127322673797607,
                    -0.12925875186920166,
                    -0.2675008177757263,
                    0.12526793777942657,
                    -0.06874477863311768,
                    0.019432757049798965,
                    -0.15540626645088196,
                    0.027767762541770935,
                    0.06797569990158081,
                    0.10912690311670303
                ],
                [
                    0.5666658878326416,
                    -0.02061929553747177,
                    -0.36146441102027893,
                    -0.034675247967243195,
                    0.17886227369308472,
                    -0.15625225007534027,
                    -0.5259541273117065,
                    0.4336918592453003,
                    0.13772054016590118,
                    0.2535232901573181,
                    -0.07423772662878036,
                    0.3634416460990906,
                    -0.06096900627017021,
                    0.40434983372688293,
                    -0.08624044805765152,
                    0.07047991454601288,
                    -0.10150372236967087,
                    0.08293020725250244,
                    -0.039183057844638824,
                    -0.1773386299610138,
                    0.062117721885442734,
                    0.14772866666316986,
                    0.10436161607503891,
                    -0.2651452422142029,
                    -0.2881503105163574,
                    -0.09818258881568909,
                    0.012315327301621437,
                    -0.679481565952301,
                    0.16809217631816864,
                    0.018639422953128815,
                    -0.08499369025230408,
                    0.27875685691833496
                ],
                [
                    -0.28020668029785156,
                    0.07210688292980194,
                    -0.16189472377300262,
                    -0.22499077022075653,
                    0.455003947019577,
                    -0.8470694422721863,
                    -0.3692932724952698,
                    0.010795346461236477,
                    -0.011486068367958069,
                    -0.004515878856182098,
                    -0.7880697846412659,
                    0.10190986096858978,
                    -0.105643130838871,
                    -0.08706080913543701,
                    -0.6920800805091858,
                    -0.2442149966955185,
                    -0.006987764500081539,
                    -0.2451970875263214,
                    -0.39248478412628174,
                    -0.18030858039855957,
                    0.07282932102680206,
                    -0.01342404168099165,
                    0.06735106557607651,
                    -0.13411599397659302,
                    -0.2714484632015228,
                    -0.006578484084457159,
                    0.1318850964307785,
                    0.24906828999519348,
                    -0.11352860927581787,
                    0.1414298266172409,
                    0.1851739138364792,
                    0.10738670080900192
                ],
                [
                    0.1299525946378708,
                    0.6345944404602051,
                    -0.07905714213848114,
                    -0.3949405252933502,
                    -0.2806919813156128,
                    0.4885672628879547,
                    0.2857815623283386,
                    -0.15188691020011902,
                    -0.25011399388313293,
                    0.13874192535877228,
                    0.0625496432185173,
                    -0.7521795034408569,
                    0.040830716490745544,
                    -0.4544631540775299,
                    -0.17156116664409637,
                    -0.2981696128845215,
                    -0.5932967066764832,
                    0.052441325038671494,
                    0.16178825497627258,
                    0.18865080177783966,
                    -0.10256408900022507,
                    -0.48088106513023376,
                    -0.9948433041572571,
                    -0.17339451611042023,
                    -0.3502974212169647,
                    0.3700091540813446,
                    0.27695462107658386,
                    -0.25113004446029663,
                    -0.4121270477771759,
                    -0.826396644115448,
                    -0.5990235805511475,
                    0.4041878879070282
                ],
                [
                    -0.38555464148521423,
                    -0.10706271976232529,
                    -0.024086862802505493,
                    0.07449241727590561,
                    -0.1465657353401184,
                    -0.6468510031700134,
                    -0.16652444005012512,
                    -0.38183388113975525,
                    -0.04447852447628975,
                    -0.2720407545566559,
                    -0.4582541286945343,
                    -0.663820207118988,
                    -0.08111719787120819,
                    -0.5859858989715576,
                    -0.12558285892009735,
                    -0.16661636531352997,
                    0.06433926522731781,
                    -0.109262615442276,
                    -0.16788318753242493,
                    0.008433409035205841,
                    0.05549333244562149,
                    0.21176515519618988,
                    -0.5626857280731201,
                    0.1306827813386917,
                    -0.185515359044075,
                    0.024857426062226295,
                    0.1891353577375412,
