{
    "biases":[
        0.44257980585098267,
        0.7715746164321899,
        0.06027411296963692,
        -0.04234137386083603,
        -0.3667568266391754,
        -0.17116683721542358,
        -0.4961020350456238,
        0.09522777795791626,
        -0.05281035602092743,
        -0.10534358024597168
    ],
    "weights":[
        [
            -0.4244411885738373,
            0.3542008101940155,
            0.10207340121269226,
            -0.14786046743392944,
            0.2690335810184479,
            -0.35169079899787903,
            -0.4190472960472107,
            -0.4795090854167938,
            -0.22620829939842224,
            -0.4286620020866394
        ],
        [
            0.1521134376525879,
            0.48538699746131897,
            -0.23588578402996063,
            -0.7568687796592712,
            -0.4782945215702057,
            0.014236459508538246,
            -0.3991588056087494,
            -0.199316143989563,
            -0.5456615686416626,
            -0.5013220310211182
        ],
        [
            -0.586978018283844,
            0.262174129486084,
            -0.18093030154705048,
            0.24008561670780182,
            -0.35641056299209595,
            -0.22604157030582428,
            0.07100857049226761,
            0.34340786933898926,
            0.15339742600917816,
            -0.4329471290111542
        ],
        [
            0.09170971065759659,
            0.17313535511493683,
            -0.43940362334251404,
            -0.5483962893486023,
            0.21980997920036316,
            -0.12771117687225342,
            0.24017803370952606,
            -0.42108237743377686,
            0.20001313090324402,
            0.18139640986919403
        ],
        [
            0.2101871520280838,
            -0.46493884921073914,
            0.18431778252124786,
            -0.07312338054180145,
            -0.6342753171920776,
            -0.11581000685691833,
            -0.3987659513950348,
            0.08893526345491409,
            0.10420503467321396,
            -0.7489139437675476
        ],
        [
            -0.07232218235731125,
            -0.495314359664917,
            -0.3759794235229492,
            0.21838949620723724,
            -0.3294309973716736,
            0.23480096459388733,
            -0.42670440673828125,
            0.2224290817975998,
            0.15248210728168488,
            -0.14529088139533997
        ],
        [
            -0.4047021269798279,
            -0.3425416946411133,
            -0.2694748044013977,
            -0.3013586699962616,
            0.1644268035888672,
            0.19584810733795166,
            0.19901840388774872,
            -0.49562332034111023,
            -0.24544039368629456,
            0.15929624438285828
        ],
        [
            0.08588651567697525,
            0.16133280098438263,
            -0.4674256443977356,
            -0.6297729015350342,
            0.10987262427806854,
            -0.40554866194725037,
            0.11812126636505127,
            -0.6297335624694824,
            -0.349814236164093,
            0.08204064518213272
        ],
        [
            -0.2831471860408783,
            -0.2055668979883194,
            -0.0350797101855278,
            -0.5036877393722534,
            0.26190057396888733,
            -0.47618940472602844,
            -0.4145151674747467,
            0.21021582186222076,
            -0.02938206121325493,
            -0.28319329023361206
        ],
        [
            0.06283004581928253,
            -0.003879033960402012,
            0.1357506811618805,
            0.016561027616262436,
            -0.3643592894077301,
            -0.36642247438430786,
            0.15204130113124847,
            -0.430321604013443,
            -0.31371477246284485,
            -0.36919263005256653
        ],
        [
            -0.4961482286453247,
            0.2611675262451172,
            -0.22541916370391846,
            0.24131165444850922,
            0.09910614788532257,
            -0.20099298655986786,
            -0.20803099870681763,
            0.2393444925546646,
            -0.5541306734085083,
            -0.3714234530925751
        ],
        [
            0.09334135055541992,
            -0.7907028794288635,
            0.2163633555173874,
            0.13127750158309937,
            -0.22283098101615906,
            0.1815483421087265,
            -0.3807922601699829,
            -0.15384896099567413,
            0.1431809812784195,
            0.17990832030773163
        ],
        [
            -0.3141465485095978,
            0.13395902514457703,
            -0.5342024564743042,
            0.1293662041425705,
            -0.18612004816532135,
            0.20576801896095276,
            -0.4501331150531769,
            -0.41655033826828003,
            0.02961457520723343,
            0.13272923231124878
        ],
        [
            0.2057046741247177,
            -0.6006374955177307,
            -0.3786775767803192,
            0.20680773258209229,
            -0.6476150751113892,
            0.17029798030853271,
            0.1945178359746933,
            0.1814551204442978,
            -0.2058153599500656,
            -0.2773580551147461
        ],
        [
            -0.018657777458429337,
            -0.2595547139644623,
            0.16434361040592194,
            -0.14878401160240173,
            -0.17372654378414154,
            -0.15091612935066223,
            -0.5744268894195557,
            0.24671082198619843,
            0.22544904053211212,
            -0.3699813187122345
        ],
        [
            -0.26570531725883484,
            0.23648332059383392,
            -0.29462531208992004,
            -0.5953982472419739,
            -0.04154914617538452,
            0.03950938209891319,
            -0.6084065437316895,
            0.26155462861061096,
            -0.48088884353637695,
            0.22571934759616852
        ],
        [
            0.2461136281490326,
            -0.19488729536533356,
            -0.2847805321216583,
            -0.29004019498825073,
            -0.3463011085987091,
            -0.25635045766830444,
            0.1902133822441101,
            -0.4095831513404846,
            0.2130158394575119,
            -0.570374071598053
        ],
        [
            -0.4601778984069824,
            0.005285720806568861,
            0.17600123584270477,
            -0.19050642848014832,
            0.19047453999519348,
            0.22418025135993958,
            -0.37464097142219543,
            -0.3696109652519226,
            -0.1851641684770584,
            -0.41087937355041504
        ],
        [
            -0.21671272814273834,
            -0.6288077235221863,
            -0.38211265206336975,
            0.22196561098098755,
            -0.265306681394577,
            0.1788153350353241,
            0.1544686257839203,
            -0.4600452184677124,
            0.18060114979743958,
            0.1609722077846527
        ],
        [
            -0.4090045690536499,
            0.11154007166624069,
            -0.5395393967628479,
            -0.30161818861961365,
            0.10813736915588379,
            0.06082156300544739,
            0.1953652948141098,
            -0.519175112247467,
            0.12999960780143738,
            0.07580296695232391
        ],
        [
            -0.6839969158172607,
            0.09602987766265869,
            -0.2974168360233307,
            -0.6789233088493347,
            0.18712034821510315,
            -0.6154317259788513,
            -0.5293905138969421,
            0.14953497052192688,
            -0.4423092305660248,
            0.13052883744239807
        ],
        [
            -0.43715015053749084,
            -0.1867150366306305,
            -0.3616798520088196,
            -0.26013416051864624,
            -0.16862966120243073,
            -0.32081395387649536,
            -1.0750404596328735,
            0.3025507926940918,
            -0.2799440920352936,
            0.2876565754413605
        ],
        [
            -0.519851803779602,
            -0.3883558511734009,
            0.20401114225387573,
            0.12975285947322845,
            -0.3073534071445465,
            -0.1816750019788742,
            0.027923624962568283,
            0.057399261742830276,
            0.15666893124580383,
            -0.39590194821357727
        ],
        [
            0.0691247433423996,
            -0.44555047154426575,
            -0.41583874821662903,
            -0.388712078332901,
            0.01675962656736374,
            0.17529095709323883,
            0.22365127503871918,
            0.08199067413806915,
            0.20214228332042694,
            -0.1934686005115509
        ],
        [
            -0.7610140442848206,
            -0.1684325486421585,
            0.11368414759635925,
            0.22089329361915588,
            -0.528862714767456,
            0.02356117032468319,
            -0.4908778667449951,
            0.19124852120876312,
            -0.4284385144710541,
            -0.42025721073150635
        ],
        [
            0.16868211328983307,
            -0.3833189606666565,
            0.13569431006908417,
            0.14637455344200134,
            -0.2569582164287567,
            -0.40351301431655884,
            -0.45851704478263855,
            0.17497770488262177,
            0.15090881288051605,
            0.1321822851896286
        ],
        [
            0.19990791380405426,
            -0.22864362597465515,
            0.13764438033103943,
            -0.3240232467651367,
            -0.39474430680274963,
            -0.07401740550994873,
            -0.470962792634964,
            -0.3300844132900238,
            0.1186995655298233,
            0.09696829319000244
        ],
        [
            -0.03804798051714897,
            -0.17177391052246094,
            -0.4384368062019348,
            -0.4185926020145416,
            0.2971082627773285,
            0.23598742485046387,
            0.14557312428951263,
            -0.7006242871284485,
            -0.4006116986274719,
            -0.222392275929451
        ],
        [
            0.2908344864845276,
            -0.5276711583137512,
            -0.2344142645597458,
            0.32803282141685486,
            -0.5363886952400208,
            -0.22472044825553894,
            0.14826235175132751,
            -0.4174768626689911,
            -0.09556382149457932,
            -0.3298603892326355
        ],
        [
            0.10922234505414963,
            -0.7655455470085144,
            -0.400344580411911,
            0.052005790174007416,
            -0.4045301675796509,
            0.09964066743850708,
            0.09898658841848373,
            -0.3673385679721832,
            0.11848138272762299,
            0.15214204788208008
        ],
        [
            -0.5466841459274292,
            -0.19172731041908264,
            -0.06103399023413658,
            0.17670980095863342,
            -0.602400004863739,
            0.09368010610342026,
            -0.5760937333106995,
            0.12867750227451324,
            -0.1481572985649109,
            0.1707085371017456
        ],
        [
            -0.6089236736297607,
            -0.10936123877763748,
            0.24196727573871613,
            0.2809738218784332,
            -0.4097077548503876,
            0.21987204253673553,
            -0.19581161439418793,
            -0.6069650053977966,
            0.24221976101398468,
            -0.2524024546146393
        ],
        [
            -0.034355975687503815,
            0.1753026843070984,
            -0.45503079891204834,
            -0.3596773147583008,
            0.18268445134162903,
            0.20273296535015106,
            -0.41330593824386597,
            0.1908424198627472,
            -0.37531399726867676,
            0.16862641274929047
        ],
        [
            0.19873882830142975,
            0.25186946988105774,
            -0.527101993560791,
            -0.28286638855934143,
            -0.3298116624355316,
            0.21029514074325562,
            0.267305850982666,
            -0.31049343943595886,
            -0.3874463737010956,
            -0.31612613797187805
        ],
        [
            0.008986994624137878,
            0.24043045938014984,
            0.19019249081611633,
            0.22420476377010345,
            -0.2807001769542694,
            -0.2902395725250244,
            -0.5516424775123596,
            0.1866346150636673,
            -0.4171564280986786,
            -0.34008580446243286
        ],
        [
            -0.4967845380306244,
            0.23732373118400574,
            0.1975230872631073,
            0.18517574667930603,
            -0.26617148518562317,
            0.04913923144340515,
            0.20469848811626434,
            -0.1603538990020752,
            -0.20215573906898499,
            -0.8567003607749939
        ],
        [
            0.2139849066734314,
            -0.8445091247558594,
            -0.4837728440761566,
            0.02877359837293625,
            -0.08654485642910004,
            -0.4487262964248657,
            0.22542306780815125,
            -0.6832292675971985,
            0.06898821145296097,
            0.19894996285438538
        ],
        [
            -0.1431216150522232,
            -0.07477255165576935,
            -0.2520487606525421,
            0.23016290366649628,
            -0.45953643321990967,
            0.19023258984088898,
            -0.26696521043777466,
            0.24902160465717316,
            -0.5804927945137024,
            -0.4249272048473358
        ],
        [
            0.16780176758766174,
            -0.4248793125152588,
            0.17773403227329254,
            0.10991942882537842,
            -0.3036671280860901,
            -0.20539647340774536,
            -0.29880475997924805,
            -0.29397135972976685,
            0.12485736608505249,
            -0.34122830629348755
        ],
        [
            0.10626562684774399,
            0.135229229927063,
            -0.602798581123352,
            -0.17104090750217438,
            -0.5063887238502502,
            0.13587985932826996,
            0.19334687292575836,
            -0.4920595586299896,
            0.171696275472641,
            -0.49584344029426575
        ],
        [
            -0.1681177318096161,
            0.16291816532611847,
            -0.2976672947406769,
            -0.187816321849823,
            -0.23940537869930267,
            -0.16178010404109955,
            -0.5483468174934387,
            0.258266806602478,
            -0.41713663935661316,
            0.22442451119422913
        ],
        [
            -0.5899577140808105,
            -0.5108548402786255,
            0.11478876322507858,
            0.07937724143266678,
            -0.5488563776016235,
            -0.5681992173194885,
            -0.45150575041770935,
            -0.15077240765094757,
            0.10340649634599686,
            0.12089961767196655
        ],
        [
            -0.4866911470890045,
            0.10438840091228485,
            -0.3502366244792938,
            -0.041952524334192276,
            0.13969947397708893,
            -0.266189306974411,
            -0.6186720728874207,
            0.15605823695659637,
            0.16015808284282684,
            0.1741800606250763
        ],
        [
            0.21981491148471832,
            0.2615567743778229,
            -0.30207449197769165,
            -0.46959757804870605,
            0.23804409801959991,
            -0.3448909819126129,
            -0.23675289750099182,
            -0.4777477979660034,
            0.20929518342018127,
            -0.4811338782310486
        ],
        [
            0.13345564901828766,
            -0.5729976296424866,
            -0.0663594976067543,
            -0.21599191427230835,
            0.13702702522277832,
            0.11519140750169754,
            0.11147703230381012,
            -0.4687032401561737,
            -0.3970240652561188,
            0.1284991204738617
        ],
        [
            -0.5181341171264648,
            -0.41986507177352905,
            -0.48608195781707764,
            0.25644317269325256,
            -0.44963422417640686,
            0.29577162861824036,
            -0.4320865869522095,
            -0.3184903860092163,
            -0.2893266975879669,
            -0.17600099742412567
        ],
        [
            -0.7189949154853821,
            -0.4952174127101898,
            -0.610308825969696,
            -0.31391236186027527,
            0.09837067127227783,
            -0.619384229183197,
            -0.47704556584358215,
            0.14880965650081635,
            -0.3085296154022217,
            0.03353597968816757
        ],
        [
            -0.33196064829826355,
            -0.24055317044258118,
            0.2031203955411911,
            -0.462868869304657,
            0.2042159140110016,
            -0.32064342498779297,
            0.18514879047870636,
            -0.04215296730399132,
            -0.030920306220650673,
            -0.3928850591182709
        ],
        [
            -0.046148259192705154,
            0.13142599165439606,
            0.08816111087799072,
            0.04976636916399002,
            0.19222800433635712,
            -0.1596030592918396,
            -0.022630363702774048,
            -0.3859423100948334,
            0.1595371514558792,
            -0.5000415444374084
        ],
        [
            -0.050259314477443695,
            0.1130492091178894,
            0.09184630215167999,
            0.08714423328638077,
            0.105931855738163,
            -0.5246755480766296,
            -0.23485645651817322,
            0.09944838285446167,
            -0.4632911682128906,
            -0.4672941565513611
        ],
        [
            -0.5541004538536072,
            0.16352219879627228,
            0.17737427353858948,
            -0.020718516781926155,
            0.17262153327465057,
            -0.44352835416793823,
            -0.4888146221637726,
            0.14262767136096954,
            -0.40363946557044983,
            0.17555247247219086
        ],
        [
            -0.3428380489349365,
            0.2030995488166809,
            0.1353059560060501,
            -0.3408685624599457,
            0.10447753965854645,
            0.17859041690826416,
            0.20297780632972717,
            -0.2890872061252594,
            0.19156238436698914,
            -0.36246249079704285
        ],
        [
            -0.5561083555221558,
            0.16314302384853363,
            -0.29875093698501587,
            0.1385909467935562,
            0.050181902945041656,
            0.1765376627445221,
            -0.6904256343841553,
            0.16962623596191406,
            -0.6185263991355896,
            0.13883522152900696
        ],
        [
            -0.16132475435733795,
            -1.010961651802063,
            -0.5142834782600403,
            -0.27350330352783203,
            -0.243326336145401,
            0.4279932379722595,
            -0.39915889501571655,
            0.03322442248463631,
            -0.4061139225959778,
            0.11595670878887177
        ],
        [
            -0.4917660355567932,
            0.16511467099189758,
            -0.10123195499181747,
            0.14554709196090698,
            0.13512971997261047,
            0.2090623676776886,
            -0.4909510612487793,
            -0.44503360986709595,
            -0.3223118185997009,
            0.15311762690544128
        ],
        [
            0.15809950232505798,
            0.19079244136810303,
            0.2505236268043518,
            0.2730070948600769,
            -0.3293313682079315,
            -0.13288526237010956,
            -0.1871914267539978,
            -0.34990760684013367,
            -0.2824738621711731,
            -0.29033201932907104
        ],
        [
            -0.5914932489395142,
            0.20525936782360077,
            -0.32262933254241943,
            -0.31140953302383423,
            -0.6462506055831909,
            -0.3981016278266907,
            0.16511602699756622,
            0.26009392738342285,
            0.1498251110315323,
            -0.2124904990196228
        ],
        [
            -0.5571584105491638,
            0.10637012869119644,
            0.07194158434867859,
            0.19794487953186035,
            -0.3846456706523895,
            0.12561668455600739,
            0.1461324840784073,
            -0.472513884305954,
            0.1362646520137787,
            -0.4312386214733124
        ],
        [
            -0.4919940233230591,
            0.23288238048553467,
            0.24153970181941986,
            -0.43665608763694763,
            -0.4397086799144745,
            -0.5836430788040161,
            -0.26375603675842285,
            0.19781208038330078,
            -0.5120934844017029,
            -0.3718022108078003
        ],
        [
            0.219400554895401,
            -0.38272780179977417,
            -0.5434370636940002,
            0.1167033463716507,
            -0.3870723843574524,
            -0.06850127875804901,
            -0.28947174549102783,
            0.1707516312599182,
            0.16607525944709778,
            0.21600723266601562
        ],
        [
            -0.5473214983940125,
            -0.13605056703090668,
            -0.4615981876850128,
            0.16810868680477142,
            0.1550334095954895,
            0.15223781764507294,
            -0.5903557538986206,
            -0.28126761317253113,
            0.1696246713399887,
            0.13768619298934937
        ],
        [
            0.053017955273389816,
            0.08871927112340927,
            0.10794424265623093,
            -0.5565082430839539,
            0.13199859857559204,
            -0.6838317513465881,
            -0.506795346736908,
            0.054701078683137894,
            0.07831110060214996,
            0.1056516095995903
        ],
        [
            -0.6194207072257996,
            -0.13717120885849,
            0.18576841056346893,
            0.19216342270374298,
            -0.5621914267539978,
            -0.33971384167671204,
            -0.26824474334716797,
            0.15974968671798706,
            -0.39311838150024414,
            0.004620256368070841
        ],
        [
            -0.03645449876785278,
            0.13053636252880096,
            -0.3673732280731201,
            -0.3899071514606476,
            0.16680194437503815,
            -0.3507758378982544,
            -0.6222267150878906,
            -0.2908245027065277,
            0.14748871326446533,
            0.14893275499343872
        ],
        [
            0.17484459280967712,
            -0.15864571928977966,
            0.07497695833444595,
            -0.654796302318573,
            0.07641658186912537,
            -0.4329913556575775,
            0.08597058057785034,
            -0.5332474708557129,
            -0.3877800405025482,
            -0.000558988656848669
        ],
        [
            -0.7161759734153748,
            0.055396728217601776,
            -0.2427685707807541,
            -0.49979448318481445,
            0.14789989590644836,
            0.08951284736394882,
            -0.01830379106104374,
            0.07128587365150452,
            -0.5082153081893921,
            -0.42700520157814026
        ],
        [
            -0.33088263869285583,
            -0.41552484035491943,
            0.15012070536613464,
            -0.2062530815601349,
            -0.36911386251449585,
            -0.5448695421218872,
            0.06629808992147446,
            0.21819409728050232,
            -0.06019430607557297,
            0.14420069754123688
        ],
        [
            -0.32875195145606995,
            -0.4061381220817566,
            0.14169099926948547,
            -0.34566840529441833,
            0.22998131811618805,
            -0.3988780081272125,
            0.12614740431308746,
            0.1314856857061386,
            0.2189071923494339,
            0.16215693950653076
        ],
        [
            -0.33019575476646423,
            0.11240974068641663,
            -0.3337057828903198,
            0.17955923080444336,
            -0.20809386670589447,
            0.1303512305021286,
            -0.3855065107345581,
            0.1103842705488205,
            0.15038937330245972,
            -0.26874691247940063
        ],
        [
            -0.44529154896736145,
            -0.11332755535840988,
            -0.6763553023338318,
            -0.5186997652053833,
            0.19293220341205597,
            0.21048329770565033,
            0.16218537092208862,
            0.1275509148836136,
            -0.0966649278998375,
            0.1883806586265564
        ],
        [
            -0.01750515215098858,
            -0.1315464824438095,
            -0.07986145466566086,
            -0.2849966585636139,
            0.2447918951511383,
            0.14152775704860687,
            0.2829796373844147,
            -0.5081515312194824,
            -0.24662287533283234,
            -0.5928382873535156
        ],
        [
            -0.2736685574054718,
            -0.30378833413124084,
            -0.33155062794685364,
            -0.2588442862033844,
            0.14138562977313995,
            0.17904217541217804,
            0.2329772263765335,
            -0.15874075889587402,
            0.2322109043598175,
            -0.266655296087265
        ],
        [
            0.20586943626403809,
            -0.3665090799331665,
            -0.7606889605522156,
            -0.4086041748523712,
            -0.4235894978046417,
            0.1484171599149704,
            0.20246762037277222,
            0.14401967823505402,
            -0.383302241563797,
            -0.24806292355060577
        ],
        [
            0.3169926702976227,
            0.1493287980556488,
            -0.1121356189250946,
            -0.28883108496665955,
            -0.5310614109039307,
            0.22259818017482758,
            -0.39947396516799927,
            0.020362993702292442,
            -0.760513424873352,
            -0.18540059030056
        ],
        [
            0.21410050988197327,
            0.23419788479804993,
            -0.3950742185115814,
            -0.25635942816734314,
            -0.6268359422683716,
            0.040599431842565536,
            -0.20573224127292633,
            0.19946959614753723,
            -0.5481238961219788,
            -0.4373633563518524
        ],
        [
            -0.16107286512851715,
            -0.67136549949646,
            0.15219388902187347,
            -0.26374414563179016,
            -0.14407290518283844,
            0.18452034890651703,
            -0.5575808882713318,
            0.12466520071029663,
            0.1099405363202095,
            -0.587092399597168
        ],
        [
            -0.19448882341384888,
            0.09475121647119522,
            0.18208444118499756,
            -0.4503680467605591,
            -0.46804407238960266,
            -0.4596751928329468,
            -0.4955512583255768,
            0.14561767876148224,
            -0.6614476442337036,
            -0.39357271790504456
        ],
        [
            -0.7287228107452393,
            -0.39601239562034607,
            -0.30899715423583984,
            0.040814563632011414,
            0.3063599765300751,
            0.2438914030790329,
            -0.6748592853546143,
            -0.35300421714782715,
            -0.3496197760105133,
            0.2508029043674469
        ],
        [
            0.2669687271118164,
            0.06653282791376114,
            -0.3310351073741913,
            -0.4379611611366272,
            -0.5149471163749695,
            -0.24601876735687256,
            -0.31104815006256104,
            0.09649637341499329,
            0.11727207154035568,
            -0.133042111992836
        ],
        [
            0.20692600309848785,
            0.010332465171813965,
            0.16379456222057343,
            -0.3190782368183136,
            0.17571717500686646,
            -0.3139060437679291,
            0.18047083914279938,
            0.24686051905155182,
            -0.23100914061069489,
            -0.16158778965473175
        ],
        [
            -0.5817393660545349,
            -0.5799900889396667,
            0.20631597936153412,
            0.19391900300979614,
            -0.38156911730766296,
            0.12194163352251053,
            -0.5044649243354797,
            0.1710473746061325,
            0.11507134139537811,
            0.09308052808046341
        ],
        [
            0.18287226557731628,
            -0.09643565863370895,
            0.18674078583717346,
            -0.35668033361434937,
            -0.15911392867565155,
            -0.19334881007671356,
            0.14007657766342163,
            -0.384976863861084,
            -0.010674064047634602,
            -0.4819188117980957
        ],
        [
            -0.25987008213996887,
            -0.05059824511408806,
            0.17500796914100647,
            0.2000749260187149,
            -0.46947482228279114,
            0.23712527751922607,
            0.2063874900341034,
            -0.24497462809085846,
            -0.22176599502563477,
            -0.558901309967041
        ],
        [
            -0.4220268428325653,
            -0.48808902502059937,
            0.11360078305006027,
            0.08575334399938583,
            0.0736720860004425,
            -0.35600531101226807,
            -0.6668087244033813,
            0.023809395730495453,
            0.10427090525627136,
            0.041395194828510284
        ],
        [
            0.09850891679525375,
            -0.6938272714614868,
            0.17162790894508362,
            0.15597759187221527,
            -0.35015591979026794,
            -0.4096967279911041,
            -0.21285416185855865,
            -0.3452942371368408,
            0.1357613503932953,
            0.11381301283836365
        ],
        [
            -0.37081244587898254,
            0.27262791991233826,
            -0.412149041891098,
            0.20494386553764343,
            -0.22172003984451294,
            0.16610807180404663,
            -0.5537518262863159,
            -0.22229456901550293,
            -0.390953004360199,
            0.2159920185804367
        ],
        [
            -0.20443038642406464,
            -0.15636472404003143,
            0.021415522322058678,
            0.15422068536281586,
            -0.255901962518692,
            -0.45229169726371765,
            -0.26219362020492554,
            -0.40603533387184143,
            0.08721616864204407,
            0.12979061901569366
        ],
        [
            -0.35924622416496277,
            0.32528650760650635,
            0.2278975248336792,
            0.040345411747694016,
            -0.23647692799568176,
            0.30157700181007385,
            -0.14780843257904053,
            -0.3107333183288574,
            -0.5128751993179321,
            -0.40824592113494873
        ],
        [
            0.18075434863567352,
            -0.4796363115310669,
            -0.26987990736961365,
            0.195246160030365,
            -0.6902767419815063,
            0.09680654853582382,
            0.2012832760810852,
            -0.6491495370864868,
            0.16630132496356964,
            -0.5295412540435791
        ],
        [
            0.20261681079864502,
            -0.20292723178863525,
            -0.3970312774181366,
            -0.4095001816749573,
            -0.30984392762184143,
            0.14005620777606964,
            0.13294604420661926,
            0.17408843338489532,
            -0.34481391310691833,
            0.16236943006515503
        ],
        [
            0.02167057804763317,
            0.15769854187965393,
            0.20881813764572144,
            -0.12520167231559753,
            0.20640328526496887,
            -0.33109498023986816,
            -0.5373451709747314,
            -0.43929317593574524,
            0.22450263798236847,
            0.2169969081878662
        ],
        [
            0.09265664964914322,
            -0.4197874069213867,
            0.2790945768356323,
            -0.14247609674930573,
            -0.3625573515892029,
            0.01208706945180893,
            0.2138286530971527,
            0.15833903849124908,
            -0.3214150071144104,
            -0.4509207010269165
        ],
        [
            0.20411744713783264,
            -0.5987647175788879,
            -0.28492698073387146,
            -0.15927794575691223,
            0.23135331273078918,
            0.13407336175441742,
            -0.4166480004787445,
            -0.3381955921649933,
            0.16761359572410583,
            0.1801489293575287
        ],
        [
            0.17137913405895233,
            -0.4362824857234955,
            -0.1285671442747116,
            -0.4165126383304596,
            -0.347747266292572,
            -0.12879858911037445,
            -0.15370681881904602,
            0.25884032249450684,
            -0.323404997587204,
            0.03743866831064224
        ],
        [
            0.1400109827518463,
            -0.45576757192611694,
            0.11231657862663269,
            -0.3431301712989807,
            -0.19172526895999908,
            0.1595306098461151,
            -0.5789474844932556,
            0.1613631695508957,
            -0.2064003199338913,
            0.10025126487016678
        ],
        [
            -0.41050082445144653,
            -0.7471653819084167,
            -0.07959016412496567,
            0.2705926299095154,
            -0.4047747850418091,
            0.2658885419368744,
            -0.06755764037370682,
            -0.2327505201101303,
            0.26100027561187744,
            -0.33235085010528564
        ],
        [
            -0.32442405819892883,
            -0.27803388237953186,
            0.12657378613948822,
            -0.2016514092683792,
            0.14980578422546387,
            -0.12230239808559418,
            0.04411117359995842,
            0.07449040561914444,
            -0.20210056006908417,
            -0.48437613248825073
        ],
        [
            0.16486407816410065,
            0.04485185071825981,
            -0.08155077695846558,
            0.095433309674263,
            -0.5283556580543518,
            -0.3381614089012146,
            -0.4822618365287781,
            0.031085262075066566,
            0.181729257106781,
            0.027662312611937523
        ],
        [
            -0.33791202306747437,
            0.28290998935699463,
            0.27448925375938416,
            -0.19612152874469757,
            -0.0887850746512413,
            -0.18788985908031464,
            0.21539412438869476,
            -0.2713361084461212,
            -0.3183136582374573,
            -0.6490597128868103
        ],
        [
            0.12997382879257202,
            -0.2836105227470398,
            -0.34465116262435913,
            -0.46841010451316833,
            0.10586235672235489,
            -0.358635812997818,
            0.10636291652917862,
            -0.5856835246086121,
            -0.5231311321258545,
            0.12366743385791779
        ],
        [
            -0.3959033787250519,
            0.16055390238761902,
            -0.34947362542152405,
            -0.2795264422893524,
            0.032402195036411285,
            0.11245789378881454,
            0.20587633550167084,
            -0.6546584963798523,
            0.19639119505882263,
            -0.3581124246120453
        ],
        [
            -0.4318650960922241,
            0.11602942645549774,
            0.24730712175369263,
            -0.32282590866088867,
            -0.041102662682533264,
            -0.15611791610717773,
            -0.3322499394416809,
            -0.24808570742607117,
            0.23248925805091858,
            0.15558196604251862
        ],
        [
            -0.423412561416626,
            0.07575272768735886,
            -0.49629658460617065,
            -0.45626595616340637,
            0.09226903319358826,
            0.13144870102405548,
            0.1388709843158722,
            -0.007630473002791405,
            0.14881938695907593,
            -0.18581151962280273
        ],
        [
            0.2302713245153427,
            -0.2065878063440323,
            -0.3959912955760956,
            -0.43273308873176575,
            0.018727781251072884,
            -0.47160428762435913,
            -0.4270884692668915,
            0.0991959497332573,
            -0.2503572106361389,
            0.18264354765415192
        ],
        [
            0.15632276237010956,
            -0.4575737714767456,
            0.22156094014644623,
            -0.032002706080675125,
            -0.3621785044670105,
            -0.25314560532569885,
            0.19258223474025726,
            -0.20693039894104004,
            0.17440778017044067,
            0.12702655792236328
        ],
        [
            -0.7339720129966736,
            -0.546120822429657,
            -0.3312843441963196,
            0.18020255863666534,
            0.24300046265125275,
            -0.11611108481884003,
            -0.6404226422309875,
            0.20725111663341522,
            -0.31575456261634827,
            0.21279510855674744
        ],
        [
            -0.41368868947029114,
            -0.4170382022857666,
            0.11085724085569382,
            0.12963582575321198,
            0.06503629684448242,
            0.10822424292564392,
            0.1596110761165619,
            0.0144131388515234,
            0.1228356808423996,
            -0.5079305171966553
        ],
        [
            0.21279382705688477,
            0.15707366168498993,
            0.2918655574321747,
            -0.04950428381562233,
            -0.535180926322937,
            0.2076764851808548,
            -0.17198890447616577,
            0.1431184858083725,
            -0.3570225238800049,
            -0.3639719784259796
        ],
        [
            0.17478980123996735,
            -0.24198047816753387,
            0.05224870145320892,
            0.2030259668827057,
            -0.1287793070077896,
            0.20397217571735382,
            -0.6195579767227173,
            -0.4367618262767792,
            -0.28432008624076843,
            0.19803999364376068
        ],
        [
            0.23830333352088928,
            -0.2666585445404053,
            -0.3135935366153717,
            -0.5330381393432617,
            0.2469923198223114,
            -0.20068730413913727,
            0.20989468693733215,
            -0.1908150315284729,
            -0.4706881642341614,
            0.013462339527904987
        ],
        [
            0.17653043568134308,
            -0.1152435913681984,
            0.274122953414917,
            -0.37146440148353577,
            0.022419767454266548,
            -0.07080033421516418,
            -0.45101234316825867,
            -0.17947690188884735,
            -0.36946985125541687,
            -0.16169145703315735
        ],
        [
            0.27142366766929626,
            0.24860547482967377,
            -0.5364870429039001,
            -0.16577523946762085,
            -0.3864922523498535,
            0.009205606766045094,
            -0.6164225935935974,
            -0.32997816801071167,
            0.21251176297664642,
            0.08349442481994629
        ],
        [
            -0.04303678870201111,
            -1.1025452613830566,
            -0.5423898696899414,
            -0.5973239541053772,
            -0.06241585686802864,
            -0.4765101373195648,
            -0.6825771331787109,
            -0.4476850926876068,
            -0.22545503079891205,
            -0.12738512456417084
        ],
        [
            -0.2034195363521576,
            -0.2699355185031891,
            0.18087173998355865,
            -0.19353383779525757,
            -0.27027401328086853,
            0.03807246685028076,
            0.1462642401456833,
            -0.2539156973361969,
            0.15203583240509033,
            -0.25912195444107056
        ],
        [
            -0.5625242590904236,
            -0.6550701856613159,
            -0.34646615386009216,
            0.08857832849025726,
            0.14491857588291168,
            0.15487591922283173,
            -0.5276303887367249,
            0.13364800810813904,
            0.12792766094207764,
            0.18872012197971344
        ],
        [
            0.0793461725115776,
            0.06850768625736237,
            -0.0006836918764747679,
            -0.3894093632698059,
            -0.28292638063430786,
            0.09903944283723831,
            0.11164738237857819,
            -0.3123955726623535,
            0.11985494196414948,
            -0.6648061275482178
        ],
        [
            -0.2014893740415573,
            -0.0146010871976614,
            0.21359911561012268,
            -0.34766003489494324,
            0.1885867863893509,
            -0.11373604834079742,
            -0.6040085554122925,
            0.17927122116088867,
            -0.05722016096115112,
            -0.3560444712638855
        ],
        [
            -0.4005814790725708,
            0.30752336978912354,
            -0.7208361625671387,
            -0.1781633496284485,
            -0.17657141387462616,
            -0.307898610830307,
            -0.48583805561065674,
            -0.2882140278816223,
            -0.15304674208164215,
            0.2288345992565155
        ],
        [
            -0.2854723036289215,
            -0.29087603092193604,
            -0.49201658368110657,
            -0.5354307889938354,
            0.15497925877571106,
            0.019297782331705093,
            -0.4970690906047821,
            0.14127978682518005,
            0.13548532128334045,
            0.13438351452350616
        ],
        [
            0.0781695544719696,
            -0.2049763947725296,
            0.1082322970032692,
            0.06799023598432541,
            0.11334425210952759,
            -0.34608373045921326,
            -0.1664402335882187,
            -0.3695732355117798,
            -0.3971191942691803,
            0.08887838572263718
        ],
        [
            -0.6516770124435425,
            -0.5395258069038391,
            -0.29125097393989563,
            0.01972140744328499,
            0.1545659750699997,
            0.19444316625595093,
            -0.6359724402427673,
            0.17082208395004272,
            -0.5225476026535034,
            0.1332513391971588
        ],
        [
            -0.3654707670211792,
            -0.7391062378883362,
            -0.5398839712142944,
            -0.11668968945741653,
            -0.13451597094535828,
            0.12208659946918488,
            -0.41961726546287537,
            -0.13081613183021545,
            0.156263530254364,
            0.15192852914333344
        ],
        [
            0.11975374072790146,
            0.17789816856384277,
            -0.4753842353820801,
            -0.06855753809213638,
            0.08564464002847672,
            -0.5010281205177307,
            0.135984867811203,
            0.22354155778884888,
            -0.5068766474723816,
            -0.40639960765838623
        ],
        [
            -0.4764420986175537,
            0.14848478138446808,
            0.16153647005558014,
            0.1456553190946579,
            -0.1498868614435196,
            -0.4150516390800476,
            0.1271369606256485,
            0.16625133156776428,
            0.10526654869318008,
            -0.5196950435638428
        ],
        [
            0.13704358041286469,
            -0.2743770182132721,
            0.10790102183818817,
            -0.372207909822464,
            -0.2484336495399475,
            0.15155695378780365,
            0.12739619612693787,
            -0.5017697811126709,
            0.15519045293331146,
            -0.26821890473365784
        ],
        [
            -0.30928748846054077,
            -0.38129571080207825,
            -0.18677516281604767,
            -0.3180013597011566,
            0.1873479187488556,
            -0.03897617384791374,
            0.30479860305786133,
            -0.3464393615722656,
            0.041163116693496704,
            -0.3746882677078247
        ],
        [
            0.2021103948354721,
            0.008864307776093483,
            -0.3237471878528595,
            -0.08712061494588852,
            0.18232516944408417,
            -0.2661370635032654,
            0.1995237171649933,
            -0.5831055641174316,
            -0.29977163672447205,
            0.17216764390468597
        ],
        [
            -0.44108694791793823,
            0.090369813144207,
            0.03442457318305969,
            -0.48663103580474854,
            0.05302794650197029,
            -0.6094057559967041,
            -0.2214631736278534,
            0.05402074009180069,
            -0.510231614112854,
            -0.3576887845993042
        ]
    ]
}